{"learner":{"attributes":{"scikit_learn":"{\"_estimator_type\": \"classifier\"}"},"feature_names":[],"feature_types":[],"gradient_booster":{"model":{"gbtree_model_param":{"num_parallel_tree":"1","num_trees":"300"},"iteration_indptr":[0,1,2,3,4,5,6,7,8,9,10,11,12,13,14,15,16,17,18,19,20,21,22,23,24,25,26,27,28,29,30,31,32,33,34,35,36,37,38,39,40,41,42,43,44,45,46,47,48,49,50,51,52,53,54,55,56,57,58,59,60,61,62,63,64,65,66,67,68,69,70,71,72,73,74,75,76,77,78,79,80,81,82,83,84,85,86,87,88,89,90,91,92,93,94,95,96,97,98,99,100,101,102,103,104,105,106,107,108,109,110,111,112,113,114,115,116,117,118,119,120,121,122,123,124,125,126,127,128,129,130,131,132,133,134,135,136,137,138,139,140,141,142,143,144,145,146,147,148,149,150,151,152,153,154,155,156,157,158,159,160,161,162,163,164,165,166,167,168,169,170,171,172,173,174,175,176,177,178,179,180,181,182,183,184,185,186,187,188,189,190,191,192,193,194,195,196,197,198,199,200,201,202,203,204,205,206,207,208,209,210,211,212,213,214,215,216,217,218,219,220,221,222,223,224,225,226,227,228,229,230,231,232,233,234,235,236,237,238,239,240,241,242,243,244,245,246,247,248,249,250,251,252,253,254,255,256,257,258,259,260,261,262,263,264,265,266,267,268,269,270,271,272,273,274,275,276,277,278,279,280,281,282,283,284,285,286,287,288,289,290,291,292,293,294,295,296,297,298,299,300],"tree_info":[0,0,0,0,0,0,0,0,0,0,0,0,0,0,0,0,0,0,0,0,0,0,0,0,0,0,0,0,0,0,0,0,0,0,0,0,0,0,0,0,0,0,0,0,0,0,0,0,0,0,0,0,0,0,0,0,0,0,0,0,0,0,0,0,0,0,0,0,0,0,0,0,0,0,0,0,0,0,0,0,0,0,0,0,0,0,0,0,0,0,0,0,0,0,0,0,0,0,0,0,0,0,0,0,0,0,0,0,0,0,0,0,0,0,0,0,0,0,0,0,0,0,0,0,0,0,0,0,0,0,0,0,0,0,0,0,0,0,0,0,0,0,0,0,0,0,0,0,0,0,0,0,0,0,0,0,0,0,0,0,0,0,0,0,0,0,0,0,0,0,0,0,0,0,0,0,0,0,0,0,0,0,0,0,0,0,0,0,0,0,0,0,0,0,0,0,0,0,0,0,0,0,0,0,0,0,0,0,0,0,0,0,0,0,0,0,0,0,0,0,0,0,0,0,0,0,0,0,0,0,0,0,0,0,0,0,0,0,0,0,0,0,0,0,0,0,0,0,0,0,0,0,0,0,0,0,0,0,0,0,0,0,0,0,0,0,0,0,0,0,0,0,0,0,0,0,0,0,0,0,0,0,0,0,0,0,0,0,0,0,0,0,0,0,0,0,0,0,0,0],"trees":[{"base_weights":[-8.644087E-2,1.0122441E0,-1.0859722E0,-3.2279938E-1,1.6537642E0,-8.323989E-2,-3.6705077E-1,8.623776E-1,1.7505996E-1],"categories":[],"categories_nodes":[],"categories_segments":[],"categories_sizes":[],"default_left":[0,0,0,0,0,0,0,0,0],"id":0,"left_children":[1,3,5,-1,7,-1,-1,-1,-1],"loss_changes":[3.8868095E1,2.4421118E1,1.7166443E0,0E0,1.5730537E1,0E0,0E0,0E0,0E0],"parents":[2147483647,0,0,1,1,2,2,4,4],"right_children":[2,4,6,-1,8,-1,-1,-1,-1],"split_conditions":[3.4493035E-1,-4.487349E-1,4.5267433E-1,-3.2279938E-1,-3.015335E-1,-8.323989E-2,-3.6705077E-1,8.623776E-1,1.7505996E-1],"split_indices":[15,13,15,0,15,0,0,0,0],"split_type":[0,0,0,0,0,0,0,0,0],"sum_hessian":[3.3392506E1,1.5901194E1,1.7491314E1,3.5777686E0,1.2323425E1,2.981474E0,1.4509839E1,4.969123E0,7.354302E0],"tree_param":{"num_deleted":"0","num_feature":"20","num_nodes":"9","size_leaf_vector":"1"}},{"base_weights":[-9.327547E-2,6.543262E-1,-9.445569E-1,-2.8711858E-1,1.0401229E0,-6.681191E-2,-3.2605055E-1,4.028044E-1,-8.587718E-2],"categories":[],"categories_nodes":[],"categories_segments":[],"categories_sizes":[],"default_left":[0,0,0,0,0,0,0,0,0],"id":1,"left_children":[1,3,5,-1,7,-1,-1,-1,-1],"loss_changes":[2.1633606E1,1.229253E1,1.3857441E0,0E0,6.4605713E0,0E0,0E0,0E0,0E0],"parents":[2147483647,0,0,1,1,2,2,4,4],"right_children":[2,4,6,-1,8,-1,-1,-1,-1],"split_conditions":[3.4493035E-1,-4.487349E-1,4.5267433E-1,-2.8711858E-1,2.5439933E-1,-6.681191E-2,-3.2605055E-1,4.028044E-1,-8.587718E-2],"split_indices":[15,13,15,0,18,0,0,0,0],"split_type":[0,0,0,0,0,0,0,0,0],"sum_hessian":[3.2021557E1,1.7172182E1,1.4849375E1,3.0311198E0,1.4141062E1,2.867312E0,1.1982062E1,1.15045E1,2.636562E0],"tree_param":{"num_deleted":"0","num_feature":"20","num_nodes":"9","size_leaf_vector":"1"}},{"base_weights":[-1.0144956E-1,3.5504934E-1,-2.9537198E-1,-1.2197158E-1,1.2757678E0,-2.7798912E-1,5.138501E-2,1.361971E-1,4.7340408E-1],"categories":[],"categories_nodes":[],"categories_segments":[],"categories_sizes":[],"default_left":[0,0,0,0,0,0,0,0,0],"id":2,"left_children":[1,3,-1,5,7,-1,-1,-1,-1],"loss_changes":[1.2739052E1,9.37646E0,0E0,3.6374516E0,1.0849133E0,0E0,0E0,0E0,0E0],"parents":[2147483647,0,0,1,1,3,3,4,4],"right_children":[2,4,-1,6,8,-1,-1,-1,-1],"split_conditions":[4.5267433E-1,4.5255548E-1,-2.9537198E-1,-4.487349E-1,-6.257357E-1,-2.7798912E-1,5.138501E-2,1.361971E-1,4.7340408E-1],"split_indices":[15,10,0,13,11,0,0,0,0],"split_type":[0,0,0,0,0,0,0,0,0],"sum_hessian":[2.9732065E1,1.9994562E1,9.737504E0,1.3742268E1,6.252294E0,3.093697E0,1.064857E1,2.3540134E0,3.8982809E0],"tree_param":{"num_deleted":"0","num_feature":"20","num_nodes":"9","size_leaf_vector":"1"}},{"base_weights":[-8.6990036E-2,8.160021E-1,-4.735002E-1,4.307822E-3,3.647203E-1,-9.454062E-1,7.044898E-2,-1.1516804E-1,-3.1501195E-1,1.8254344E-1,-2.7196935E-1],"categories":[],"categories_nodes":[],"categories_segments":[],"categories_sizes":[],"default_left":[0,0,0,0,0,0,0,0,0,0,0],"id":3,"left_children":[1,3,5,-1,-1,7,9,-1,-1,-1,-1],"loss_changes":[1.0331877E1,2.8371806E0,5.351248E0,0E0,0E0,2.4865055E-1,6.068101E0,0E0,0E0,0E0,0E0],"parents":[2147483647,0,0,1,1,2,2,5,5,6,6],"right_children":[2,4,6,-1,-1,8,10,-1,-1,-1,-1],"split_conditions":[-2.2970417E-1,-1.22382246E-1,8.8883173E-1,4.307822E-3,3.647203E-1,-7.283928E-1,6.510691E-1,-1.1516804E-1,-3.1501195E-1,1.8254344E-1,-2.7196935E-1],"split_indices":[15,13,0,0,0,0,11,0,0,0,0],"split_type":[0,0,0,0,0,0,0,0,0,0,0],"sum_hessian":[2.7495853E1,7.9084272E0,1.9587427E1,2.9760444E0,4.932383E0,1.00930805E1,9.494347E0,2.3187132E0,7.774367E0,6.365919E0,3.128427E0],"tree_param":{"num_deleted":"0","num_feature":"20","num_nodes":"11","size_leaf_vector":"1"}},{"base_weights":[-8.08971E-2,6.924325E-1,-3.936532E-1,3.6876787E-2,2.9088676E-1,-6.636215E-1,3.7623507E-1,-3.127753E-1,-1.13319926E-1,3.30484E-1,-1.8784425E-1],"categories":[],"categories_nodes":[],"categories_segments":[],"categories_sizes":[],"default_left":[0,0,0,0,0,0,0,0,0,0,0],"id":4,"left_children":[1,3,5,-1,-1,7,9,-1,-1,-1,-1],"loss_changes":[6.6191072E0,1.1308801E0,4.265542E0,0E0,0E0,1.1952171E0,4.801138E0,0E0,0E0,0E0,0E0],"parents":[2147483647,0,0,1,1,2,2,5,5,6,6],"right_children":[2,4,6,-1,-1,8,10,-1,-1,-1,-1],"split_conditions":[-3.015335E-1,-1.22382246E-1,5.469212E-1,3.6876787E-2,2.9088676E-1,1.3838473E-1,-5.33629E-1,-3.127753E-1,-1.13319926E-1,3.30484E-1,-1.8784425E-1],"split_indices":[15,13,1,0,0,10,4,0,0,0,0],"split_type":[0,0,0,0,0,0,0,0,0,0,0],"sum_hessian":[2.524012E1,6.918722E0,1.8321398E1,2.737585E0,4.181137E0,1.3666978E1,4.654421E0,4.7387066E0,8.928271E0,2.6428885E0,2.0115323E0],"tree_param":{"num_deleted":"0","num_feature":"20","num_nodes":"11","size_leaf_vector":"1"}},{"base_weights":[-6.4414516E-2,-2.791674E-1,1.7759682E-1,3.0824777E-1,-1.6968688E-1,7.636591E-2,-2.1862678E-1],"categories":[],"categories_nodes":[],"categories_segments":[],"categories_sizes":[],"default_left":[0,0,0,0,0,0,0],"id":5,"left_children":[1,-1,3,-1,5,-1,-1],"loss_changes":[5.2495027E0,0E0,6.017716E0,0E0,3.7225366E0,0E0,0E0],"parents":[2147483647,0,0,2,2,4,4],"right_children":[2,-1,4,-1,6,-1,-1],"split_conditions":[-4.487349E-1,-2.791674E-1,-3.015335E-1,3.0824777E-1,-4.661217E-1,7.636591E-2,-2.1862678E-1],"split_indices":[13,0,15,0,4,0,0],"split_type":[0,0,0,0,0,0,0],"sum_hessian":[2.3254948E1,4.457332E0,1.8797615E1,4.8847284E0,1.3912887E1,8.21998E0,5.6929064E0],"tree_param":{"num_deleted":"0","num_feature":"20","num_nodes":"7","size_leaf_vector":"1"}},{"base_weights":[-6.0255148E-2,-2.5946537E-1,1.4268634E-1,2.6620582E-1,-1.4119188E-1,1.0472935E-1,-1.6728878E-1],"categories":[],"categories_nodes":[],"categories_segments":[],"categories_sizes":[],"default_left":[0,0,0,0,0,0,0],"id":6,"left_children":[1,-1,3,-1,5,-1,-1],"loss_changes":[3.7204874E0,0E0,4.025499E0,0E0,3.0981302E0,0E0,0E0],"parents":[2147483647,0,0,2,2,4,4],"right_children":[2,-1,4,-1,6,-1,-1],"split_conditions":[-4.487349E-1,-2.5946537E-1,-3.015335E-1,2.6620582E-1,-5.5987275E-1,1.0472935E-1,-1.6728878E-1],"split_indices":[13,0,15,0,6,0,0],"split_type":[0,0,0,0,0,0,0],"sum_hessian":[2.1028421E1,3.5785034E0,1.7449919E1,4.2294497E0,1.32204685E1,6.1461015E0,7.0743675E0],"tree_param":{"num_deleted":"0","num_feature":"20","num_nodes":"7","size_leaf_vector":"1"}},{"base_weights":[-5.164418E-2,1.5915923E-1,-2.0585452E-1,-3.0971292E-1,4.3182248E-1,4.95071E-2,-1.7213434E-1,2.1780546E-1,-1.5017703E-1],"categories":[],"categories_nodes":[],"categories_segments":[],"categories_sizes":[],"default_left":[0,0,0,0,0,0,0,0,0],"id":7,"left_children":[1,3,-1,5,7,-1,-1,-1,-1],"loss_changes":[2.8374412E0,2.1947923E0,0E0,9.1083175E-1,3.2742498E0,0E0,0E0,0E0,0E0],"parents":[2147483647,0,0,1,1,3,3,4,4],"right_children":[2,4,-1,6,8,-1,-1,-1,-1],"split_conditions":[4.5267433E-1,-5.724745E-1,-2.0585452E-1,-3.015335E-1,8.9574635E-1,4.95071E-2,-1.7213434E-1,2.1780546E-1,-1.5017703E-1],"split_indices":[15,2,0,15,2,0,0,0,0],"split_type":[0,0,0,0,0,0,0,0,0],"sum_hessian":[1.9396042E1,1.5121585E1,4.274457E0,5.5102572E0,9.611327E0,2.103571E0,3.4066863E0,7.4743643E0,2.1369634E0],"tree_param":{"num_deleted":"0","num_feature":"20","num_nodes":"9","size_leaf_vector":"1"}},{"base_weights":[-5.67208E-2,-2.3997663E-1,1.1605364E-1,2.229509E-1,-1.0097014E-1,-1.8809958E-1,6.695444E-2],"categories":[],"categories_nodes":[],"categories_segments":[],"categories_sizes":[],"default_left":[0,0,0,0,0,0,0],"id":8,"left_children":[1,-1,3,-1,5,-1,-1],"loss_changes":[2.5845046E0,0E0,2.3366976E0,0E0,2.3951042E0,0E0,0E0],"parents":[2147483647,0,0,2,2,4,4],"right_children":[2,-1,4,-1,6,-1,-1],"split_conditions":[-4.487349E-1,-2.3997663E-1,-3.015335E-1,2.229509E-1,7.091401E-1,-1.8809958E-1,6.695444E-2],"split_indices":[13,0,15,0,0,0,0],"split_type":[0,0,0,0,0,0,0],"sum_hessian":[1.8404604E1,2.786862E0,1.5617743E1,3.3919446E0,1.2225798E1,4.3051643E0,7.9206333E0],"tree_param":{"num_deleted":"0","num_feature":"20","num_nodes":"7","size_leaf_vector":"1"}},{"base_weights":[-5.398596E-2,-2.2255664E-1,9.209973E-2,-1.7421284E-1,2.3801239E-1,2.2937676E-1,-2.5740625E-2],"categories":[],"categories_nodes":[],"categories_segments":[],"categories_sizes":[],"default_left":[0,0,0,0,0,0,0],"id":9,"left_children":[1,-1,3,-1,5,-1,-1],"loss_changes":[1.8797071E0,0E0,1.6851816E0,0E0,2.3945985E0,0E0,0E0],"parents":[2147483647,0,0,2,2,4,4],"right_children":[2,-1,4,-1,6,-1,-1],"split_conditions":[-4.487349E-1,-2.2255664E-1,-7.098444E-1,-1.7421284E-1,-5.5987275E-1,2.2937676E-1,-2.5740625E-2],"split_indices":[13,0,6,0,6,0,0],"split_type":[0,0,0,0,0,0,0],"sum_hessian":[1.7025877E1,2.2680683E0,1.4757809E1,2.0990696E0,1.2658739E1,4.3019114E0,8.356828E0],"tree_param":{"num_deleted":"0","num_feature":"20","num_nodes":"7","size_leaf_vector":"1"}},{"base_weights":[-5.3488508E-2,-2.0651634E-1,1.467252E-1,1.648966E-1,-5.453234E-1,-1.5677439E-1,1.5951623E-1,-2.365155E-1,-4.745374E-3],"categories":[],"categories_nodes":[],"categories_segments":[],"categories_sizes":[],"default_left":[0,0,0,0,0,0,0,0,0],"id":10,"left_children":[1,3,-1,5,7,-1,-1,-1,-1],"loss_changes":[1.5470694E0,1.8878925E0,0E0,2.1903942E0,9.790766E-1,0E0,0E0,0E0,0E0],"parents":[2147483647,0,0,1,1,3,3,4,4],"right_children":[2,4,-1,6,8,-1,-1,-1,-1],"split_conditions":[3.7098598E-1,-5.5987275E-1,1.467252E-1,-7.098444E-1,4.5255548E-1,-1.5677439E-1,1.5951623E-1,-2.365155E-1,-4.745374E-3],"split_indices":[6,6,0,6,10,0,0,0,0],"split_type":[0,0,0,0,0,0,0,0,0],"sum_hessian":[1.6416458E1,1.3288054E1,3.1284044E0,6.583871E0,6.7041836E0,2.1429965E0,4.440874E0,4.2598534E0,2.4443302E0],"tree_param":{"num_deleted":"0","num_feature":"20","num_nodes":"9","size_leaf_vector":"1"}},{"base_weights":[-4.7603715E-2,8.2838446E-2,-1.9402294E-1,-2.7544856E-1,4.4468528E-1,-1.800283E-1,1.09554395E-1,2.6454616E-1,7.880956E-4],"categories":[],"categories_nodes":[],"categories_segments":[],"categories_sizes":[],"default_left":[0,0,0,0,0,0,0,0,0],"id":11,"left_children":[1,3,-1,5,7,-1,-1,-1,-1],"loss_changes":[1.3719009E0,2.0333314E0,0E0,1.8878434E0,1.4886378E0,0E0,0E0,0E0,0E0],"parents":[2147483647,0,0,1,1,3,3,4,4],"right_children":[2,4,-1,6,8,-1,-1,-1,-1],"split_conditions":[8.9989096E-1,-3.9246222E-1,-1.9402294E-1,4.5255548E-1,2.3718639E-1,-1.800283E-1,1.09554395E-1,2.6454616E-1,7.880956E-4],"split_indices":[2,2,0,10,15,0,0,0,0],"split_type":[0,0,0,0,0,0,0,0,0],"sum_hessian":[1.5868515E1,1.3739044E1,2.1294706E0,7.0234556E0,6.715589E0,4.70329E0,2.3201656E0,2.8764086E0,3.8391805E0],"tree_param":{"num_deleted":"0","num_feature":"20","num_nodes":"9","size_leaf_vector":"1"}},{"base_weights":[-3.5853E-2,1.1727782E-1,-1.5548457E-1,3.4284037E-1,-2.521575E-1,-1.3973419E-2,2.5472787E-1,-2.2933643E-1,9.2523105E-2],"categories":[],"categories_nodes":[],"categories_segments":[],"categories_sizes":[],"default_left":[0,0,0,0,0,0,0,0,0],"id":12,"left_children":[1,3,-1,5,7,-1,-1,-1,-1],"loss_changes":[1.2652842E0,1.1857245E0,0E0,1.737856E0,1.8373979E0,0E0,0E0,0E0,0E0],"parents":[2147483647,0,0,1,1,3,3,4,4],"right_children":[2,4,-1,6,8,-1,-1,-1,-1],"split_conditions":[6.510691E-1,1.423561E-1,-1.5548457E-1,-3.9246222E-1,-5.1933527E-1,-1.3973419E-2,2.5472787E-1,-2.2933643E-1,9.2523105E-2],"split_indices":[11,2,0,2,11,0,0,0,0],"split_type":[0,0,0,0,0,0,0,0,0],"sum_hessian":[1.5304646E1,1.2191701E1,3.112944E0,7.614548E0,4.577153E0,4.8171244E0,2.7974238E0,2.2015052E0,2.3756478E0],"tree_param":{"num_deleted":"0","num_feature":"20","num_nodes":"9","size_leaf_vector":"1"}},{"base_weights":[-3.1374525E-2,1.2733708E-1,-1.9456692E-1,1.9805343E-1,-4.1893923E-1,-7.485314E-2,1.766139E-1,1.3048203E-2,-2.0172372E-1],"categories":[],"categories_nodes":[],"categories_segments":[],"categories_sizes":[],"default_left":[0,0,0,0,0,0,0,0,0],"id":13,"left_children":[1,-1,3,5,7,-1,-1,-1,-1],"loss_changes":[1.2621421E0,0E0,1.1719937E0,1.0516365E0,9.8895025E-1,0E0,0E0,0E0,0E0],"parents":[2147483647,0,0,2,2,3,3,4,4],"right_children":[2,-1,4,6,8,-1,-1,-1,-1],"split_conditions":[-3.015335E-1,1.2733708E-1,-6.6864353E-1,2.2576709E-1,-5.5987275E-1,-7.485314E-2,1.766139E-1,1.3048203E-2,-2.0172372E-1],"split_indices":[15,0,4,1,6,0,0,0,0],"split_type":[0,0,0,0,0,0,0,0,0],"sum_hessian":[1.4856769E1,3.4946103E0,1.1362159E1,4.17456E0,7.187598E0,2.113972E0,2.060588E0,2.8381395E0,4.349459E0],"tree_param":{"num_deleted":"0","num_feature":"20","num_nodes":"9","size_leaf_vector":"1"}},{"base_weights":[-2.2959035E-2,1.0295191E-1,-1.4172275E-1,-9.053905E-2,1.3103086E-1,-1.03204854E-1,1.1716316E-1],"categories":[],"categories_nodes":[],"categories_segments":[],"categories_sizes":[],"default_left":[0,0,0,0,0,0,0],"id":14,"left_children":[1,3,-1,5,-1,-1,-1],"loss_changes":[8.9847517E-1,8.502878E-1,0E0,1.2043428E0,0E0,0E0,0E0],"parents":[2147483647,0,0,1,1,3,3],"right_children":[2,4,-1,6,-1,-1,-1],"split_conditions":[4.5267433E-1,4.5255548E-1,-1.4172275E-1,3.120316E-1,1.3103086E-1,-1.03204854E-1,1.1716316E-1],"split_indices":[15,10,0,6,0,0,0],"split_type":[0,0,0,0,0,0,0],"sum_hessian":[1.4017306E1,1.1552012E1,2.4652936E0,7.774468E0,3.7775445E0,5.278303E0,2.4961648E0],"tree_param":{"num_deleted":"0","num_feature":"20","num_nodes":"7","size_leaf_vector":"1"}},{"base_weights":[-1.774682E-2,1.05938405E-1,-1.23537324E-1,2.7907002E-1,-1.2065098E-1,-8.77898E-2,1.5512562E-1],"categories":[],"categories_nodes":[],"categories_segments":[],"categories_sizes":[],"default_left":[0,0,0,0,0,0,0],"id":15,"left_children":[1,3,-1,5,-1,-1,-1],"loss_changes":[7.4887055E-1,1.151044E0,0E0,1.4301392E0,0E0,0E0,0E0],"parents":[2147483647,0,0,1,1,3,3],"right_children":[2,4,-1,6,-1,-1,-1],"split_conditions":[8.5667574E-1,6.510691E-1,-1.23537324E-1,-1.2074882E-1,-1.2065098E-1,-8.77898E-2,1.5512562E-1],"split_indices":[13,11,0,9,0,0,0],"split_type":[0,0,0,0,0,0,0],"sum_hessian":[1.347031E1,1.0808742E1,2.6615686E0,8.397996E0,2.410746E0,2.4011257E0,5.99687E0],"tree_param":{"num_deleted":"0","num_feature":"20","num_nodes":"7","size_leaf_vector":"1"}},{"base_weights":[-2.5881773E-2,2.3923372E-1,-2.2710668E-1,-2.6354799E-2,1.6076164E-1,5.0421152E-2,-3.8162112E-1,-1.6558607E-1,-1.834869E-2],"categories":[],"categories_nodes":[],"categories_segments":[],"categories_sizes":[],"default_left":[0,0,0,0,0,0,0,0,0],"id":16,"left_children":[1,3,5,-1,-1,-1,7,-1,-1],"loss_changes":[8.244853E-1,6.9872737E-1,5.965972E-1,0E0,0E0,0E0,3.251202E-1,0E0,0E0],"parents":[2147483647,0,0,1,1,2,2,6,6],"right_children":[2,4,6,-1,-1,-1,8,-1,-1],"split_conditions":[-3.7257996E-1,-7.6121736E-1,-3.4530407E-1,-2.6354799E-2,1.6076164E-1,5.0421152E-2,6.594743E-1,-1.6558607E-1,-1.834869E-2],"split_indices":[18,5,1,0,0,0,9,0,0],"split_type":[0,0,0,0,0,0,0,0,0],"sum_hessian":[1.3436457E1,5.716298E0,7.720158E0,3.0533864E0,2.662912E0,2.145421E0,5.574737E0,3.1683104E0,2.4064267E0],"tree_param":{"num_deleted":"0","num_feature":"20","num_nodes":"9","size_leaf_vector":"1"}},{"base_weights":[-1.8824637E-2,1.6339198E-1,-2.6238737E-1,-8.237889E-2,1.22312784E-1,-1.5731089E-1,1.3411261E-2,4.507337E-2,-8.408236E-2],"categories":[],"categories_nodes":[],"categories_segments":[],"categories_sizes":[],"default_left":[0,0,0,0,0,0,0,0,0],"id":17,"left_children":[1,3,5,7,-1,-1,-1,-1,-1],"loss_changes":[6.7605764E-1,5.6064326E-1,5.4553425E-1,2.8184527E-1,0E0,0E0,0E0,0E0,0E0],"parents":[2147483647,0,0,1,1,2,2,3,3],"right_children":[2,4,6,8,-1,-1,-1,-1,-1],"split_conditions":[2.3718639E-1,-6.820659E-1,3.593192E-2,-3.0335766E-1,1.22312784E-1,-1.5731089E-1,1.3411261E-2,4.507337E-2,-8.408236E-2],"split_indices":[15,19,1,1,0,0,0,0,0],"split_type":[0,0,0,0,0,0,0,0,0],"sum_hessian":[1.3266986E1,7.777536E0,5.48945E0,4.207661E0,3.5698745E0,2.580484E0,2.9089663E0,2.044808E0,2.1628532E0],"tree_param":{"num_deleted":"0","num_feature":"20","num_nodes":"9","size_leaf_vector":"1"}},{"base_weights":[-1.9516148E-2,2.2065812E-1,-2.0549834E-1,1.4859188E-1,-5.2316006E-2,-1.660372E-1,1.2178671E-1,1.7162216E-1,-1.0712788E-1],"categories":[],"categories_nodes":[],"categories_segments":[],"categories_sizes":[],"default_left":[0,0,0,0,0,0,0,0,0],"id":18,"left_children":[1,3,5,-1,-1,-1,7,-1,-1],"loss_changes":[6.644753E-1,7.9500496E-1,1.0159729E0,0E0,0E0,0E0,1.3065711E0,0E0,0E0],"parents":[2147483647,0,0,1,1,2,2,6,6],"right_children":[2,4,6,-1,-1,-1,8,-1,-1],"split_conditions":[-6.1764544E-1,-2.5550926E-1,-2.519948E-1,1.4859188E-1,-5.2316006E-2,-1.660372E-1,3.2554698E-1,1.7162216E-1,-1.0712788E-1],"split_indices":[3,12,19,0,0,0,8,0,0],"split_type":[0,0,0,0,0,0,0,0,0],"sum_hessian":[1.2860674E1,5.5312557E0,7.329418E0,3.1131167E0,2.4181387E0,3.2175577E0,4.1118603E0,2.018897E0,2.0929635E0],"tree_param":{"num_deleted":"0","num_feature":"20","num_nodes":"9","size_leaf_vector":"1"}},{"base_weights":[-1.5447561E-2,-1.336141E-1,9.212288E-2,-1.906605E-1,1.1784085E-1,-1.1695519E-1,1.1390623E-1],"categories":[],"categories_nodes":[],"categories_segments":[],"categories_sizes":[],"default_left":[0,0,0,0,0,0,0],"id":19,"left_children":[1,3,-1,-1,5,-1,-1],"loss_changes":[5.577056E-1,1.4150708E0,0E0,0E0,1.2006191E0,0E0,0E0],"parents":[2147483647,0,0,1,1,4,4],"right_children":[2,4,-1,-1,6,-1,-1],"split_conditions":[3.120316E-1,-3.151021E-1,9.212288E-2,-1.906605E-1,-5.1933527E-1,-1.1695519E-1,1.1390623E-1],"split_indices":[6,0,0,0,11,0,0],"split_type":[0,0,0,0,0,0,0],"sum_hessian":[1.2556947E1,9.6186E0,2.9383466E0,2.7005966E0,6.918003E0,2.1876128E0,4.7303905E0],"tree_param":{"num_deleted":"0","num_feature":"20","num_nodes":"7","size_leaf_vector":"1"}},{"base_weights":[-2.036776E-2,8.76606E-2,-1.1856547E-1,2.5491464E-1,-6.904674E-2,-1.3848543E-2,1.8380557E-1],"categories":[],"categories_nodes":[],"categories_segments":[],"categories_sizes":[],"default_left":[0,0,0,0,0,0,0],"id":20,"left_children":[1,3,-1,5,-1,-1,-1],"loss_changes":[5.765672E-1,6.543985E-1,0E0,8.7034035E-1,0E0,0E0,0E0],"parents":[2147483647,0,0,1,1,3,3],"right_children":[2,4,-1,6,-1,-1,-1],"split_conditions":[6.510691E-1,3.3268785E-1,-1.1856547E-1,-3.9246222E-1,-6.904674E-2,-1.3848543E-2,1.8380557E-1],"split_indices":[11,2,0,2,0,0,0],"split_type":[0,0,0,0,0,0,0],"sum_hessian":[1.2382617E1,1.0207156E1,2.175461E0,6.817367E0,3.3897886E0,4.1749635E0,2.642404E0],"tree_param":{"num_deleted":"0","num_feature":"20","num_nodes":"7","size_leaf_vector":"1"}},{"base_weights":[-1.6251655E-2,2.3845226E-1,-1.6264331E-1,-1.906062E-2,1.4120403E-1,1.8945578E-1,-2.1251224E-1,-5.5926345E-2,1.3939343E-1],"categories":[],"categories_nodes":[],"categories_segments":[],"categories_sizes":[],"default_left":[0,0,0,0,0,0,0,0,0],"id":21,"left_children":[1,3,5,-1,-1,7,-1,-1,-1],"loss_changes":[5.286413E-1,3.946143E-1,1.8515005E0,0E0,0E0,7.301346E-1,0E0,0E0,0E0],"parents":[2147483647,0,0,1,1,2,2,5,5],"right_children":[2,4,6,-1,-1,8,-1,-1,-1],"split_conditions":[-4.2584875E-1,-9.373368E-2,-2.5190476E-1,-1.906062E-2,1.4120403E-1,-4.1778064E-1,-2.1251224E-1,-5.5926345E-2,1.3939343E-1],"split_indices":[12,11,7,0,0,1,0,0,0],"split_type":[0,0,0,0,0,0,0,0,0],"sum_hessian":[1.2137685E1,4.200483E0,7.9372015E0,2.1417599E0,2.058723E0,5.221312E0,2.7158892E0,2.343258E0,2.8780541E0],"tree_param":{"num_deleted":"0","num_feature":"20","num_nodes":"9","size_leaf_vector":"1"}},{"base_weights":[-1.4505621E-2,7.856242E-2,-1.0339801E-1,-6.552871E-2,1.1738644E-1,-1.4619218E-1,5.070194E-2],"categories":[],"categories_nodes":[],"categories_segments":[],"categories_sizes":[],"default_left":[0,0,0,0,0,0,0],"id":22,"left_children":[1,3,-1,5,-1,-1,-1],"loss_changes":[4.2062017E-1,5.125557E-1,0E0,8.9884615E-1,0E0,0E0,0E0],"parents":[2147483647,0,0,1,1,3,3],"right_children":[2,4,-1,6,-1,-1,-1],"split_conditions":[6.510691E-1,-8.516975E-2,-1.0339801E-1,7.091401E-1,1.1738644E-1,-1.4619218E-1,5.070194E-2],"split_indices":[11,12,0,0,0,0,0],"split_type":[0,0,0,0,0,0,0],"sum_hessian":[1.1807795E1,9.805688E0,2.0021067E0,7.2538652E0,2.5518234E0,2.2070458E0,5.046819E0],"tree_param":{"num_deleted":"0","num_feature":"20","num_nodes":"7","size_leaf_vector":"1"}},{"base_weights":[-1.790451E-2,2.076487E-1,-1.5642259E-1,-2.832503E-2,1.3632916E-1,1.4704314E-1,-1.8912563E-1,1.3020724E-1,-3.4275517E-2],"categories":[],"categories_nodes":[],"categories_segments":[],"categories_sizes":[],"default_left":[0,0,0,0,0,0,0,0,0],"id":23,"left_children":[1,3,5,-1,-1,7,-1,-1,-1],"loss_changes":[4.228896E-1,4.2933738E-1,1.288292E0,0E0,0E0,4.903881E-1,0E0,0E0,0E0],"parents":[2147483647,0,0,1,1,2,2,5,5],"right_children":[2,4,6,-1,-1,8,-1,-1,-1],"split_conditions":[-4.2584875E-1,6.594743E-1,-2.5190476E-1,-2.832503E-2,1.3632916E-1,-6.9102573E-1,-1.8912563E-1,1.3020724E-1,-3.4275517E-2],"split_indices":[12,9,7,0,0,19,0,0,0],"split_type":[0,0,0,0,0,0,0,0,0],"sum_hessian":[1.1495796E1,4.1839194E0,7.311877E0,2.1588526E0,2.0250669E0,4.87838E0,2.433497E0,2.0098755E0,2.868504E0],"tree_param":{"num_deleted":"0","num_feature":"20","num_nodes":"9","size_leaf_vector":"1"}},{"base_weights":[-1.3329791E-2,8.47605E-2,-9.22472E-2,-1.6864331E-1,2.966486E-1,2.1810405E-2,-1.0741987E-1,-1.538826E-2,1.8960631E-1],"categories":[],"categories_nodes":[],"categories_segments":[],"categories_sizes":[],"default_left":[0,0,0,0,0,0,0,0,0],"id":24,"left_children":[1,3,-1,5,7,-1,-1,-1,-1],"loss_changes":[3.805226E-1,5.8676636E-1,0E0,2.6328915E-1,7.0999414E-1,0E0,0E0,0E0,0E0],"parents":[2147483647,0,0,1,1,3,3,4,4],"right_children":[2,4,-1,6,8,-1,-1,-1,-1],"split_conditions":[8.5667574E-1,-3.9246222E-1,-9.22472E-2,-8.527285E-1,8.8883173E-1,2.1810405E-2,-1.0741987E-1,-1.538826E-2,1.8960631E-1],"split_indices":[13,2,0,2,0,0,0,0,0],"split_type":[0,0,0,0,0,0,0,0,0],"sum_hessian":[1.1284451E1,8.996389E0,2.2880611E0,4.189784E0,4.8066053E0,2.1133502E0,2.076434E0,2.7748265E0,2.031779E0],"tree_param":{"num_deleted":"0","num_feature":"20","num_nodes":"9","size_leaf_vector":"1"}},{"base_weights":[-9.648977E-3,1.4337057E-1,-2.3425749E-1,-2.4851268E-2,1.12329856E-1,8.038947E-3,-1.2691753E-1],"categories":[],"categories_nodes":[],"categories_segments":[],"categories_sizes":[],"default_left":[0,0,0,0,0,0,0],"id":25,"left_children":[1,3,5,-1,-1,-1,-1],"loss_changes":[4.5122197E-1,4.4120836E-1,2.727335E-1,0E0,0E0,0E0,0E0],"parents":[2147483647,0,0,1,1,2,2],"right_children":[2,4,6,-1,-1,-1,-1],"split_conditions":[2.3718639E-1,-6.820659E-1,-6.462357E-1,-2.4851268E-2,1.12329856E-1,8.038947E-3,-1.2691753E-1],"split_indices":[15,19,6,0,0,0,0],"split_type":[0,0,0,0,0,0,0],"sum_hessian":[1.1151369E1,6.8478236E0,4.3035455E0,3.7844093E0,3.0634143E0,2.1662936E0,2.1372519E0],"tree_param":{"num_deleted":"0","num_feature":"20","num_nodes":"7","size_leaf_vector":"1"}},{"base_weights":[-1.0189996E-2,-1.0395464E-1,7.262565E-2,-1.14989005E-1,1.0752419E-1,8.377669E-2,-2.2049833E-2],"categories":[],"categories_nodes":[],"categories_segments":[],"categories_sizes":[],"default_left":[0,0,0,0,0,0,0],"id":26,"left_children":[1,3,-1,-1,5,-1,-1],"loss_changes":[3.0677858E-1,5.95273E-1,0E0,0E0,2.1074238E-1,0E0,0E0],"parents":[2147483647,0,0,1,1,4,4],"right_children":[2,4,-1,-1,6,-1,-1],"split_conditions":[3.120316E-1,7.091401E-1,7.262565E-2,-1.14989005E-1,2.0397042E-1,8.377669E-2,-2.2049833E-2],"split_indices":[6,0,0,0,13,0,0],"split_type":[0,0,0,0,0,0,0],"sum_hessian":[1.0905236E1,8.378926E0,2.5263102E0,3.260146E0,5.11878E0,2.3483381E0,2.770442E0],"tree_param":{"num_deleted":"0","num_feature":"20","num_nodes":"7","size_leaf_vector":"1"}},{"base_weights":[-6.093746E-3,6.9980666E-2,-1.2215264E-1,-1.3046765E-1,6.522879E-2,1.0553946E-1,-5.3521857E-2],"categories":[],"categories_nodes":[],"categories_segments":[],"categories_sizes":[],"default_left":[0,0,0,0,0,0,0],"id":27,"left_children":[1,-1,3,-1,5,-1,-1],"loss_changes":[3.581709E-1,0E0,5.3518367E-1,0E0,5.010633E-1,0E0,0E0],"parents":[2147483647,0,0,2,2,4,4],"right_children":[2,-1,4,-1,6,-1,-1],"split_conditions":[-2.2970417E-1,6.9980666E-2,-5.1933527E-1,-1.3046765E-1,-5.5987275E-1,1.0553946E-1,-5.3521857E-2],"split_indices":[15,0,11,0,6,0,0],"split_type":[0,0,0,0,0,0,0],"sum_hessian":[1.0867335E1,3.2188287E0,7.6485066E0,2.3707812E0,5.2777257E0,2.2211723E0,3.0565531E0],"tree_param":{"num_deleted":"0","num_feature":"20","num_nodes":"7","size_leaf_vector":"1"}},{"base_weights":[-5.5171894E-3,-5.9683137E-2,1.188507E-1,1.21554144E-1,-3.7131082E-2],"categories":[],"categories_nodes":[],"categories_segments":[],"categories_sizes":[],"default_left":[0,0,0,0,0],"id":28,"left_children":[1,-1,3,-1,-1],"loss_changes":[3.0418292E-1,0E0,5.8673525E-1,0E0,0E0],"parents":[2147483647,0,0,2,2],"right_children":[2,-1,4,-1,-1],"split_conditions":[-1.22382246E-1,-5.9683137E-2,-3.7257996E-1,1.21554144E-1,-3.7131082E-2],"split_indices":[13,0,18,0,0],"split_type":[0,0,0,0,0],"sum_hessian":[1.0661858E1,3.9378183E0,6.7240396E0,2.7768815E0,3.9471579E0],"tree_param":{"num_deleted":"0","num_feature":"20","num_nodes":"5","size_leaf_vector":"1"}},{"base_weights":[-1.3960052E-3,8.452811E-2,-7.7810526E-2,-6.8827756E-2,2.3931937E-1,-3.5912853E-2,1.5972725E-1],"categories":[],"categories_nodes":[],"categories_segments":[],"categories_sizes":[],"default_left":[0,0,0,0,0,0,0],"id":29,"left_children":[1,3,-1,-1,5,-1,-1],"loss_changes":[2.7533352E-1,5.0832456E-1,0E0,0E0,7.72852E-1,0E0,0E0],"parents":[2147483647,0,0,1,1,4,4],"right_children":[2,4,-1,-1,6,-1,-1],"split_conditions":[8.5667574E-1,1.3838473E-1,-7.7810526E-2,-6.8827756E-2,-3.9246222E-1,-3.5912853E-2,1.5972725E-1],"split_indices":[13,10,0,0,2,0,0],"split_type":[0,0,0,0,0,0,0],"sum_hessian":[1.0432328E1,8.330114E0,2.1022148E0,2.5915875E0,5.7385263E0,2.845099E0,2.8934276E0],"tree_param":{"num_deleted":"0","num_feature":"20","num_nodes":"7","size_leaf_vector":"1"}},{"base_weights":[-3.0517888E-3,1.3201031E-1,-6.087752E-2,-3.6308024E-2,8.768512E-2],"categories":[],"categories_nodes":[],"categories_segments":[],"categories_sizes":[],"default_left":[0,0,0,0,0],"id":30,"left_children":[1,3,-1,-1,-1],"loss_changes":[3.3414152E-1,3.3548784E-1,0E0,0E0,0E0],"parents":[2147483647,0,0,1,1],"right_children":[2,4,-1,-1,-1],"split_conditions":[2.3718639E-1,-1.22382246E-1,-6.087752E-2,-3.6308024E-2,8.768512E-2],"split_indices":[15,13,0,0,0],"split_type":[0,0,0,0,0],"sum_hessian":[1.0385438E1,6.400143E0,3.9852946E0,2.576803E0,3.8233402E0],"tree_param":{"num_deleted":"0","num_feature":"20","num_nodes":"5","size_leaf_vector":"1"}},{"base_weights":[-2.963228E-3,5.259446E-2,-1.1972286E-1,6.333636E-2,-9.658678E-2],"categories":[],"categories_nodes":[],"categories_segments":[],"categories_sizes":[],"default_left":[0,0,0,0,0],"id":31,"left_children":[1,-1,3,-1,-1],"loss_changes":[2.5389847E-1,0E0,5.6009716E-1,0E0,0E0],"parents":[2147483647,0,0,2,2],"right_children":[2,-1,4,-1,-1],"split_conditions":[-4.2584875E-1,5.259446E-2,-3.065345E-1,6.333636E-2,-9.658678E-2],"split_indices":[12,0,11,0,0],"split_type":[0,0,0,0,0],"sum_hessian":[1.0189124E1,3.8338258E0,6.3552985E0,2.3943317E0,3.960967E0],"tree_param":{"num_deleted":"0","num_feature":"20","num_nodes":"5","size_leaf_vector":"1"}},{"base_weights":[-8.08236E-4,1.00165024E-1,-6.211727E-2,-6.267631E-2,2.5381222E-1,-1.4766059E-2,1.6773887E-1],"categories":[],"categories_nodes":[],"categories_segments":[],"categories_sizes":[],"default_left":[0,0,0,0,0,0,0],"id":32,"left_children":[1,3,-1,-1,5,-1,-1],"loss_changes":[2.5131568E-1,4.3802E-1,0E0,0E0,5.702939E-1,0E0,0E0],"parents":[2147483647,0,0,1,1,4,4],"right_children":[2,4,-1,-1,6,-1,-1],"split_conditions":[3.3268785E-1,-3.847715E-1,-6.211727E-2,-6.267631E-2,-3.9246222E-1,-1.4766059E-2,1.6773887E-1],"split_indices":[2,1,0,0,2,0,0],"split_type":[0,0,0,0,0,0,0],"sum_hessian":[1.0071711E1,7.1067944E0,2.9649158E0,2.2403085E0,4.866486E0,2.8633523E0,2.0031338E0],"tree_param":{"num_deleted":"0","num_feature":"20","num_nodes":"7","size_leaf_vector":"1"}},{"base_weights":[2.493678E-3,6.2925555E-2,-1.3433006E-1,-1.3554953E-1,7.6314546E-2,6.744576E-2,-2.9191293E-2],"categories":[],"categories_nodes":[],"categories_segments":[],"categories_sizes":[],"default_left":[0,0,0,0,0,0,0],"id":33,"left_children":[1,-1,3,-1,5,-1,-1],"loss_changes":[3.380822E-1,0E0,5.155053E-1,0E0,1.5541409E-1,0E0,0E0],"parents":[2147483647,0,0,2,2,4,4],"right_children":[2,-1,4,-1,6,-1,-1],"split_conditions":[-3.4530407E-1,6.2925555E-2,5.413261E-2,-1.3554953E-1,-2.3844166E-1,6.744576E-2,-2.9191293E-2],"split_indices":[1,0,1,0,2,0,0],"split_type":[0,0,0,0,0,0,0],"sum_hessian":[9.928416E0,3.7360725E0,6.192343E0,2.0130723E0,4.179271E0,2.0936067E0,2.0856645E0],"tree_param":{"num_deleted":"0","num_feature":"20","num_nodes":"7","size_leaf_vector":"1"}},{"base_weights":[-2.1405038E-3,8.497095E-2,-7.620471E-2,-4.226879E-2,2.6812512E-1,1.3473205E-1,2.5027516E-4],"categories":[],"categories_nodes":[],"categories_segments":[],"categories_sizes":[],"default_left":[0,0,0,0,0,0,0],"id":34,"left_children":[1,3,-1,-1,5,-1,-1],"loss_changes":[2.591328E-1,4.015623E-1,0E0,0E0,2.5119847E-1,0E0,0E0],"parents":[2147483647,0,0,1,1,4,4],"right_children":[2,4,-1,-1,6,-1,-1],"split_conditions":[8.5667574E-1,-1.22382246E-1,-7.620471E-2,-4.226879E-2,-6.0113627E-1,1.3473205E-1,2.5027516E-4],"split_indices":[13,13,0,0,4,0,0],"split_type":[0,0,0,0,0,0,0],"sum_hessian":[9.826604E0,7.793764E0,2.0328398E0,3.5932589E0,4.2005053E0,2.0990372E0,2.101468E0],"tree_param":{"num_deleted":"0","num_feature":"20","num_nodes":"7","size_leaf_vector":"1"}},{"base_weights":[4.700986E-4,6.70556E-2,-1.110704E-1,4.8367642E-2,-2.9374346E-1,-1.450319E-1,-2.1949243E-3],"categories":[],"categories_nodes":[],"categories_segments":[],"categories_sizes":[],"default_left":[0,0,0,0,0,0,0],"id":35,"left_children":[1,-1,3,-1,5,-1,-1],"loss_changes":[2.9171562E-1,0E0,4.3630317E-1,0E0,2.6999217E-1,0E0,0E0],"parents":[2147483647,0,0,2,2,4,4],"right_children":[2,-1,4,-1,6,-1,-1],"split_conditions":[-2.2970417E-1,6.70556E-2,-6.1764544E-1,4.8367642E-2,-2.0971757E-1,-1.450319E-1,-2.1949243E-3],"split_indices":[15,0,3,0,3,0,0],"split_type":[0,0,0,0,0,0,0],"sum_hessian":[9.727517E0,2.9081466E0,6.8193707E0,2.7851639E0,4.0342073E0,2.0131207E0,2.0210865E0],"tree_param":{"num_deleted":"0","num_feature":"20","num_nodes":"7","size_leaf_vector":"1"}},{"base_weights":[-3.2501752E-3,1.3592659E-1,-1.326683E-1,-2.5347127E-2,9.029607E-2,-1.2261895E-1,6.1338495E-2],"categories":[],"categories_nodes":[],"categories_segments":[],"categories_sizes":[],"default_left":[0,0,0,0,0,0,0],"id":36,"left_children":[1,3,5,-1,-1,-1,-1],"loss_changes":[2.0864093E-1,2.2890934E-1,6.4099824E-1,0E0,0E0,0E0,0E0],"parents":[2147483647,0,0,1,1,2,2],"right_children":[2,4,6,-1,-1,-1,-1],"split_conditions":[-2.5190476E-1,-4.1778064E-1,1.3528645E-1,-2.5347127E-2,9.029607E-2,-1.2261895E-1,6.1338495E-2],"split_indices":[7,1,7,0,0,0,0],"split_type":[0,0,0,0,0,0,0],"sum_hessian":[9.582268E0,4.5928297E0,4.9894376E0,2.1756501E0,2.4171798E0,2.6264048E0,2.3630328E0],"tree_param":{"num_deleted":"0","num_feature":"20","num_nodes":"7","size_leaf_vector":"1"}},{"base_weights":[-2.4312662E-3,5.051904E-2,-1.171E-1,3.0344209E-2,-1.2604105E-1],"categories":[],"categories_nodes":[],"categories_segments":[],"categories_sizes":[],"default_left":[0,0,0,0,0],"id":37,"left_children":[1,-1,3,-1,-1],"loss_changes":[2.2528367E-1,0E0,4.967907E-1,0E0,0E0],"parents":[2147483647,0,0,2,2],"right_children":[2,-1,4,-1,-1],"split_conditions":[-4.2584875E-1,5.051904E-2,-3.29343E-1,3.0344209E-2,-1.2604105E-1],"split_indices":[12,0,7,0,0],"split_type":[0,0,0,0,0],"sum_hessian":[9.494064E0,3.6250641E0,5.8689995E0,3.7991035E0,2.0698962E0],"tree_param":{"num_deleted":"0","num_feature":"20","num_nodes":"5","size_leaf_vector":"1"}},{"base_weights":[-6.6804397E-3,-6.7447364E-2,7.5885855E-2,-1.2464982E-1,1.20138444E-1,2.312778E-2,-8.870512E-2],"categories":[],"categories_nodes":[],"categories_segments":[],"categories_sizes":[],"default_left":[0,0,0,0,0,0,0],"id":38,"left_children":[1,-1,3,5,-1,-1,-1],"loss_changes":[2.0434664E-1,0E0,5.8955747E-1,2.259329E-1,0E0,0E0,0E0],"parents":[2147483647,0,0,2,2,3,3],"right_children":[2,-1,4,6,-1,-1,-1],"split_conditions":[-6.257357E-1,-6.7447364E-2,-1.3617498E-3,-2.0544228E-1,1.20138444E-1,2.312778E-2,-8.870512E-2],"split_indices":[11,0,2,8,0,0,0],"split_type":[0,0,0,0,0,0,0],"sum_hessian":[9.3982E0,2.1073976E0,7.290803E0,4.8872356E0,2.4035673E0,2.4943225E0,2.3929133E0],"tree_param":{"num_deleted":"0","num_feature":"20","num_nodes":"7","size_leaf_vector":"1"}},{"base_weights":[-6.26289E-3,8.435597E-2,-5.545926E-2,-5.930279E-2,2.3618284E-1,1.08052395E-1,1.3565285E-2],"categories":[],"categories_nodes":[],"categories_segments":[],"categories_sizes":[],"default_left":[0,0,0,0,0,0,0],"id":39,"left_children":[1,3,-1,-1,5,-1,-1],"loss_changes":[1.830904E-1,3.7007567E-1,0E0,0E0,1.1074698E-1,0E0,0E0],"parents":[2147483647,0,0,1,1,4,4],"right_children":[2,4,-1,-1,6,-1,-1],"split_conditions":[3.3268785E-1,-3.847715E-1,-5.545926E-2,-5.930279E-2,-5.5987275E-1,1.08052395E-1,1.3565285E-2],"split_indices":[2,1,0,0,6,0,0],"split_type":[0,0,0,0,0,0,0],"sum_hessian":[9.349067E0,6.552261E0,2.7968056E0,2.1872556E0,4.365005E0,2.1093507E0,2.2556546E0],"tree_param":{"num_deleted":"0","num_feature":"20","num_nodes":"7","size_leaf_vector":"1"}},{"base_weights":[-3.765063E-3,5.9015043E-2,-1.0592907E-1,-1.06535755E-1,7.864003E-2,-1.5389172E-2,5.5498343E-2],"categories":[],"categories_nodes":[],"categories_segments":[],"categories_sizes":[],"default_left":[0,0,0,0,0,0,0],"id":40,"left_children":[1,-1,3,-1,5,-1,-1],"loss_changes":[2.314403E-1,0E0,3.7109244E-1,0E0,8.003968E-2,0E0,0E0],"parents":[2147483647,0,0,2,2,4,4],"right_children":[2,-1,4,-1,6,-1,-1],"split_conditions":[-2.2970417E-1,5.9015043E-2,8.8883173E-1,-1.06535755E-1,2.7310103E-1,-1.5389172E-2,5.5498343E-2],"split_indices":[15,0,0,0,15,0,0],"split_type":[0,0,0,0,0,0,0],"sum_hessian":[9.282295E0,2.8209987E0,6.461296E0,2.3561587E0,4.1051373E0,2.0807197E0,2.0244176E0],"tree_param":{"num_deleted":"0","num_feature":"20","num_nodes":"7","size_leaf_vector":"1"}},{"base_weights":[-4.06685E-3,1.06451705E-1,-4.941973E-2,-1.861583E-2,9.369517E-2],"categories":[],"categories_nodes":[],"categories_segments":[],"categories_sizes":[],"default_left":[0,0,0,0,0],"id":41,"left_children":[1,3,-1,-1,-1],"loss_changes":[1.9743244E-1,2.4867022E-1,0E0,0E0,0E0],"parents":[2147483647,0,0,1,1],"right_children":[2,4,-1,-1,-1],"split_conditions":[2.3718639E-1,-5.2974904E-1,-4.941973E-2,-1.861583E-2,9.369517E-2],"split_indices":[15,19,0,0,0],"split_type":[0,0,0,0,0],"sum_hessian":[9.131283E0,5.6098294E0,3.5214539E0,3.4689834E0,2.1408463E0],"tree_param":{"num_deleted":"0","num_feature":"20","num_nodes":"5","size_leaf_vector":"1"}},{"base_weights":[-2.7510987E-4,1.4614254E-1,-1.2841089E-1,-1.9150712E-2,9.530302E-2,-1.0020951E-1,2.148823E-2],"categories":[],"categories_nodes":[],"categories_segments":[],"categories_sizes":[],"default_left":[0,0,0,0,0,0,0],"id":42,"left_children":[1,3,5,-1,-1,-1,-1],"loss_changes":[2.0687078E-1,2.0566551E-1,2.6574886E-1,0E0,0E0,0E0,0E0],"parents":[2147483647,0,0,1,1,2,2],"right_children":[2,4,6,-1,-1,-1,-1],"split_conditions":[-6.1764544E-1,2.169844E-2,-2.519948E-1,-1.9150712E-2,9.530302E-2,-1.0020951E-1,2.148823E-2],"split_indices":[3,15,19,0,0,0,0],"split_type":[0,0,0,0,0,0,0],"sum_hessian":[9.026175E0,4.1469855E0,4.879189E0,2.1468456E0,2.0001402E0,2.0757117E0,2.8034773E0],"tree_param":{"num_deleted":"0","num_feature":"20","num_nodes":"7","size_leaf_vector":"1"}},{"base_weights":[-8.6282875E-4,4.3325163E-2,-1.0130569E-1,-1.0142946E-1,3.531149E-2],"categories":[],"categories_nodes":[],"categories_segments":[],"categories_sizes":[],"default_left":[0,0,0,0,0],"id":43,"left_children":[1,-1,3,-1,-1],"loss_changes":[1.6063996E-1,0E0,3.7707153E-1,0E0,0E0],"parents":[2147483647,0,0,2,2],"right_children":[2,-1,4,-1,-1],"split_conditions":[-3.4530407E-1,4.3325163E-2,4.5255548E-1,-1.0142946E-1,3.531149E-2],"split_indices":[1,0,10,0,0],"split_type":[0,0,0,0,0],"sum_hessian":[9.00591E0,3.5023398E0,5.5035706E0,2.3831627E0,3.1204078E0],"tree_param":{"num_deleted":"0","num_feature":"20","num_nodes":"5","size_leaf_vector":"1"}},{"base_weights":[-3.3434576E-3,1.09759785E-1,-4.664189E-2,-4.0881313E-2,9.0525076E-2],"categories":[],"categories_nodes":[],"categories_segments":[],"categories_sizes":[],"default_left":[0,0,0,0,0],"id":44,"left_children":[1,3,-1,-1,-1],"loss_changes":[1.8781117E-1,3.3766347E-1,0E0,0E0,0E0],"parents":[2147483647,0,0,1,1],"right_children":[2,4,-1,-1,-1],"split_conditions":[3.318679E-1,2.0397042E-1,-4.664189E-2,-4.0881313E-2,9.0525076E-2],"split_indices":[11,13,0,0,0],"split_type":[0,0,0,0,0],"sum_hessian":[8.923463E0,5.2779746E0,3.645488E0,2.4406123E0,2.8373623E0],"tree_param":{"num_deleted":"0","num_feature":"20","num_nodes":"5","size_leaf_vector":"1"}},{"base_weights":[-1.9975984E-3,4.1819964E-2,-9.990481E-2,-8.861397E-2,4.2962927E-2],"categories":[],"categories_nodes":[],"categories_segments":[],"categories_sizes":[],"default_left":[0,0,0,0,0],"id":45,"left_children":[1,-1,3,-1,-1],"loss_changes":[1.4996892E-1,0E0,3.4592152E-1,0E0,0E0],"parents":[2147483647,0,0,2,2],"right_children":[2,-1,4,-1,-1],"split_conditions":[-4.2584875E-1,4.1819964E-2,-8.516975E-2,-8.861397E-2,4.2962927E-2],"split_indices":[12,0,12,0,0],"split_type":[0,0,0,0,0],"sum_hessian":[8.826919E0,3.4379869E0,5.3889318E0,2.867971E0,2.5209608E0],"tree_param":{"num_deleted":"0","num_feature":"20","num_nodes":"5","size_leaf_vector":"1"}},{"base_weights":[-2.2514244E-3,-5.3955767E-2,7.158E-2,7.845619E-2,-6.408854E-2],"categories":[],"categories_nodes":[],"categories_segments":[],"categories_sizes":[],"default_left":[0,0,0,0,0],"id":46,"left_children":[1,-1,3,-1,-1],"loss_changes":[1.4014903E-1,0E0,4.6603507E-1,0E0,0E0],"parents":[2147483647,0,0,2,2],"right_children":[2,-1,4,-1,-1],"split_conditions":[-7.6121736E-1,-5.3955767E-2,1.2706585E-1,7.845619E-2,-6.408854E-2],"split_indices":[5,0,1,0,0],"split_type":[0,0,0,0,0],"sum_hessian":[8.706369E0,2.1348965E0,6.571472E0,3.9943829E0,2.5770895E0],"tree_param":{"num_deleted":"0","num_feature":"20","num_nodes":"5","size_leaf_vector":"1"}},{"base_weights":[-5.850711E-3,-1.17186174E-1,4.0069472E-2,-1.0439067E-1,3.7350573E-2],"categories":[],"categories_nodes":[],"categories_segments":[],"categories_sizes":[],"default_left":[0,0,0,0,0],"id":47,"left_children":[1,3,-1,-1,-1],"loss_changes":[1.6651154E-1,3.7444144E-1,0E0,0E0,0E0],"parents":[2147483647,0,0,1,1],"right_children":[2,4,-1,-1,-1],"split_conditions":[3.593192E-2,-5.33629E-1,4.0069472E-2,-1.0439067E-1,3.7350573E-2],"split_indices":[1,4,0,0,0],"split_type":[0,0,0,0,0],"sum_hessian":[8.719143E0,4.9364257E0,3.7827172E0,2.300236E0,2.6361897E0],"tree_param":{"num_deleted":"0","num_feature":"20","num_nodes":"5","size_leaf_vector":"1"}},{"base_weights":[-7.152271E-3,1.03319764E-1,-4.9889486E-2,-2.7114939E-2,9.855896E-2],"categories":[],"categories_nodes":[],"categories_segments":[],"categories_sizes":[],"default_left":[0,0,0,0,0],"id":48,"left_children":[1,3,-1,-1,-1],"loss_changes":[1.8754718E-1,3.061195E-1,0E0,0E0,0E0],"parents":[2147483647,0,0,1,1],"right_children":[2,4,-1,-1,-1],"split_conditions":[-1.6358685E-1,-5.476687E-1,-4.9889486E-2,-2.7114939E-2,9.855896E-2],"split_indices":[18,19,0,0,0],"split_type":[0,0,0,0,0],"sum_hessian":[8.690206E0,5.3365784E0,3.3536272E0,3.1908257E0,2.1457527E0],"tree_param":{"num_deleted":"0","num_feature":"20","num_nodes":"5","size_leaf_vector":"1"}},{"base_weights":[-2.748537E-3,1.4657637E-1,-1.374042E-1,5.984633E-4,7.29112E-2,1.2944683E-2,-8.888832E-2],"categories":[],"categories_nodes":[],"categories_segments":[],"categories_sizes":[],"default_left":[0,0,0,0,0,0,0],"id":49,"left_children":[1,3,5,-1,-1,-1,-1],"loss_changes":[2.130132E-1,6.969611E-2,1.722894E-1,0E0,0E0,0E0,0E0],"parents":[2147483647,0,0,1,1,2,2],"right_children":[2,4,6,-1,-1,-1,-1],"split_conditions":[-6.1764544E-1,-7.2132695E-1,-3.986144E-1,5.984633E-4,7.29112E-2,1.2944683E-2,-8.888832E-2],"split_indices":[3,2,4,0,0,0,0],"split_type":[0,0,0,0,0,0,0],"sum_hessian":[8.592118E0,4.032166E0,4.5599527E0,2.0220604E0,2.0101054E0,2.475444E0,2.0845087E0],"tree_param":{"num_deleted":"0","num_feature":"20","num_nodes":"7","size_leaf_vector":"1"}},{"base_weights":[-2.649116E-3,7.887148E-2,-5.017887E-2,-6.142083E-2,7.149549E-2],"categories":[],"categories_nodes":[],"categories_segments":[],"categories_sizes":[],"default_left":[0,0,0,0,0],"id":50,"left_children":[1,3,-1,-1,-1],"loss_changes":[1.4073138E-1,3.6695576E-1,0E0,0E0,0E0],"parents":[2147483647,0,0,1,1],"right_children":[2,4,-1,-1,-1],"split_conditions":[3.3268785E-1,-3.847715E-1,-5.017887E-2,-6.142083E-2,7.149549E-2],"split_indices":[2,1,0,0,0],"split_type":[0,0,0,0,0],"sum_hessian":[8.504075E0,6.03585E0,2.4682248E0,2.0699666E0,3.9658837E0],"tree_param":{"num_deleted":"0","num_feature":"20","num_nodes":"5","size_leaf_vector":"1"}},{"base_weights":[-6.2056486E-3,4.3205224E-2,-1.1302226E-1,3.276876E-2,-8.410603E-2],"categories":[],"categories_nodes":[],"categories_segments":[],"categories_sizes":[],"default_left":[0,0,0,0,0],"id":51,"left_children":[1,-1,3,-1,-1],"loss_changes":[1.6819066E-1,0E0,2.5722829E-1,0E0,0E0],"parents":[2147483647,0,0,2,2],"right_children":[2,-1,4,-1,-1],"split_conditions":[-3.4530407E-1,4.3205224E-2,-6.6864353E-1,3.276876E-2,-8.410603E-2],"split_indices":[1,0,4,0,0],"split_type":[0,0,0,0,0],"sum_hessian":[8.467186E0,3.3739357E0,5.0932503E0,2.3367608E0,2.7564895E0],"tree_param":{"num_deleted":"0","num_feature":"20","num_nodes":"5","size_leaf_vector":"1"}},{"base_weights":[-5.6079505E-3,1.1855015E-1,-1.2481916E-1,-2.1045193E-2,7.9333074E-2,-9.984366E-2,4.1812796E-2],"categories":[],"categories_nodes":[],"categories_segments":[],"categories_sizes":[],"default_left":[0,0,0,0,0,0,0],"id":52,"left_children":[1,3,5,-1,-1,-1,-1],"loss_changes":[1.535892E-1,1.5912458E-1,3.36032E-1,0E0,0E0,0E0,0E0],"parents":[2147483647,0,0,1,1,2,2],"right_children":[2,4,6,-1,-1,-1,-1],"split_conditions":[-2.5190476E-1,-4.1778064E-1,1.3528645E-1,-2.1045193E-2,7.9333074E-2,-9.984366E-2,4.1812796E-2],"split_indices":[7,1,7,0,0,0,0],"split_type":[0,0,0,0,0,0,0],"sum_hessian":[8.377172E0,4.106162E0,4.27101E0,2.0167856E0,2.0893764E0,2.244366E0,2.026644E0],"tree_param":{"num_deleted":"0","num_feature":"20","num_nodes":"7","size_leaf_vector":"1"}},{"base_weights":[-4.228695E-3,1.0005357E-1,-4.122413E-2,-3.643362E-2,7.699127E-2],"categories":[],"categories_nodes":[],"categories_segments":[],"categories_sizes":[],"default_left":[0,0,0,0,0],"id":53,"left_children":[1,3,-1,-1,-1],"loss_changes":[1.430714E-1,2.3236273E-1,0E0,0E0,0E0],"parents":[2147483647,0,0,1,1],"right_children":[2,4,-1,-1,-1],"split_conditions":[3.318679E-1,-5.1933527E-1,-4.122413E-2,-3.643362E-2,7.699127E-2],"split_indices":[11,11,0,0,0],"split_type":[0,0,0,0,0],"sum_hessian":[8.311264E0,4.8009458E0,3.5103188E0,2.081262E0,2.7196834E0],"tree_param":{"num_deleted":"0","num_feature":"20","num_nodes":"5","size_leaf_vector":"1"}},{"base_weights":[-3.066798E-3,3.6193855E-2,-1.1581875E-1,9.31485E-3,-7.184189E-2],"categories":[],"categories_nodes":[],"categories_segments":[],"categories_sizes":[],"default_left":[0,0,0,0,0],"id":54,"left_children":[1,-1,3,-1,-1],"loss_changes":[1.4313939E-1,0E0,1.04683615E-1,0E0,0E0],"parents":[2147483647,0,0,2,2],"right_children":[2,-1,4,-1,-1],"split_conditions":[-6.1764544E-1,3.6193855E-2,-4.661217E-1,9.31485E-3,-7.184189E-2],"split_indices":[3,0,4,0,0],"split_type":[0,0,0,0,0],"sum_hessian":[8.259978E0,3.9051645E0,4.354814E0,2.3328774E0,2.0219364E0],"tree_param":{"num_deleted":"0","num_feature":"20","num_nodes":"5","size_leaf_vector":"1"}},{"base_weights":[-5.2734185E-3,-4.9234163E-2,6.3886024E-2,6.733294E-2,-5.3728778E-2],"categories":[],"categories_nodes":[],"categories_segments":[],"categories_sizes":[],"default_left":[0,0,0,0,0],"id":55,"left_children":[1,-1,3,-1,-1],"loss_changes":[1.11442916E-1,0E0,3.1805903E-1,0E0,0E0],"parents":[2147483647,0,0,2,2],"right_children":[2,-1,4,-1,-1],"split_conditions":[-7.6121736E-1,-4.9234163E-2,1.2706585E-1,6.733294E-2,-5.3728778E-2],"split_indices":[5,0,1,0,0],"split_type":[0,0,0,0,0],"sum_hessian":[8.190298E0,2.0679047E0,6.1223936E0,3.732402E0,2.3899915E0],"tree_param":{"num_deleted":"0","num_feature":"20","num_nodes":"5","size_leaf_vector":"1"}},{"base_weights":[-7.7015054E-3,-4.783613E-2,9.0430975E-2,-2.6179347E-2,6.890913E-2],"categories":[],"categories_nodes":[],"categories_segments":[],"categories_sizes":[],"default_left":[0,0,0,0,0],"id":56,"left_children":[1,-1,3,-1,-1],"loss_changes":[1.513788E-1,0E0,1.740524E-1,0E0,0E0],"parents":[2147483647,0,0,2,2],"right_children":[2,-1,4,-1,-1],"split_conditions":[-1.22382246E-1,-4.783613E-2,-7.151934E-1,-2.6179347E-2,6.890913E-2],"split_indices":[13,0,3,0,0],"split_type":[0,0,0,0,0],"sum_hessian":[8.196942E0,2.9736314E0,5.2233114E0,2.4590738E0,2.7642374E0],"tree_param":{"num_deleted":"0","num_feature":"20","num_nodes":"5","size_leaf_vector":"1"}},{"base_weights":[-6.04625E-3,3.3312008E-2,-1.1399327E-1,1.1825951E-2,-6.742802E-2],"categories":[],"categories_nodes":[],"categories_segments":[],"categories_sizes":[],"default_left":[0,0,0,0,0],"id":57,"left_children":[1,-1,3,-1,-1],"loss_changes":[1.2814796E-1,0E0,9.803539E-2,0E0,0E0],"parents":[2147483647,0,0,2,2],"right_children":[2,-1,4,-1,-1],"split_conditions":[-6.1764544E-1,3.3312008E-2,-2.0013408E-1,1.1825951E-2,-6.742802E-2],"split_indices":[3,0,11,0,0],"split_type":[0,0,0,0,0],"sum_hessian":[8.137518E0,3.8897705E0,4.247748E0,2.0510883E0,2.1966593E0],"tree_param":{"num_deleted":"0","num_feature":"20","num_nodes":"5","size_leaf_vector":"1"}},{"base_weights":[-6.939366E-3,3.7477765E-2,-9.877199E-2,-8.049232E-2,3.2057054E-2],"categories":[],"categories_nodes":[],"categories_segments":[],"categories_sizes":[],"default_left":[0,0,0,0,0],"id":58,"left_children":[1,-1,3,-1,-1],"loss_changes":[1.2218228E-1,0E0,2.3454487E-1,0E0,0E0],"parents":[2147483647,0,0,2,2],"right_children":[2,-1,4,-1,-1],"split_conditions":[-4.2584875E-1,3.7477765E-2,-8.516975E-2,-8.049232E-2,3.2057054E-2],"split_indices":[12,0,12,0,0],"split_type":[0,0,0,0,0],"sum_hessian":[8.070796E0,3.1652923E0,4.905504E0,2.5216513E0,2.3838527E0],"tree_param":{"num_deleted":"0","num_feature":"20","num_nodes":"5","size_leaf_vector":"1"}},{"base_weights":[-6.4622173E-3,-1.011545E-1,3.4158085E-2,-1.0076837E-1,4.5949496E-2],"categories":[],"categories_nodes":[],"categories_segments":[],"categories_sizes":[],"default_left":[0,0,0,0,0],"id":59,"left_children":[1,3,-1,-1,-1],"loss_changes":[1.1384892E-1,3.8311023E-1,0E0,0E0,0E0],"parents":[2147483647,0,0,1,1],"right_children":[2,4,-1,-1,-1],"split_conditions":[3.593192E-2,-5.33629E-1,3.4158085E-2,-1.0076837E-1,4.5949496E-2],"split_indices":[1,4,0,0,0],"split_type":[0,0,0,0,0],"sum_hessian":[7.981476E0,4.5555897E0,3.4258864E0,2.202186E0,2.3534036E0],"tree_param":{"num_deleted":"0","num_feature":"20","num_nodes":"5","size_leaf_vector":"1"}},{"base_weights":[-7.10582E-3,6.813744E-2,-4.730838E-2,-2.9216608E-2,6.874323E-2],"categories":[],"categories_nodes":[],"categories_segments":[],"categories_sizes":[],"default_left":[0,0,0,0,0],"id":60,"left_children":[1,3,-1,-1,-1],"loss_changes":[1.12197295E-1,2.0004392E-1,0E0,0E0,0E0],"parents":[2147483647,0,0,1,1],"right_children":[2,4,-1,-1,-1],"split_conditions":[3.3268785E-1,-5.545706E-1,-4.730838E-2,-2.9216608E-2,6.874323E-2],"split_indices":[2,2,0,0,0],"split_type":[0,0,0,0,0],"sum_hessian":[7.95369E0,5.668761E0,2.2849293E0,2.989979E0,2.6787817E0],"tree_param":{"num_deleted":"0","num_feature":"20","num_nodes":"5","size_leaf_vector":"1"}},{"base_weights":[-5.9265704E-3,3.1652328E-2,-1.09434605E-1,1.0017614E-2,-6.440366E-2],"categories":[],"categories_nodes":[],"categories_segments":[],"categories_sizes":[],"default_left":[0,0,0,0,0],"id":61,"left_children":[1,-1,3,-1,-1],"loss_changes":[1.1450618E-1,0E0,8.4110364E-2,0E0,0E0],"parents":[2147483647,0,0,2,2],"right_children":[2,-1,4,-1,-1],"split_conditions":[-6.1764544E-1,3.1652328E-2,3.2554698E-1,1.0017614E-2,-6.440366E-2],"split_indices":[3,0,8,0,0],"split_type":[0,0,0,0,0],"sum_hessian":[7.9263816E0,3.807739E0,4.1186423E0,2.0369806E0,2.0816617E0],"tree_param":{"num_deleted":"0","num_feature":"20","num_nodes":"5","size_leaf_vector":"1"}},{"base_weights":[-6.9031813E-3,3.3921126E-2,-9.502698E-2,2.870534E-2,-7.22929E-2],"categories":[],"categories_nodes":[],"categories_segments":[],"categories_sizes":[],"default_left":[0,0,0,0,0],"id":62,"left_children":[1,-1,3,-1,-1],"loss_changes":[1.04570284E-1,0E0,1.805914E-1,0E0,0E0],"parents":[2147483647,0,0,2,2],"right_children":[2,-1,4,-1,-1],"split_conditions":[-3.4530407E-1,3.3921126E-2,-6.6864353E-1,2.870534E-2,-7.22929E-2],"split_indices":[1,0,4,0,0],"split_type":[0,0,0,0,0],"sum_hessian":[7.874466E0,3.2147508E0,4.659715E0,2.1693864E0,2.4903288E0],"tree_param":{"num_deleted":"0","num_feature":"20","num_nodes":"5","size_leaf_vector":"1"}},{"base_weights":[-6.200142E-3,-3.9642956E-2,7.493555E-2,6.400401E-2,-2.8492661E-2],"categories":[],"categories_nodes":[],"categories_segments":[],"categories_sizes":[],"default_left":[0,0,0,0,0],"id":63,"left_children":[1,-1,3,-1,-1],"loss_changes":[9.99145E-2,0E0,1.612632E-1,0E0,0E0],"parents":[2147483647,0,0,2,2],"right_children":[2,-1,4,-1,-1],"split_conditions":[-1.22382246E-1,-3.9642956E-2,-2.5190476E-1,6.400401E-2,-2.8492661E-2],"split_indices":[13,0,7,0,0],"split_type":[0,0,0,0,0],"sum_hessian":[7.8087764E0,2.8132436E0,4.9955325E0,2.6120746E0,2.383458E0],"tree_param":{"num_deleted":"0","num_feature":"20","num_nodes":"5","size_leaf_vector":"1"}},{"base_weights":[-4.8254975E-3,-9.583956E-2,3.2998152E-2,-9.343718E-2,4.0056586E-2],"categories":[],"categories_nodes":[],"categories_segments":[],"categories_sizes":[],"default_left":[0,0,0,0,0],"id":64,"left_children":[1,3,-1,-1,-1],"loss_changes":[1.0191323E-1,3.0922168E-1,0E0,0E0,0E0],"parents":[2147483647,0,0,1,1],"right_children":[2,4,-1,-1,-1],"split_conditions":[3.593192E-2,-5.33629E-1,3.2998152E-2,-9.343718E-2,4.0056586E-2],"split_indices":[1,4,0,0,0],"split_type":[0,0,0,0,0],"sum_hessian":[7.743535E0,4.411759E0,3.3317764E0,2.0895176E0,2.3222413E0],"tree_param":{"num_deleted":"0","num_feature":"20","num_nodes":"5","size_leaf_vector":"1"}},{"base_weights":[-5.9158695E-3,4.0460285E-2,-8.104103E-2,2.8365707E-2,-6.1947864E-2],"categories":[],"categories_nodes":[],"categories_segments":[],"categories_sizes":[],"default_left":[0,0,0,0,0],"id":65,"left_children":[1,-1,3,-1,-1],"loss_changes":[1.0316865E-1,0E0,1.5855353E-1,0E0,0E0],"parents":[2147483647,0,0,2,2],"right_children":[2,-1,4,-1,-1],"split_conditions":[-2.2970417E-1,4.0460285E-2,-6.1764544E-1,2.8365707E-2,-6.1947864E-2],"split_indices":[15,0,3,0,0],"split_type":[0,0,0,0,0],"sum_hessian":[7.7212095E0,2.4098835E0,5.311326E0,2.3159814E0,2.9953446E0],"tree_param":{"num_deleted":"0","num_feature":"20","num_nodes":"5","size_leaf_vector":"1"}},{"base_weights":[-3.5316076E-3,-3.681411E-2,8.410708E-2,-2.24723E-2,7.2391056E-2],"categories":[],"categories_nodes":[],"categories_segments":[],"categories_sizes":[],"default_left":[0,0,0,0,0],"id":66,"left_children":[1,-1,3,-1,-1],"loss_changes":[1.0066017E-1,0E0,1.5749174E-1,0E0,0E0],"parents":[2147483647,0,0,2,2],"right_children":[2,-1,4,-1,-1],"split_conditions":[-7.151934E-1,-3.681411E-2,3.593192E-2,-2.24723E-2,7.2391056E-2],"split_indices":[3,0,1,0,0],"split_type":[0,0,0,0,0],"sum_hessian":[7.649058E0,3.0716374E0,4.5774207E0,2.535783E0,2.0416374E0],"tree_param":{"num_deleted":"0","num_feature":"20","num_nodes":"5","size_leaf_vector":"1"}},{"base_weights":[-9.0925826E-4,3.3020943E-2,-8.452251E-2,2.8674517E-2,-6.733916E-2],"categories":[],"categories_nodes":[],"categories_segments":[],"categories_sizes":[],"default_left":[0,0,0,0,0],"id":67,"left_children":[1,-1,3,-1,-1],"loss_changes":[8.9198224E-2,0E0,1.5947329E-1,0E0,0E0],"parents":[2147483647,0,0,2,2],"right_children":[2,-1,4,-1,-1],"split_conditions":[-3.4530407E-1,3.3020943E-2,-6.6864353E-1,2.8674517E-2,-6.733916E-2],"split_indices":[1,0,4,0,0],"split_type":[0,0,0,0,0],"sum_hessian":[7.6099887E0,3.1339333E0,4.4760556E0,2.0957792E0,2.3802762E0],"tree_param":{"num_deleted":"0","num_feature":"20","num_nodes":"5","size_leaf_vector":"1"}},{"base_weights":[-1.48923E-3,-9.42214E-2,3.159225E-2,-6.1949477E-2,1.5935965E-2],"categories":[],"categories_nodes":[],"categories_segments":[],"categories_sizes":[],"default_left":[0,0,0,0,0],"id":68,"left_children":[1,3,-1,-1,-1],"loss_changes":[9.46137E-2,9.542157E-2,0E0,0E0,0E0],"parents":[2147483647,0,0,1,1],"right_children":[2,4,-1,-1,-1],"split_conditions":[8.8883173E-1,-3.680621E-1,3.159225E-2,-6.1949477E-2,1.5935965E-2],"split_indices":[0,7,0,0,0],"split_type":[0,0,0,0,0],"sum_hessian":[7.551679E0,4.105019E0,3.4466598E0,2.1018631E0,2.0031562E0],"tree_param":{"num_deleted":"0","num_feature":"20","num_nodes":"5","size_leaf_vector":"1"}},{"base_weights":[-2.813471E-3,3.0096093E-2,-3.1631082E-2],"categories":[],"categories_nodes":[],"categories_segments":[],"categories_sizes":[],"default_left":[0,0,0],"id":69,"left_children":[1,-1,-1],"loss_changes":[1.0094904E-1,0E0,0E0],"parents":[2147483647,0,0],"right_children":[2,-1,-1],"split_conditions":[-2.5190476E-1,3.0096093E-2,-3.1631082E-2],"split_indices":[7,0,0],"split_type":[0,0,0],"sum_hessian":[7.5385513E0,3.7711205E0,3.7674305E0],"tree_param":{"num_deleted":"0","num_feature":"20","num_nodes":"3","size_leaf_vector":"1"}},{"base_weights":[-2.1813277E-3,8.503683E-2,-3.31663E-2,7.1393825E-2,-2.4151724E-2],"categories":[],"categories_nodes":[],"categories_segments":[],"categories_sizes":[],"default_left":[0,0,0,0,0],"id":70,"left_children":[1,3,-1,-1,-1],"loss_changes":[8.9932054E-2,1.5299058E-1,0E0,0E0,0E0],"parents":[2147483647,0,0,1,1],"right_children":[2,4,-1,-1,-1],"split_conditions":[3.318679E-1,-2.5190476E-1,-3.31663E-2,7.1393825E-2,-2.4151724E-2],"split_indices":[11,7,0,0,0],"split_type":[0,0,0,0,0],"sum_hessian":[7.5198975E0,4.28593E0,3.2339673E0,2.0003037E0,2.2856264E0],"tree_param":{"num_deleted":"0","num_feature":"20","num_nodes":"5","size_leaf_vector":"1"}},{"base_weights":[1.4293751E-4,3.6278673E-2,-8.654631E-2,-7.496526E-2,3.432262E-2],"categories":[],"categories_nodes":[],"categories_segments":[],"categories_sizes":[],"default_left":[0,0,0,0,0],"id":71,"left_children":[1,-1,3,-1,-1],"loss_changes":[9.932709E-2,0E0,2.0988886E-1,0E0,0E0],"parents":[2147483647,0,0,2,2],"right_children":[2,-1,4,-1,-1],"split_conditions":[-4.2584875E-1,3.6278673E-2,-7.151934E-1,-7.496526E-2,3.432262E-2],"split_indices":[12,0,3,0,0],"split_type":[0,0,0,0,0],"sum_hessian":[7.48653E0,2.963062E0,4.5234675E0,2.3609693E0,2.1624985E0],"tree_param":{"num_deleted":"0","num_feature":"20","num_nodes":"5","size_leaf_vector":"1"}},{"base_weights":[-5.357511E-4,3.2661755E-2,-3.0638503E-2],"categories":[],"categories_nodes":[],"categories_segments":[],"categories_sizes":[],"default_left":[0,0,0],"id":72,"left_children":[1,-1,-1],"loss_changes":[1.0522361E-1,0E0,0E0],"parents":[2147483647,0,0],"right_children":[2,-1,-1],"split_conditions":[-6.1764544E-1,3.2661755E-2,-3.0638503E-2],"split_indices":[3,0,0],"split_type":[0,0,0],"sum_hessian":[7.466403E0,3.5604181E0,3.9059846E0],"tree_param":{"num_deleted":"0","num_feature":"20","num_nodes":"3","size_leaf_vector":"1"}},{"base_weights":[-1.6178087E-4,-8.96384E-2,3.0631697E-2,-5.6607492E-2,1.2021609E-2],"categories":[],"categories_nodes":[],"categories_segments":[],"categories_sizes":[],"default_left":[0,0,0,0,0],"id":73,"left_children":[1,3,-1,-1,-1],"loss_changes":[8.63868E-2,7.224221E-2,0E0,0E0,0E0],"parents":[2147483647,0,0,1,1],"right_children":[2,4,-1,-1,-1],"split_conditions":[8.8883173E-1,1.8998568E-1,3.0631697E-2,-5.6607492E-2,1.2021609E-2],"split_indices":[0,6,0,0,0],"split_type":[0,0,0,0,0],"sum_hessian":[7.440397E0,4.0342283E0,3.4061682E0,2.0296068E0,2.0046215E0],"tree_param":{"num_deleted":"0","num_feature":"20","num_nodes":"5","size_leaf_vector":"1"}},{"base_weights":[-1.874574E-3,3.9408464E-2,-7.502941E-2,2.540639E-2,-5.637276E-2],"categories":[],"categories_nodes":[],"categories_segments":[],"categories_sizes":[],"default_left":[0,0,0,0,0],"id":74,"left_children":[1,-1,3,-1,-1],"loss_changes":[9.188571E-2,0E0,1.2533882E-1,0E0,0E0],"parents":[2147483647,0,0,2,2],"right_children":[2,-1,4,-1,-1],"split_conditions":[-2.2970417E-1,3.9408464E-2,-6.1764544E-1,2.540639E-2,-5.637276E-2],"split_indices":[15,0,3,0,0],"split_type":[0,0,0,0,0],"sum_hessian":[7.4160104E0,2.3465676E0,5.0694427E0,2.2026255E0,2.8668172E0],"tree_param":{"num_deleted":"0","num_feature":"20","num_nodes":"5","size_leaf_vector":"1"}},{"base_weights":[-4.1614164E-4,-9.7202264E-2,3.4671705E-2,1.1399595E-2,-6.101995E-2],"categories":[],"categories_nodes":[],"categories_segments":[],"categories_sizes":[],"default_left":[0,0,0,0,0],"id":75,"left_children":[1,3,-1,-1,-1],"loss_changes":[1.0500437E-1,8.090509E-2,0E0,0E0,0E0],"parents":[2147483647,0,0,1,1],"right_children":[2,4,-1,-1,-1],"split_conditions":[-5.2078927E-1,-3.1422946E-1,3.4671705E-2,1.1399595E-2,-6.101995E-2],"split_indices":[19,6,0,0,0],"split_type":[0,0,0,0,0],"sum_hessian":[7.352916E0,4.096541E0,3.256375E0,2.0846922E0,2.0118484E0],"tree_param":{"num_deleted":"0","num_feature":"20","num_nodes":"5","size_leaf_vector":"1"}},{"base_weights":[-2.1475262E-3,6.270373E-2,-3.8923636E-2,6.204342E-2,-3.54906E-2],"categories":[],"categories_nodes":[],"categories_segments":[],"categories_sizes":[],"default_left":[0,0,0,0,0],"id":76,"left_children":[1,3,-1,-1,-1],"loss_changes":[7.7222735E-2,1.8644357E-1,0E0,0E0,0E0],"parents":[2147483647,0,0,1,1],"right_children":[2,4,-1,-1,-1],"split_conditions":[3.3268785E-1,3.2554698E-1,-3.8923636E-2,6.204342E-2,-3.54906E-2],"split_indices":[2,8,0,0,0],"split_type":[0,0,0,0,0],"sum_hessian":[7.3490233E0,5.2097616E0,2.1392617E0,2.8211417E0,2.38862E0],"tree_param":{"num_deleted":"0","num_feature":"20","num_nodes":"5","size_leaf_vector":"1"}},{"base_weights":[-3.010886E-3,8.335785E-2,-3.2945145E-2,6.1693553E-2,-2.1464776E-2],"categories":[],"categories_nodes":[],"categories_segments":[],"categories_sizes":[],"default_left":[0,0,0,0,0],"id":77,"left_children":[1,3,-1,-1,-1],"loss_changes":[8.589254E-2,1.1261077E-1,0E0,0E0,0E0],"parents":[2147483647,0,0,1,1],"right_children":[2,4,-1,-1,-1],"split_conditions":[3.318679E-1,3.3268785E-1,-3.2945145E-2,6.1693553E-2,-2.1464776E-2],"split_indices":[11,2,0,0,0],"split_type":[0,0,0,0,0],"sum_hessian":[7.31878E0,4.1679306E0,3.1508496E0,2.146161E0,2.0217693E0],"tree_param":{"num_deleted":"0","num_feature":"20","num_nodes":"5","size_leaf_vector":"1"}},{"base_weights":[-1.2038506E-3,-7.538819E-2,4.113649E-2,3.6759872E-2,-9.18258E-2],"categories":[],"categories_nodes":[],"categories_segments":[],"categories_sizes":[],"default_left":[0,0,0,0,0],"id":78,"left_children":[1,3,-1,-1,-1],"loss_changes":[9.527071E-2,3.129606E-1,0E0,0E0,0E0],"parents":[2147483647,0,0,1,1],"right_children":[2,4,-1,-1,-1],"split_conditions":[6.594743E-1,-2.5190476E-1,4.113649E-2,3.6759872E-2,-9.18258E-2],"split_indices":[9,7,0,0,0],"split_type":[0,0,0,0,0],"sum_hessian":[7.276829E0,5.032747E0,2.2440822E0,2.9611583E0,2.0715883E0],"tree_param":{"num_deleted":"0","num_feature":"20","num_nodes":"5","size_leaf_vector":"1"}},{"base_weights":[-2.788285E-3,3.6799986E-2,-9.3869984E-2,-7.153244E-2,2.8275276E-2],"categories":[],"categories_nodes":[],"categories_segments":[],"categories_sizes":[],"default_left":[0,0,0,0,0],"id":79,"left_children":[1,-1,3,-1,-1],"loss_changes":[1.0559984E-1,0E0,1.676215E-1,0E0,0E0],"parents":[2147483647,0,0,2,2],"right_children":[2,-1,4,-1,-1],"split_conditions":[-4.2584875E-1,3.6799986E-2,-7.151934E-1,-7.153244E-2,2.8275276E-2],"split_indices":[12,0,3,0,0],"split_type":[0,0,0,0,0],"sum_hessian":[7.2338357E0,2.8969011E0,4.3369346E0,2.301067E0,2.0358677E0],"tree_param":{"num_deleted":"0","num_feature":"20","num_nodes":"5","size_leaf_vector":"1"}},{"base_weights":[-2.8529176E-3,2.9581683E-2,-2.914925E-2],"categories":[],"categories_nodes":[],"categories_segments":[],"categories_sizes":[],"default_left":[0,0,0],"id":80,"left_children":[1,-1,-1],"loss_changes":[8.8172875E-2,0E0,0E0],"parents":[2147483647,0,0],"right_children":[2,-1,-1],"split_conditions":[-6.1764544E-1,2.9581683E-2,-2.914925E-2],"split_indices":[3,0,0],"split_type":[0,0,0],"sum_hessian":[7.213457E0,3.4531162E0,3.760341E0],"tree_param":{"num_deleted":"0","num_feature":"20","num_nodes":"3","size_leaf_vector":"1"}},{"base_weights":[-1.974467E-3,-2.9225973E-2,2.7453357E-2],"categories":[],"categories_nodes":[],"categories_segments":[],"categories_sizes":[],"default_left":[0,0,0],"id":81,"left_children":[1,-1,-1],"loss_changes":[8.1995666E-2,0E0,0E0],"parents":[2147483647,0,0],"right_children":[2,-1,-1],"split_conditions":[7.091401E-1,-2.9225973E-2,2.7453357E-2],"split_indices":[0,0,0],"split_type":[0,0,0],"sum_hessian":[7.1903462E0,3.5370567E0,3.6532896E0],"tree_param":{"num_deleted":"0","num_feature":"20","num_nodes":"3","size_leaf_vector":"1"}},{"base_weights":[-1.6216708E-3,3.002846E-2,-8.05697E-2,-5.223912E-2,1.0748388E-2],"categories":[],"categories_nodes":[],"categories_segments":[],"categories_sizes":[],"default_left":[0,0,0,0,0],"id":82,"left_children":[1,-1,3,-1,-1],"loss_changes":[7.381809E-2,0E0,6.2476773E-2,0E0,0E0],"parents":[2147483647,0,0,2,2],"right_children":[2,-1,4,-1,-1],"split_conditions":[-3.4530407E-1,3.002846E-2,3.1729242E-1,-5.223912E-2,1.0748388E-2],"split_indices":[1,0,1,0,0],"split_type":[0,0,0,0,0],"sum_hessian":[7.1881504E0,3.0240765E0,4.1640735E0,2.0335257E0,2.130548E0],"tree_param":{"num_deleted":"0","num_feature":"20","num_nodes":"5","size_leaf_vector":"1"}},{"base_weights":[-2.6471664E-3,-3.683514E-2,6.76547E-2,6.156916E-2,-2.5407352E-2],"categories":[],"categories_nodes":[],"categories_segments":[],"categories_sizes":[],"default_left":[0,0,0,0,0],"id":83,"left_children":[1,-1,3,-1,-1],"loss_changes":[7.717007E-2,0E0,1.3869925E-1,0E0,0E0],"parents":[2147483647,0,0,2,2],"right_children":[2,-1,4,-1,-1],"split_conditions":[-3.9644864E-1,-3.683514E-2,-5.5987275E-1,6.156916E-2,-2.5407352E-2],"split_indices":[1,0,6,0,0],"split_type":[0,0,0,0,0],"sum_hessian":[7.1535115E0,2.3651903E0,4.788321E0,2.333721E0,2.4546003E0],"tree_param":{"num_deleted":"0","num_feature":"20","num_nodes":"5","size_leaf_vector":"1"}},{"base_weights":[-1.9194138E-3,-6.966319E-2,3.779319E-2,4.91195E-2,-6.930593E-2],"categories":[],"categories_nodes":[],"categories_segments":[],"categories_sizes":[],"default_left":[0,0,0,0,0],"id":84,"left_children":[1,3,-1,-1,-1],"loss_changes":[7.911396E-2,2.6194158E-1,0E0,0E0,0E0],"parents":[2147483647,0,0,1,1],"right_children":[2,4,-1,-1,-1],"split_conditions":[-8.516975E-2,-6.1764544E-1,3.779319E-2,4.91195E-2,-6.930593E-2],"split_indices":[12,3,0,0,0],"split_type":[0,0,0,0,0],"sum_hessian":[7.118227E0,4.9510784E0,2.167149E0,2.0177608E0,2.9333174E0],"tree_param":{"num_deleted":"0","num_feature":"20","num_nodes":"5","size_leaf_vector":"1"}},{"base_weights":[6.2890386E-4,-3.312559E-2,8.30171E-2,-1.5534057E-2,5.764221E-2],"categories":[],"categories_nodes":[],"categories_segments":[],"categories_sizes":[],"default_left":[0,0,0,0,0],"id":85,"left_children":[1,-1,3,-1,-1],"loss_changes":[8.276243E-2,0E0,8.627409E-2,0E0,0E0],"parents":[2147483647,0,0,2,2],"right_children":[2,-1,4,-1,-1],"split_conditions":[-7.151934E-1,-3.312559E-2,-5.3505886E-2,-1.5534057E-2,5.764221E-2],"split_indices":[3,0,1,0,0],"split_type":[0,0,0,0,0],"sum_hessian":[7.04413E0,2.8553295E0,4.1888003E0,2.109046E0,2.0797544E0],"tree_param":{"num_deleted":"0","num_feature":"20","num_nodes":"5","size_leaf_vector":"1"}},{"base_weights":[1.5973944E-3,3.3021424E-2,-8.359518E-2,-3.9683256E-2,-2.058102E-3],"categories":[],"categories_nodes":[],"categories_segments":[],"categories_sizes":[],"default_left":[0,0,0,0,0],"id":86,"left_children":[1,-1,3,-1,-1],"loss_changes":[8.32877E-2,0E0,1.799003E-2,0E0,0E0],"parents":[2147483647,0,0,2,2],"right_children":[2,-1,4,-1,-1],"split_conditions":[-3.4530407E-1,3.3021424E-2,3.634139E-1,-3.9683256E-2,-2.058102E-3],"split_indices":[1,0,1,0,0],"split_type":[0,0,0,0,0],"sum_hessian":[7.0169697E0,2.9582534E0,4.0587163E0,2.0404084E0,2.018308E0],"tree_param":{"num_deleted":"0","num_feature":"20","num_nodes":"5","size_leaf_vector":"1"}},{"base_weights":[-1.7373415E-5,2.459184E-2,-3.018041E-2],"categories":[],"categories_nodes":[],"categories_segments":[],"categories_sizes":[],"default_left":[0,0,0],"id":87,"left_children":[1,-1,-1],"loss_changes":[7.417385E-2,0E0,0E0],"parents":[2147483647,0,0],"right_children":[2,-1,-1],"split_conditions":[3.318679E-1,2.459184E-2,-3.018041E-2],"split_indices":[11,0,0],"split_type":[0,0,0],"sum_hessian":[6.9941907E0,3.955186E0,3.0390046E0],"tree_param":{"num_deleted":"0","num_feature":"20","num_nodes":"3","size_leaf_vector":"1"}},{"base_weights":[-7.3518057E-4,3.1882867E-2,-7.792781E-2,-7.0722E-2,3.0595481E-2],"categories":[],"categories_nodes":[],"categories_segments":[],"categories_sizes":[],"default_left":[0,0,0,0,0],"id":88,"left_children":[1,-1,3,-1,-1],"loss_changes":[7.418839E-2,0E0,1.7202285E-1,0E0,0E0],"parents":[2147483647,0,0,2,2],"right_children":[2,-1,4,-1,-1],"split_conditions":[-4.2584875E-1,3.1882867E-2,-8.516975E-2,-7.0722E-2,3.0595481E-2],"split_indices":[12,0,12,0,0],"split_type":[0,0,0,0,0],"sum_hessian":[6.978523E0,2.7665353E0,4.2119875E0,2.0785053E0,2.133482E0],"tree_param":{"num_deleted":"0","num_feature":"20","num_nodes":"5","size_leaf_vector":"1"}},{"base_weights":[-1.7789687E-3,-3.6030773E-2,6.728958E-2,-2.7782163E-2,6.017566E-2],"categories":[],"categories_nodes":[],"categories_segments":[],"categories_sizes":[],"default_left":[0,0,0,0,0],"id":89,"left_children":[1,-1,3,-1,-1],"loss_changes":[7.27493E-2,0E0,1.3872665E-1,0E0,0E0],"parents":[2147483647,0,0,2,2],"right_children":[2,-1,4,-1,-1],"split_conditions":[-3.9644864E-1,-3.6030773E-2,-9.373368E-2,-2.7782163E-2,6.017566E-2],"split_indices":[1,0,11,0,0],"split_type":[0,0,0,0,0],"sum_hessian":[6.9128923E0,2.2755992E0,4.6372933E0,2.2470582E0,2.3902352E0],"tree_param":{"num_deleted":"0","num_feature":"20","num_nodes":"5","size_leaf_vector":"1"}},{"base_weights":[-1.7472804E-3,-2.4253214E-2,2.822263E-2],"categories":[],"categories_nodes":[],"categories_segments":[],"categories_sizes":[],"default_left":[0,0,0],"id":90,"left_children":[1,-1,-1],"loss_changes":[6.7566484E-2,0E0,0E0],"parents":[2147483647,0,0],"right_children":[2,-1,-1],"split_conditions":[-5.2078927E-1,-2.4253214E-2,2.822263E-2],"split_indices":[19,0,0],"split_type":[0,0,0],"sum_hessian":[6.911195E0,3.8716562E0,3.0395384E0],"tree_param":{"num_deleted":"0","num_feature":"20","num_nodes":"3","size_leaf_vector":"1"}},{"base_weights":[-7.373557E-4,2.3289233E-2,-2.8779132E-2],"categories":[],"categories_nodes":[],"categories_segments":[],"categories_sizes":[],"default_left":[0,0,0],"id":91,"left_children":[1,-1,-1],"loss_changes":[6.648495E-2,0E0,0E0],"parents":[2147483647,0,0],"right_children":[2,-1,-1],"split_conditions":[3.318679E-1,2.3289233E-2,-2.8779132E-2],"split_indices":[11,0,0],"split_type":[0,0,0],"sum_hessian":[6.913803E0,3.8932002E0,3.020603E0],"tree_param":{"num_deleted":"0","num_feature":"20","num_nodes":"3","size_leaf_vector":"1"}},{"base_weights":[-1.2332926E-3,3.033634E-2,-2.4358256E-2],"categories":[],"categories_nodes":[],"categories_segments":[],"categories_sizes":[],"default_left":[0,0,0],"id":92,"left_children":[1,-1,-1],"loss_changes":[7.285973E-2,0E0,0E0],"parents":[2147483647,0,0],"right_children":[2,-1,-1],"split_conditions":[-3.4530407E-1,3.033634E-2,-2.4358256E-2],"split_indices":[1,0,0],"split_type":[0,0,0],"sum_hessian":[6.8991327E0,2.909797E0,3.9893358E0],"tree_param":{"num_deleted":"0","num_feature":"20","num_nodes":"3","size_leaf_vector":"1"}},{"base_weights":[-1.1946223E-4,-3.4412235E-2,6.661763E-2,-2.287657E-2,5.499093E-2],"categories":[],"categories_nodes":[],"categories_segments":[],"categories_sizes":[],"default_left":[0,0,0,0,0],"id":93,"left_children":[1,-1,3,-1,-1],"loss_changes":[6.794949E-2,0E0,1.0760783E-1,0E0,0E0],"parents":[2147483647,0,0,2,2],"right_children":[2,-1,4,-1,-1],"split_conditions":[-3.9644864E-1,-3.4412235E-2,-9.373368E-2,-2.287657E-2,5.499093E-2],"split_indices":[1,0,11,0,0],"split_type":[0,0,0,0,0],"sum_hessian":[6.8862076E0,2.2699294E0,4.616278E0,2.2310314E0,2.3852468E0],"tree_param":{"num_deleted":"0","num_feature":"20","num_nodes":"5","size_leaf_vector":"1"}},{"base_weights":[-4.1481978E-4,3.3287223E-2,-7.35959E-2,-6.8580404E-2,3.7074015E-2],"categories":[],"categories_nodes":[],"categories_segments":[],"categories_sizes":[],"default_left":[0,0,0,0,0],"id":94,"left_children":[1,-1,3,-1,-1],"loss_changes":[7.243911E-2,0E0,1.9207451E-1,0E0,0E0],"parents":[2147483647,0,0,2,2],"right_children":[2,-1,4,-1,-1],"split_conditions":[-3.065345E-1,3.3287223E-2,-9.626336E-3,-6.8580404E-2,3.7074015E-2],"split_indices":[11,0,0,0,0],"split_type":[0,0,0,0,0],"sum_hessian":[6.8859425E0,2.5257978E0,4.3601446E0,2.3518853E0,2.0082593E0],"tree_param":{"num_deleted":"0","num_feature":"20","num_nodes":"5","size_leaf_vector":"1"}},{"base_weights":[-1.7378814E-4,4.224651E-2,-7.9014614E-2,2.6012035E-2,-5.8615398E-2],"categories":[],"categories_nodes":[],"categories_segments":[],"categories_sizes":[],"default_left":[0,0,0,0,0],"id":95,"left_children":[1,-1,3,-1,-1],"loss_changes":[9.855199E-2,0E0,1.2657048E-1,0E0,0E0],"parents":[2147483647,0,0,2,2],"right_children":[2,-1,4,-1,-1],"split_conditions":[-2.2970417E-1,4.224651E-2,-6.1764544E-1,2.6012035E-2,-5.8615398E-2],"split_indices":[15,0,3,0,0],"split_type":[0,0,0,0,0],"sum_hessian":[6.8646493E0,2.1799572E0,4.684692E0,2.0377119E0,2.64698E0],"tree_param":{"num_deleted":"0","num_feature":"20","num_nodes":"5","size_leaf_vector":"1"}},{"base_weights":[1.0142848E-3,-2.4085058E-2,2.9799918E-2],"categories":[],"categories_nodes":[],"categories_segments":[],"categories_sizes":[],"default_left":[0,0,0],"id":96,"left_children":[1,-1,-1],"loss_changes":[7.037282E-2,0E0,0E0],"parents":[2147483647,0,0],"right_children":[2,-1,-1],"split_conditions":[-5.2078927E-1,-2.4085058E-2,2.9799918E-2],"split_indices":[19,0,0],"split_type":[0,0,0],"sum_hessian":[6.8064847E0,3.8261526E0,2.9803321E0],"tree_param":{"num_deleted":"0","num_feature":"20","num_nodes":"3","size_leaf_vector":"1"}},{"base_weights":[1.4253982E-3,3.0344475E-2,-2.2814807E-2],"categories":[],"categories_nodes":[],"categories_segments":[],"categories_sizes":[],"default_left":[0,0,0],"id":97,"left_children":[1,-1,-1],"loss_changes":[6.802114E-2,0E0,0E0],"parents":[2147483647,0,0],"right_children":[2,-1,-1],"split_conditions":[-3.4530407E-1,3.0344475E-2,-2.2814807E-2],"split_indices":[1,0,0],"split_type":[0,0,0],"sum_hessian":[6.8085504E0,2.843251E0,3.9652994E0],"tree_param":{"num_deleted":"0","num_feature":"20","num_nodes":"3","size_leaf_vector":"1"}},{"base_weights":[1.9554677E-3,2.496391E-2,-2.919398E-2],"categories":[],"categories_nodes":[],"categories_segments":[],"categories_sizes":[],"default_left":[0,0,0],"id":98,"left_children":[1,-1,-1],"loss_changes":[7.098516E-2,0E0,0E0],"parents":[2147483647,0,0],"right_children":[2,-1,-1],"split_conditions":[3.318679E-1,2.496391E-2,-2.919398E-2],"split_indices":[11,0,0],"split_type":[0,0,0],"sum_hessian":[6.796282E0,3.8261127E0,2.970169E0],"tree_param":{"num_deleted":"0","num_feature":"20","num_nodes":"3","size_leaf_vector":"1"}},{"base_weights":[8.075911E-4,-3.255922E-2,6.899127E-2,-2.5032874E-2,5.7731517E-2],"categories":[],"categories_nodes":[],"categories_segments":[],"categories_sizes":[],"default_left":[0,0,0,0,0],"id":99,"left_children":[1,-1,3,-1,-1],"loss_changes":[6.550623E-2,0E0,1.1776015E-1,0E0,0E0],"parents":[2147483647,0,0,2,2],"right_children":[2,-1,4,-1,-1],"split_conditions":[-1.22382246E-1,-3.255922E-2,-7.151934E-1,-2.5032874E-2,5.7731517E-2],"split_indices":[13,0,3,0,0],"split_type":[0,0,0,0,0],"sum_hessian":[6.7824087E0,2.3777478E0,4.404661E0,2.1159348E0,2.288726E0],"tree_param":{"num_deleted":"0","num_feature":"20","num_nodes":"5","size_leaf_vector":"1"}},{"base_weights":[6.023718E-4,2.7473425E-2,-2.6137548E-2],"categories":[],"categories_nodes":[],"categories_segments":[],"categories_sizes":[],"default_left":[0,0,0],"id":100,"left_children":[1,-1,-1],"loss_changes":[6.9804184E-2,0E0,0E0],"parents":[2147483647,0,0],"right_children":[2,-1,-1],"split_conditions":[-6.1764544E-1,2.7473425E-2,-2.6137548E-2],"split_indices":[3,0,0],"split_type":[0,0,0],"sum_hessian":[6.746505E0,3.2903914E0,3.456113E0],"tree_param":{"num_deleted":"0","num_feature":"20","num_nodes":"3","size_leaf_vector":"1"}},{"base_weights":[5.808535E-4,2.8859062E-2,-2.2085777E-2],"categories":[],"categories_nodes":[],"categories_segments":[],"categories_sizes":[],"default_left":[0,0,0],"id":101,"left_children":[1,-1,-1],"loss_changes":[6.1920896E-2,0E0,0E0],"parents":[2147483647,0,0],"right_children":[2,-1,-1],"split_conditions":[-3.4530407E-1,2.8859062E-2,-2.2085777E-2],"split_indices":[1,0,0],"split_type":[0,0,0],"sum_hessian":[6.729547E0,2.8109014E0,3.9186459E0],"tree_param":{"num_deleted":"0","num_feature":"20","num_nodes":"3","size_leaf_vector":"1"}},{"base_weights":[1.2761593E-3,-3.4635454E-2,6.468444E-2,6.608739E-2,-2.8255446E-2],"categories":[],"categories_nodes":[],"categories_segments":[],"categories_sizes":[],"default_left":[0,0,0,0,0],"id":102,"left_children":[1,-1,3,-1,-1],"loss_changes":[6.4595304E-2,0E0,1.602343E-1,0E0,0E0],"parents":[2147483647,0,0,2,2],"right_children":[2,-1,4,-1,-1],"split_conditions":[2.4310832E-1,-3.4635454E-2,-5.5987275E-1,6.608739E-2,-2.8255446E-2],"split_indices":[10,0,6,0,0],"split_type":[0,0,0,0,0],"sum_hessian":[6.7183504E0,2.0759645E0,4.642386E0,2.1499581E0,2.4924276E0],"tree_param":{"num_deleted":"0","num_feature":"20","num_nodes":"5","size_leaf_vector":"1"}},{"base_weights":[1.3662555E-3,7.20071E-2,-3.077146E-2,4.734219E-2,-1.0088741E-2],"categories":[],"categories_nodes":[],"categories_segments":[],"categories_sizes":[],"default_left":[0,0,0,0,0],"id":103,"left_children":[1,3,-1,-1,-1],"loss_changes":[6.373269E-2,5.2043878E-2,0E0,0E0,0E0],"parents":[2147483647,0,0,1,1],"right_children":[2,4,-1,-1,-1],"split_conditions":[2.3718639E-1,-2.0544228E-1,-3.077146E-2,4.734219E-2,-1.0088741E-2],"split_indices":[15,8,0,0,0],"split_type":[0,0,0,0,0],"sum_hessian":[6.6743217E0,4.156551E0,2.517771E0,2.0210958E0,2.1354551E0],"tree_param":{"num_deleted":"0","num_feature":"20","num_nodes":"5","size_leaf_vector":"1"}},{"base_weights":[1.8006647E-3,-2.7160488E-2,2.1226263E-2],"categories":[],"categories_nodes":[],"categories_segments":[],"categories_sizes":[],"default_left":[0,0,0],"id":104,"left_children":[1,-1,-1],"loss_changes":[5.508415E-2,0E0,0E0],"parents":[2147483647,0,0],"right_children":[2,-1,-1],"split_conditions":[-7.151934E-1,-2.7160488E-2,2.1226263E-2],"split_indices":[3,0,0],"split_type":[0,0,0],"sum_hessian":[6.6455836E0,2.707281E0,3.9383023E0],"tree_param":{"num_deleted":"0","num_feature":"20","num_nodes":"3","size_leaf_vector":"1"}},{"base_weights":[4.7217662E-4,2.7539926E-2,-2.6321732E-2],"categories":[],"categories_nodes":[],"categories_segments":[],"categories_sizes":[],"default_left":[0,0,0],"id":105,"left_children":[1,-1,-1],"loss_changes":[6.9651745E-2,0E0,0E0],"parents":[2147483647,0,0],"right_children":[2,-1,-1],"split_conditions":[-6.1764544E-1,2.7539926E-2,-2.6321732E-2],"split_indices":[3,0,0],"split_type":[0,0,0],"sum_hessian":[6.6460266E0,3.2453477E0,3.4006786E0],"tree_param":{"num_deleted":"0","num_feature":"20","num_nodes":"3","size_leaf_vector":"1"}},{"base_weights":[4.766186E-4,-2.7243203E-2,2.0739777E-2],"categories":[],"categories_nodes":[],"categories_segments":[],"categories_sizes":[],"default_left":[0,0,0],"id":106,"left_children":[1,-1,-1],"loss_changes":[5.409707E-2,0E0,0E0],"parents":[2147483647,0,0],"right_children":[2,-1,-1],"split_conditions":[-7.151934E-1,-2.7243203E-2,2.0739777E-2],"split_indices":[3,0,0],"split_type":[0,0,0],"sum_hessian":[6.6297927E0,2.7073362E0,3.9224565E0],"tree_param":{"num_deleted":"0","num_feature":"20","num_nodes":"3","size_leaf_vector":"1"}},{"base_weights":[-5.3058524E-4,2.5738375E-2,-2.5043545E-2],"categories":[],"categories_nodes":[],"categories_segments":[],"categories_sizes":[],"default_left":[0,0,0],"id":107,"left_children":[1,-1,-1],"loss_changes":[6.1796878E-2,0E0,0E0],"parents":[2147483647,0,0],"right_children":[2,-1,-1],"split_conditions":[-6.1764544E-1,2.5738375E-2,-2.5043545E-2],"split_indices":[3,0,0],"split_type":[0,0,0],"sum_hessian":[6.630047E0,3.232066E0,3.3979807E0],"tree_param":{"num_deleted":"0","num_feature":"20","num_nodes":"3","size_leaf_vector":"1"}},{"base_weights":[-2.9398833E-4,-2.1647565E-2,2.626035E-2],"categories":[],"categories_nodes":[],"categories_segments":[],"categories_sizes":[],"default_left":[0,0,0],"id":108,"left_children":[1,-1,-1],"loss_changes":[5.4380108E-2,0E0,0E0],"parents":[2147483647,0,0],"right_children":[2,-1,-1],"split_conditions":[-5.2078927E-1,-2.1647565E-2,2.626035E-2],"split_indices":[19,0,0],"split_type":[0,0,0],"sum_hessian":[6.6149573E0,3.7362406E0,2.8787167E0],"tree_param":{"num_deleted":"0","num_feature":"20","num_nodes":"3","size_leaf_vector":"1"}},{"base_weights":[3.8730117E-4,-3.125094E-2,6.535853E-2,5.580421E-2,-2.5395738E-2],"categories":[],"categories_nodes":[],"categories_segments":[],"categories_sizes":[],"default_left":[0,0,0,0,0],"id":109,"left_children":[1,-1,3,-1,-1],"loss_changes":[5.8554314E-2,0E0,1.1190034E-1,0E0,0E0],"parents":[2147483647,0,0,2,2],"right_children":[2,-1,4,-1,-1],"split_conditions":[-1.22382246E-1,-3.125094E-2,-2.5190476E-1,5.580421E-2,-2.5395738E-2],"split_indices":[13,0,7,0,0],"split_type":[0,0,0,0,0],"sum_hessian":[6.6173105E0,2.3048434E0,4.312467E0,2.2570746E0,2.0553927E0],"tree_param":{"num_deleted":"0","num_feature":"20","num_nodes":"5","size_leaf_vector":"1"}},{"base_weights":[1.9718199E-4,2.9729733E-2,-2.2041408E-2],"categories":[],"categories_nodes":[],"categories_segments":[],"categories_sizes":[],"default_left":[0,0,0],"id":110,"left_children":[1,-1,-1],"loss_changes":[6.2471975E-2,0E0,0E0],"parents":[2147483647,0,0],"right_children":[2,-1,-1],"split_conditions":[-4.2584875E-1,2.9729733E-2,-2.2041408E-2],"split_indices":[12,0,0],"split_type":[0,0,0],"sum_hessian":[6.5749826E0,2.6594284E0,3.915554E0],"tree_param":{"num_deleted":"0","num_feature":"20","num_nodes":"3","size_leaf_vector":"1"}},{"base_weights":[1.1472323E-3,2.1734767E-2,-2.5758123E-2],"categories":[],"categories_nodes":[],"categories_segments":[],"categories_sizes":[],"default_left":[0,0,0],"id":111,"left_children":[1,-1,-1],"loss_changes":[5.3145673E-2,0E0,0E0],"parents":[2147483647,0,0],"right_children":[2,-1,-1],"split_conditions":[3.318679E-1,2.1734767E-2,-2.5758123E-2],"split_indices":[11,0,0],"split_type":[0,0,0],"sum_hessian":[6.5639143E0,3.6995168E0,2.8643978E0],"tree_param":{"num_deleted":"0","num_feature":"20","num_nodes":"3","size_leaf_vector":"1"}},{"base_weights":[2.5743077E-4,2.46152E-2,-2.3476897E-2],"categories":[],"categories_nodes":[],"categories_segments":[],"categories_sizes":[],"default_left":[0,0,0],"id":112,"left_children":[1,-1,-1],"loss_changes":[5.492554E-2,0E0,0E0],"parents":[2147483647,0,0],"right_children":[2,-1,-1],"split_conditions":[-6.1764544E-1,2.46152E-2,-2.3476897E-2],"split_indices":[3,0,0],"split_type":[0,0,0],"sum_hessian":[6.552999E0,3.187407E0,3.365592E0],"tree_param":{"num_deleted":"0","num_feature":"20","num_nodes":"3","size_leaf_vector":"1"}},{"base_weights":[3.2087733E-4,-2.7109899E-2,2.062613E-2],"categories":[],"categories_nodes":[],"categories_segments":[],"categories_sizes":[],"default_left":[0,0,0],"id":113,"left_children":[1,-1,-1],"loss_changes":[5.299963E-2,0E0,0E0],"parents":[2147483647,0,0],"right_children":[2,-1,-1],"split_conditions":[-7.151934E-1,-2.7109899E-2,2.062613E-2],"split_indices":[3,0,0],"split_type":[0,0,0],"sum_hessian":[6.538946E0,2.6743672E0,3.864579E0],"tree_param":{"num_deleted":"0","num_feature":"20","num_nodes":"3","size_leaf_vector":"1"}},{"base_weights":[-6.464639E-4,2.7258322E-2,-2.1536041E-2],"categories":[],"categories_nodes":[],"categories_segments":[],"categories_sizes":[],"default_left":[0,0,0],"id":114,"left_children":[1,-1,-1],"loss_changes":[5.5603206E-2,0E0,0E0],"parents":[2147483647,0,0],"right_children":[2,-1,-1],"split_conditions":[-3.4530407E-1,2.7258322E-2,-2.1536041E-2],"split_indices":[1,0,0],"split_type":[0,0,0],"sum_hessian":[6.539403E0,2.7390127E0,3.8003902E0],"tree_param":{"num_deleted":"0","num_feature":"20","num_nodes":"3","size_leaf_vector":"1"}},{"base_weights":[2.9916991E-4,-3.3800066E-2,6.579076E-2,-2.3104545E-2,5.454268E-2],"categories":[],"categories_nodes":[],"categories_segments":[],"categories_sizes":[],"default_left":[0,0,0,0,0],"id":115,"left_children":[1,-1,3,-1,-1],"loss_changes":[6.311386E-2,0E0,1.0342401E-1,0E0,0E0],"parents":[2147483647,0,0,2,2],"right_children":[2,-1,4,-1,-1],"split_conditions":[-3.9644864E-1,-3.3800066E-2,-9.373368E-2,-2.3104545E-2,5.454268E-2],"split_indices":[1,0,11,0,0],"split_type":[0,0,0,0,0],"sum_hessian":[6.528923E0,2.1316783E0,4.397245E0,2.1217628E0,2.275482E0],"tree_param":{"num_deleted":"0","num_feature":"20","num_nodes":"5","size_leaf_vector":"1"}},{"base_weights":[-1.3302236E-4,2.19805E-2,-2.6889116E-2],"categories":[],"categories_nodes":[],"categories_segments":[],"categories_sizes":[],"default_left":[0,0,0],"id":116,"left_children":[1,-1,-1],"loss_changes":[5.6010477E-2,0E0,0E0],"parents":[2147483647,0,0],"right_children":[2,-1,-1],"split_conditions":[3.318679E-1,2.19805E-2,-2.6889116E-2],"split_indices":[11,0,0],"split_type":[0,0,0],"sum_hessian":[6.526519E0,3.6853282E0,2.8411908E0],"tree_param":{"num_deleted":"0","num_feature":"20","num_nodes":"3","size_leaf_vector":"1"}},{"base_weights":[-7.618212E-4,2.6328437E-2,-2.0759355E-2],"categories":[],"categories_nodes":[],"categories_segments":[],"categories_sizes":[],"default_left":[0,0,0],"id":117,"left_children":[1,-1,-1],"loss_changes":[5.160379E-2,0E0,0E0],"parents":[2147483647,0,0],"right_children":[2,-1,-1],"split_conditions":[-3.4530407E-1,2.6328437E-2,-2.0759355E-2],"split_indices":[1,0,0],"split_type":[0,0,0],"sum_hessian":[6.5156035E0,2.7177527E0,3.7978508E0],"tree_param":{"num_deleted":"0","num_feature":"20","num_nodes":"3","size_leaf_vector":"1"}},{"base_weights":[2.009186E-4,-2.3561781E-2,2.8143924E-2],"categories":[],"categories_nodes":[],"categories_segments":[],"categories_sizes":[],"default_left":[0,0,0],"id":118,"left_children":[1,-1,-1],"loss_changes":[6.2690295E-2,0E0,0E0],"parents":[2147483647,0,0],"right_children":[2,-1,-1],"split_conditions":[3.593192E-2,-2.3561781E-2,2.8143924E-2],"split_indices":[1,0,0],"split_type":[0,0,0],"sum_hessian":[6.5053587E0,3.620801E0,2.8845575E0],"tree_param":{"num_deleted":"0","num_feature":"20","num_nodes":"3","size_leaf_vector":"1"}},{"base_weights":[7.435267E-4,3.1261213E-2,-5.6886774E-2,2.1605002E-2,-5.007759E-2],"categories":[],"categories_nodes":[],"categories_segments":[],"categories_sizes":[],"default_left":[0,0,0,0,0],"id":119,"left_children":[1,-1,3,-1,-1],"loss_changes":[5.0601482E-2,0E0,8.945249E-2,0E0,0E0],"parents":[2147483647,0,0,2,2],"right_children":[2,-1,4,-1,-1],"split_conditions":[-2.2970417E-1,3.1261213E-2,-4.7575748E-1,2.1605002E-2,-5.007759E-2],"split_indices":[15,0,3,0,0],"split_type":[0,0,0,0,0],"sum_hessian":[6.492487E0,2.0335748E0,4.458912E0,2.212562E0,2.2463498E0],"tree_param":{"num_deleted":"0","num_feature":"20","num_nodes":"5","size_leaf_vector":"1"}},{"base_weights":[8.298497E-4,-2.3180416E-2,2.8672447E-2],"categories":[],"categories_nodes":[],"categories_segments":[],"categories_sizes":[],"default_left":[0,0,0],"id":120,"left_children":[1,-1,-1],"loss_changes":[6.254652E-2,0E0,0E0],"parents":[2147483647,0,0],"right_children":[2,-1,-1],"split_conditions":[-5.2078927E-1,-2.3180416E-2,2.8672447E-2],"split_indices":[19,0,0],"split_type":[0,0,0],"sum_hessian":[6.454898E0,3.6394098E0,2.815488E0],"tree_param":{"num_deleted":"0","num_feature":"20","num_nodes":"3","size_leaf_vector":"1"}},{"base_weights":[1.3035814E-3,-2.3375617E-2,2.5911475E-2],"categories":[],"categories_nodes":[],"categories_segments":[],"categories_sizes":[],"default_left":[0,0,0],"id":121,"left_children":[1,-1,-1],"loss_changes":[5.698535E-2,0E0,0E0],"parents":[2147483647,0,0],"right_children":[2,-1,-1],"split_conditions":[8.8883173E-1,-2.3375617E-2,2.5911475E-2],"split_indices":[0,0,0],"split_type":[0,0,0],"sum_hessian":[6.4570823E0,3.3869336E0,3.0701487E0],"tree_param":{"num_deleted":"0","num_feature":"20","num_nodes":"3","size_leaf_vector":"1"}},{"base_weights":[1.240858E-3,2.6644686E-2,-2.0139528E-2],"categories":[],"categories_nodes":[],"categories_segments":[],"categories_sizes":[],"default_left":[0,0,0],"id":122,"left_children":[1,-1,-1],"loss_changes":[5.060436E-2,0E0,0E0],"parents":[2147483647,0,0],"right_children":[2,-1,-1],"split_conditions":[-3.4530407E-1,2.6644686E-2,-2.0139528E-2],"split_indices":[1,0,0],"split_type":[0,0,0],"sum_hessian":[6.4556003E0,2.699265E0,3.7563355E0],"tree_param":{"num_deleted":"0","num_feature":"20","num_nodes":"3","size_leaf_vector":"1"}},{"base_weights":[1.7374718E-3,-3.174317E-2,6.403985E-2,5.1144574E-2,-1.8955808E-2],"categories":[],"categories_nodes":[],"categories_segments":[],"categories_sizes":[],"default_left":[0,0,0,0,0],"id":123,"left_children":[1,-1,3,-1,-1],"loss_changes":[5.666752E-2,0E0,8.30558E-2,0E0,0E0],"parents":[2147483647,0,0,2,2],"right_children":[2,-1,4,-1,-1],"split_conditions":[-3.9644864E-1,-3.174317E-2,-5.5987275E-1,5.1144574E-2,-1.8955808E-2],"split_indices":[1,0,6,0,0],"split_type":[0,0,0,0,0],"sum_hessian":[6.445929E0,2.1082582E0,4.3376703E0,2.176627E0,2.1610436E0],"tree_param":{"num_deleted":"0","num_feature":"20","num_nodes":"5","size_leaf_vector":"1"}},{"base_weights":[1.3072073E-3,2.5003305E-2,-2.3385206E-2],"categories":[],"categories_nodes":[],"categories_segments":[],"categories_sizes":[],"default_left":[0,0,0],"id":124,"left_children":[1,-1,-1],"loss_changes":[5.4745685E-2,0E0,0E0],"parents":[2147483647,0,0],"right_children":[2,-1,-1],"split_conditions":[-6.1764544E-1,2.5003305E-2,-2.3385206E-2],"split_indices":[3,0,0],"split_type":[0,0,0],"sum_hessian":[6.4205265E0,3.1296122E0,3.290914E0],"tree_param":{"num_deleted":"0","num_feature":"20","num_nodes":"3","size_leaf_vector":"1"}},{"base_weights":[1.126068E-3,-2.6214363E-2,2.0407517E-2],"categories":[],"categories_nodes":[],"categories_segments":[],"categories_sizes":[],"default_left":[0,0,0],"id":125,"left_children":[1,-1,-1],"loss_changes":[4.9802233E-2,0E0,0E0],"parents":[2147483647,0,0],"right_children":[2,-1,-1],"split_conditions":[-7.151934E-1,-2.6214363E-2,2.0407517E-2],"split_indices":[3,0,0],"split_type":[0,0,0],"sum_hessian":[6.407156E0,2.626342E0,3.7808142E0],"tree_param":{"num_deleted":"0","num_feature":"20","num_nodes":"3","size_leaf_vector":"1"}},{"base_weights":[-5.362944E-6,1.9838175E-2,-2.9054273E-2],"categories":[],"categories_nodes":[],"categories_segments":[],"categories_sizes":[],"default_left":[0,0,0],"id":126,"left_children":[1,-1,-1],"loss_changes":[5.3842045E-2,0E0,0E0],"parents":[2147483647,0,0],"right_children":[2,-1,-1],"split_conditions":[2.3718639E-1,1.9838175E-2,-2.9054273E-2],"split_indices":[15,0,0],"split_type":[0,0,0],"sum_hessian":[6.407029E0,3.9956224E0,2.411407E0],"tree_param":{"num_deleted":"0","num_feature":"20","num_nodes":"3","size_leaf_vector":"1"}},{"base_weights":[-1.276795E-3,-2.9417017E-2,5.8741435E-2,-2.1385238E-2,4.949369E-2],"categories":[],"categories_nodes":[],"categories_segments":[],"categories_sizes":[],"default_left":[0,0,0,0,0],"id":127,"left_children":[1,-1,3,-1,-1],"loss_changes":[4.8653137E-2,0E0,8.335979E-2,0E0,0E0],"parents":[2147483647,0,0,2,2],"right_children":[2,-1,4,-1,-1],"split_conditions":[-1.22382246E-1,-2.9417017E-2,-7.151934E-1,-2.1385238E-2,4.949369E-2],"split_indices":[13,0,3,0,0],"split_type":[0,0,0,0,0],"sum_hessian":[6.3844714E0,2.2012131E0,4.183258E0,2.028977E0,2.1542811E0],"tree_param":{"num_deleted":"0","num_feature":"20","num_nodes":"5","size_leaf_vector":"1"}},{"base_weights":[-1.0637082E-3,2.4679583E-2,-2.4337467E-2],"categories":[],"categories_nodes":[],"categories_segments":[],"categories_sizes":[],"default_left":[0,0,0],"id":128,"left_children":[1,-1,-1],"loss_changes":[5.575148E-2,0E0,0E0],"parents":[2147483647,0,0],"right_children":[2,-1,-1],"split_conditions":[-6.1764544E-1,2.4679583E-2,-2.4337467E-2],"split_indices":[3,0,0],"split_type":[0,0,0],"sum_hessian":[6.356417E0,3.1011546E0,3.2552626E0],"tree_param":{"num_deleted":"0","num_feature":"20","num_nodes":"3","size_leaf_vector":"1"}},{"base_weights":[-7.1010715E-4,2.6197396E-2,-2.0708613E-2],"categories":[],"categories_nodes":[],"categories_segments":[],"categories_sizes":[],"default_left":[0,0,0],"id":129,"left_children":[1,-1,-1],"loss_changes":[5.0187603E-2,0E0,0E0],"parents":[2147483647,0,0],"right_children":[2,-1,-1],"split_conditions":[-3.4530407E-1,2.6197396E-2,-2.0708613E-2],"split_indices":[1,0,0],"split_type":[0,0,0],"sum_hessian":[6.3423133E0,2.6497157E0,3.6925979E0],"tree_param":{"num_deleted":"0","num_feature":"20","num_nodes":"3","size_leaf_vector":"1"}},{"base_weights":[2.4517608E-4,-3.1333618E-2,6.1260697E-2,-1.8849647E-2,4.8161272E-2],"categories":[],"categories_nodes":[],"categories_segments":[],"categories_sizes":[],"default_left":[0,0,0,0,0],"id":130,"left_children":[1,-1,3,-1,-1],"loss_changes":[5.323691E-2,0E0,7.492347E-2,0E0,0E0],"parents":[2147483647,0,0,2,2],"right_children":[2,-1,4,-1,-1],"split_conditions":[-3.9644864E-1,-3.1333618E-2,-9.373368E-2,-1.8849647E-2,4.8161272E-2],"split_indices":[1,0,11,0,0],"split_type":[0,0,0,0,0],"sum_hessian":[6.332553E0,2.0696533E0,4.2628994E0,2.0578082E0,2.2050915E0],"tree_param":{"num_deleted":"0","num_feature":"20","num_nodes":"5","size_leaf_vector":"1"}},{"base_weights":[-1.2569323E-4,2.344697E-2,-2.8769962E-2],"categories":[],"categories_nodes":[],"categories_segments":[],"categories_sizes":[],"default_left":[0,0,0],"id":131,"left_children":[1,-1,-1],"loss_changes":[6.2462267E-2,0E0,0E0],"parents":[2147483647,0,0],"right_children":[2,-1,-1],"split_conditions":[3.318679E-1,2.344697E-2,-2.8769962E-2],"split_indices":[11,0,0],"split_type":[0,0,0],"sum_hessian":[6.331465E0,3.5850928E0,2.7463717E0],"tree_param":{"num_deleted":"0","num_feature":"20","num_nodes":"3","size_leaf_vector":"1"}},{"base_weights":[-8.309023E-4,-2.1401748E-2,2.5560943E-2],"categories":[],"categories_nodes":[],"categories_segments":[],"categories_sizes":[],"default_left":[0,0,0],"id":132,"left_children":[1,-1,-1],"loss_changes":[5.048481E-2,0E0,0E0],"parents":[2147483647,0,0],"right_children":[2,-1,-1],"split_conditions":[-5.2078927E-1,-2.1401748E-2,2.5560943E-2],"split_indices":[19,0,0],"split_type":[0,0,0],"sum_hessian":[6.320423E0,3.5675113E0,2.7529118E0],"tree_param":{"num_deleted":"0","num_feature":"20","num_nodes":"3","size_leaf_vector":"1"}},{"base_weights":[-2.3847464E-5,2.5297554E-2,-1.9674644E-2],"categories":[],"categories_nodes":[],"categories_segments":[],"categories_sizes":[],"default_left":[0,0,0],"id":133,"left_children":[1,-1,-1],"loss_changes":[4.6022087E-2,0E0,0E0],"parents":[2147483647,0,0],"right_children":[2,-1,-1],"split_conditions":[-3.4530407E-1,2.5297554E-2,-1.9674644E-2],"split_indices":[1,0,0],"split_type":[0,0,0],"sum_hessian":[6.3225107E0,2.639805E0,3.6827054E0],"tree_param":{"num_deleted":"0","num_feature":"20","num_nodes":"3","size_leaf_vector":"1"}},{"base_weights":[7.465524E-4,-2.2291843E-2,2.6575679E-2],"categories":[],"categories_nodes":[],"categories_segments":[],"categories_sizes":[],"default_left":[0,0,0],"id":134,"left_children":[1,-1,-1],"loss_changes":[5.4794595E-2,0E0,0E0],"parents":[2147483647,0,0],"right_children":[2,-1,-1],"split_conditions":[3.593192E-2,-2.2291843E-2,2.6575679E-2],"split_indices":[1,0,0],"split_type":[0,0,0],"sum_hessian":[6.3131175E0,3.4874153E0,2.8257024E0],"tree_param":{"num_deleted":"0","num_feature":"20","num_nodes":"3","size_leaf_vector":"1"}},{"base_weights":[1.102797E-3,1.8414248E-2,-2.6191665E-2],"categories":[],"categories_nodes":[],"categories_segments":[],"categories_sizes":[],"default_left":[0,0,0],"id":135,"left_children":[1,-1,-1],"loss_changes":[4.4271566E-2,0E0,0E0],"parents":[2147483647,0,0],"right_children":[2,-1,-1],"split_conditions":[2.3718639E-1,1.8414248E-2,-2.6191665E-2],"split_indices":[15,0,0],"split_type":[0,0,0],"sum_hessian":[6.3019505E0,3.9288907E0,2.3730597E0],"tree_param":{"num_deleted":"0","num_feature":"20","num_nodes":"3","size_leaf_vector":"1"}},{"base_weights":[-3.1322354E-4,2.629442E-2,-1.9596793E-2],"categories":[],"categories_nodes":[],"categories_segments":[],"categories_sizes":[],"default_left":[0,0,0],"id":136,"left_children":[1,-1,-1],"loss_changes":[4.736787E-2,0E0,0E0],"parents":[2147483647,0,0],"right_children":[2,-1,-1],"split_conditions":[-4.2584875E-1,2.629442E-2,-1.9596793E-2],"split_indices":[12,0,0],"split_type":[0,0,0],"sum_hessian":[6.2823014E0,2.521856E0,3.7604454E0],"tree_param":{"num_deleted":"0","num_feature":"20","num_nodes":"3","size_leaf_vector":"1"}},{"base_weights":[6.959812E-4,2.2356056E-2,-2.1731926E-2],"categories":[],"categories_nodes":[],"categories_segments":[],"categories_sizes":[],"default_left":[0,0,0],"id":137,"left_children":[1,-1,-1],"loss_changes":[4.4670507E-2,0E0,0E0],"parents":[2147483647,0,0],"right_children":[2,-1,-1],"split_conditions":[-2.5190476E-1,2.2356056E-2,-2.1731926E-2],"split_indices":[7,0,0],"split_type":[0,0,0],"sum_hessian":[6.273741E0,3.1127543E0,3.1609864E0],"tree_param":{"num_deleted":"0","num_feature":"20","num_nodes":"3","size_leaf_vector":"1"}},{"base_weights":[5.654851E-4,-2.153314E-2,2.3343883E-2],"categories":[],"categories_nodes":[],"categories_segments":[],"categories_sizes":[],"default_left":[0,0,0],"id":138,"left_children":[1,-1,-1],"loss_changes":[4.61791E-2,0E0,0E0],"parents":[2147483647,0,0],"right_children":[2,-1,-1],"split_conditions":[8.8883173E-1,-2.153314E-2,2.3343883E-2],"split_indices":[0,0,0],"split_type":[0,0,0],"sum_hessian":[6.2641106E0,3.2713196E0,2.9927912E0],"tree_param":{"num_deleted":"0","num_feature":"20","num_nodes":"3","size_leaf_vector":"1"}},{"base_weights":[6.366956E-4,2.6817637E-2,-1.7580932E-2],"categories":[],"categories_nodes":[],"categories_segments":[],"categories_sizes":[],"default_left":[0,0,0],"id":139,"left_children":[1,-1,-1],"loss_changes":[4.3425813E-2,0E0,0E0],"parents":[2147483647,0,0],"right_children":[2,-1,-1],"split_conditions":[-3.065345E-1,2.6817637E-2,-1.7580932E-2],"split_indices":[11,0,0],"split_type":[0,0,0],"sum_hessian":[6.262879E0,2.303178E0,3.9597006E0],"tree_param":{"num_deleted":"0","num_feature":"20","num_nodes":"3","size_leaf_vector":"1"}},{"base_weights":[1.7212197E-3,2.6677279E-2,-2.000406E-2],"categories":[],"categories_nodes":[],"categories_segments":[],"categories_sizes":[],"default_left":[0,0,0],"id":140,"left_children":[1,-1,-1],"loss_changes":[4.917268E-2,0E0,0E0],"parents":[2147483647,0,0],"right_children":[2,-1,-1],"split_conditions":[-3.4530407E-1,2.6677279E-2,-2.000406E-2],"split_indices":[1,0,0],"split_type":[0,0,0],"sum_hessian":[6.2497163E0,2.6153917E0,3.6343243E0],"tree_param":{"num_deleted":"0","num_feature":"20","num_nodes":"3","size_leaf_vector":"1"}},{"base_weights":[2.1237554E-3,-2.8985528E-2,5.962969E-2,-2.0468561E-2,4.8948016E-2],"categories":[],"categories_nodes":[],"categories_segments":[],"categories_sizes":[],"default_left":[0,0,0,0,0],"id":141,"left_children":[1,-1,3,-1,-1],"loss_changes":[4.6874538E-2,0E0,7.988659E-2,0E0,0E0],"parents":[2147483647,0,0,2,2],"right_children":[2,-1,4,-1,-1],"split_conditions":[-3.9644864E-1,-2.8985528E-2,-9.373368E-2,-2.0468561E-2,4.8948016E-2],"split_indices":[1,0,11,0,0],"split_type":[0,0,0,0,0],"sum_hessian":[6.240458E0,2.0464303E0,4.1940274E0,2.0291018E0,2.1649258E0],"tree_param":{"num_deleted":"0","num_feature":"20","num_nodes":"5","size_leaf_vector":"1"}},{"base_weights":[1.3981847E-3,2.0766778E-2,-2.4650658E-2],"categories":[],"categories_nodes":[],"categories_segments":[],"categories_sizes":[],"default_left":[0,0,0],"id":142,"left_children":[1,-1,-1],"loss_changes":[4.6718564E-2,0E0,0E0],"parents":[2147483647,0,0],"right_children":[2,-1,-1],"split_conditions":[3.318679E-1,2.0766778E-2,-2.4650658E-2],"split_indices":[11,0,0],"split_type":[0,0,0],"sum_hessian":[6.2391415E0,3.5387142E0,2.7004273E0],"tree_param":{"num_deleted":"0","num_feature":"20","num_nodes":"3","size_leaf_vector":"1"}},{"base_weights":[4.3215143E-4,2.5146265E-2,-1.932408E-2],"categories":[],"categories_nodes":[],"categories_segments":[],"categories_sizes":[],"default_left":[0,0,0],"id":143,"left_children":[1,-1,-1],"loss_changes":[4.4497736E-2,0E0,0E0],"parents":[2147483647,0,0],"right_children":[2,-1,-1],"split_conditions":[-3.4530407E-1,2.5146265E-2,-1.932408E-2],"split_indices":[1,0,0],"split_type":[0,0,0],"sum_hessian":[6.230554E0,2.5975726E0,3.6329815E0],"tree_param":{"num_deleted":"0","num_feature":"20","num_nodes":"3","size_leaf_vector":"1"}},{"base_weights":[1.1046422E-3,-2.045079E-2,2.4451507E-2],"categories":[],"categories_nodes":[],"categories_segments":[],"categories_sizes":[],"default_left":[0,0,0],"id":144,"left_children":[1,-1,-1],"loss_changes":[4.5778323E-2,0E0,0E0],"parents":[2147483647,0,0],"right_children":[2,-1,-1],"split_conditions":[3.593192E-2,-2.045079E-2,2.4451507E-2],"split_indices":[1,0,0],"split_type":[0,0,0],"sum_hessian":[6.22167E0,3.4238052E0,2.7978647E0],"tree_param":{"num_deleted":"0","num_feature":"20","num_nodes":"3","size_leaf_vector":"1"}},{"base_weights":[1.3237573E-3,2.4132567E-2,-1.818909E-2],"categories":[],"categories_nodes":[],"categories_segments":[],"categories_sizes":[],"default_left":[0,0,0],"id":145,"left_children":[1,-1,-1],"loss_changes":[4.0228605E-2,0E0,0E0],"parents":[2147483647,0,0],"right_children":[2,-1,-1],"split_conditions":[-3.4530407E-1,2.4132567E-2,-1.818909E-2],"split_indices":[1,0,0],"split_type":[0,0,0],"sum_hessian":[6.2120833E0,2.5970812E0,3.6150022E0],"tree_param":{"num_deleted":"0","num_feature":"20","num_nodes":"3","size_leaf_vector":"1"}},{"base_weights":[1.7492351E-3,-2.86327E-2,5.8631536E-2,-1.6028885E-2,4.42597E-2],"categories":[],"categories_nodes":[],"categories_segments":[],"categories_sizes":[],"default_left":[0,0,0,0,0],"id":146,"left_children":[1,-1,3,-1,-1],"loss_changes":[4.5423422E-2,0E0,5.9326656E-2,0E0,0E0],"parents":[2147483647,0,0,2,2],"right_children":[2,-1,4,-1,-1],"split_conditions":[-3.9644864E-1,-2.86327E-2,-9.373368E-2,-1.6028885E-2,4.42597E-2],"split_indices":[1,0,11,0,0],"split_type":[0,0,0,0,0],"sum_hessian":[6.204058E0,2.0401971E0,4.163861E0,2.0185003E0,2.1453607E0],"tree_param":{"num_deleted":"0","num_feature":"20","num_nodes":"5",