{"learner":{"attributes":{"scikit_learn":"{\"_estimator_type\": \"classifier\"}"},"feature_names":[],"feature_types":[],"gradient_booster":{"model":{"gbtree_model_param":{"num_parallel_tree":"1","num_trees":"100"},"iteration_indptr":[0,1,2,3,4,5,6,7,8,9,10,11,12,13,14,15,16,17,18,19,20,21,22,23,24,25,26,27,28,29,30,31,32,33,34,35,36,37,38,39,40,41,42,43,44,45,46,47,48,49,50,51,52,53,54,55,56,57,58,59,60,61,62,63,64,65,66,67,68,69,70,71,72,73,74,75,76,77,78,79,80,81,82,83,84,85,86,87,88,89,90,91,92,93,94,95,96,97,98,99,100],"tree_info":[0,0,0,0,0,0,0,0,0,0,0,0,0,0,0,0,0,0,0,0,0,0,0,0,0,0,0,0,0,0,0,0,0,0,0,0,0,0,0,0,0,0,0,0,0,0,0,0,0,0,0,0,0,0,0,0,0,0,0,0,0,0,0,0,0,0,0,0,0,0,0,0,0,0,0,0,0,0,0,0,0,0,0,0,0,0,0,0,0,0,0,0,0,0,0,0,0,0,0,0],"trees":[{"base_weights":[-8.644087E-2,1.0122441E0,-1.0859722E0,-1.07599795E-1,1.6537642E0,-4.2065687E-2,-1.2173754E-1,2.874592E-1,5.8353317E-1,-1.4889722E-2,1.1108949E-1],"categories":[],"categories_nodes":[],"categories_segments":[],"categories_sizes":[],"default_left":[0,0,0,0,0,0,0,0,0,0,0],"id":0,"left_children":[1,3,5,-1,7,-1,-1,-1,9,-1,-1],"loss_changes":[3.8868095E1,2.4421118E1,1.1044998E0,0E0,1.5730537E1,0E0,0E0,0E0,3.392306E0,0E0,0E0],"parents":[2147483647,0,0,1,1,2,2,4,4,8,8],"right_children":[2,4,6,-1,8,-1,-1,-1,10,-1,-1],"split_conditions":[3.4493035E-1,-4.487349E-1,4.88589E-1,-1.07599795E-1,-3.015335E-1,-4.2065687E-2,-1.2173754E-1,2.874592E-1,8.8883173E-1,-1.4889722E-2,1.1108949E-1],"split_indices":[15,13,15,0,15,0,0,0,0,0,0],"split_type":[0,0,0,0,0,0,0,0,0,0,0],"sum_hessian":[3.3392506E1,1.5901194E1,1.7491314E1,3.5777686E0,1.2323425E1,3.5777686E0,1.3913545E1,4.969123E0,7.354302E0,3.3790035E0,3.9752984E0],"tree_param":{"num_deleted":"0","num_feature":"20","num_nodes":"11","size_leaf_vector":"1"}},{"base_weights":[-7.973032E-2,8.899228E-1,-1.0366838E0,-1.0341468E-1,1.4276111E0,-3.9400943E-2,-1.16840616E-1,2.3831192E-1,5.245822E-1,1.178677E-1,-5.245987E-3],"categories":[],"categories_nodes":[],"categories_segments":[],"categories_sizes":[],"default_left":[0,0,0,0,0,0,0,0,0,0,0],"id":1,"left_children":[1,3,5,-1,7,-1,-1,-1,9,-1,-1],"loss_changes":[3.2590664E1,1.9570377E1,1.0328178E0,0E0,1.0907255E1,0E0,0E0,0E0,3.2799175E0,0E0,0E0],"parents":[2147483647,0,0,1,1,2,2,4,4,8,8],"right_children":[2,4,6,-1,8,-1,-1,-1,10,-1,-1],"split_conditions":[3.4493035E-1,-4.487349E-1,4.88589E-1,-1.0341468E-1,-3.015335E-1,-3.9400943E-2,-1.16840616E-1,2.3831192E-1,-6.6864353E-1,1.178677E-1,-5.245987E-3],"split_indices":[15,13,15,0,15,0,0,0,4,0,0],"split_type":[0,0,0,0,0,0,0,0,0,0,0],"sum_hessian":[3.31283E1,1.6489756E1,1.6638544E1,3.3999646E0,1.3089791E1,3.5090542E0,1.3129491E1,5.563715E0,7.526076E0,3.0388393E0,4.4872365E0],"tree_param":{"num_deleted":"0","num_feature":"20","num_nodes":"11","size_leaf_vector":"1"}},{"base_weights":[-7.344094E-2,7.9566544E-1,-9.917982E-1,-9.96113E-2,1.2592558E0,-3.6897656E-2,-1.1247837E-1,2.054963E-1,4.7643837E-1,1.0663761E-1,-5.7634185E-3],"categories":[],"categories_nodes":[],"categories_segments":[],"categories_sizes":[],"default_left":[0,0,0,0,0,0,0,0,0,0,0],"id":2,"left_children":[1,3,5,-1,7,-1,-1,-1,9,-1,-1],"loss_changes":[2.7632023E1,1.6068092E1,9.762516E-1,0E0,8.121279E0,0E0,0E0,0E0,2.7919693E0,0E0,0E0],"parents":[2147483647,0,0,1,1,2,2,4,4,8,8],"right_children":[2,4,6,-1,8,-1,-1,-1,10,-1,-1],"split_conditions":[3.4493035E-1,-4.487349E-1,4.88589E-1,-9.96113E-2,-3.015335E-1,-3.6897656E-2,-1.1247837E-1,2.054963E-1,-3.7257996E-1,1.0663761E-1,-5.7634185E-3],"split_indices":[15,13,15,0,15,0,0,0,18,0,0],"split_type":[0,0,0,0,0,0,0,0,0,0,0],"sum_hessian":[3.263137E1,1.683388E1,1.579749E1,3.2240849E0,1.3609794E1,3.4437337E0,1.2353756E1,5.9434223E0,7.6663713E0,3.1690948E0,4.497277E0],"tree_param":{"num_deleted":"0","num_feature":"20","num_nodes":"11","size_leaf_vector":"1"}},{"base_weights":[-6.819913E-2,7.1910316E-1,-9.50408E-1,-9.612212E-2,1.1267309E0,-3.4545008E-2,-1.08539045E-1,1.8195893E-1,4.338146E-1,-2.1209516E-2,9.020192E-2],"categories":[],"categories_nodes":[],"categories_segments":[],"categories_sizes":[],"default_left":[0,0,0,0,0,0,0,0,0,0,0],"id":3,"left_children":[1,3,5,-1,7,-1,-1,-1,9,-1,-1],"loss_changes":[2.3584139E1,1.3406651E1,9.298935E-1,0E0,6.3831577E0,0E0,0E0,0E0,2.8473516E0,0E0,0E0],"parents":[2147483647,0,0,1,1,2,2,4,4,8,8],"right_children":[2,4,6,-1,8,-1,-1,-1,10,-1,-1],"split_conditions":[3.4493035E-1,-4.487349E-1,4.88589E-1,-9.612212E-2,-3.015335E-1,-3.4545008E-2,-1.08539045E-1,1.8195893E-1,8.8883173E-1,-2.1209516E-2,9.020192E-2],"split_indices":[15,13,15,0,15,0,0,0,0,0,0],"split_type":[0,0,0,0,0,0,0,0,0,0,0],"sum_hessian":[3.1971277E1,1.699207E1,1.4979207E1,3.0521991E0,1.393987E1,3.3818436E0,1.1597363E1,6.157199E0,7.782671E0,3.5005312E0,4.28214E0],"tree_param":{"num_deleted":"0","num_feature":"20","num_nodes":"11","size_leaf_vector":"1"}},{"base_weights":[-6.447068E-2,6.5341425E-1,-9.118156E-1,-9.657989E-2,1.1044532E0,-3.2333385E-2,-1.04936145E-1,-4.219385E-2,2.58185E-2,1.6106538E-1,4.1076638E-2],"categories":[],"categories_nodes":[],"categories_segments":[],"categories_sizes":[],"default_left":[0,0,0,0,0,0,0,0,0,0,0],"id":4,"left_children":[1,3,5,7,9,-1,-1,-1,-1,-1,-1],"loss_changes":[2.0190392E1,6.2026877E0,8.9035225E-1,9.9623567E-1,3.3181448E0,0E0,0E0,0E0,0E0,0E0,0E0],"parents":[2147483647,0,0,1,1,2,2,3,3,4,4],"right_children":[2,4,6,8,10,-1,-1,-1,-1,-1,-1],"split_conditions":[3.4493035E-1,-1.22382246E-1,4.88589E-1,-3.9415696E-1,-2.2970417E-1,-3.2333385E-2,-1.04936145E-1,-4.219385E-2,2.58185E-2,1.6106538E-1,4.1076638E-2],"split_indices":[15,13,15,2,15,0,0,0,0,0,0],"split_type":[0,0,0,0,0,0,0,0,0,0,0],"sum_hessian":[3.1212269E1,1.7020815E1,1.4191454E1,6.6871676E0,1.0333648E1,3.3233662E0,1.0868088E1,3.3893826E0,3.2977853E0,5.209946E0,5.1237016E0],"tree_param":{"num_deleted":"0","num_feature":"20","num_nodes":"11","size_leaf_vector":"1"}},{"base_weights":[-5.9109807E-2,5.963689E-1,-8.7548107E-1,-8.9615285E-2,1.0043116E0,-3.1820446E-2,-1.0261824E-1,-3.9522167E-2,2.364712E-2,1.4691545E-1,3.208478E-2],"categories":[],"categories_nodes":[],"categories_segments":[],"categories_sizes":[],"default_left":[0,0,0,0,0,0,0,0,0,0,0],"id":5,"left_children":[1,3,5,7,9,-1,-1,-1,-1,-1,-1],"loss_changes":[1.7385323E1,5.147836E0,8.8612175E-1,8.566213E-1,3.1554518E0,0E0,0E0,0E0,0E0,0E0,0E0],"parents":[2147483647,0,0,1,1,2,2,3,3,4,4],"right_children":[2,4,6,8,10,-1,-1,-1,-1,-1,-1],"split_conditions":[3.4493035E-1,-1.22382246E-1,-4.2584875E-1,-3.9415696E-1,-2.0544228E-1,-3.1820446E-2,-1.0261824E-1,-3.9522167E-2,2.364712E-2,1.4691545E-1,3.208478E-2],"split_indices":[15,13,12,2,8,0,0,0,0,0,0],"split_type":[0,0,0,0,0,0,0,0,0,0,0],"sum_hessian":[3.0513311E1,1.7073883E1,1.3439429E1,6.6581163E0,1.0415767E1,3.5230563E0,9.916373E0,3.3275452E0,3.3305712E0,5.515171E0,4.900595E0],"tree_param":{"num_deleted":"0","num_feature":"20","num_nodes":"11","size_leaf_vector":"1"}},{"base_weights":[-5.4662794E-2,4.5555258E-1,-1.00281134E-1,-9.793039E-2,8.0815357E-1,1.0908449E0,-3.7629396E-2,5.9681666E-1,1.6107728E-1,1.2961553E-1,-1.8955765E-2],"categories":[],"categories_nodes":[],"categories_segments":[],"categories_sizes":[],"default_left":[0,0,0,0,0,0,0,0,0,0,0],"id":6,"left_children":[1,3,-1,-1,5,7,-1,9,-1,-1,-1],"loss_changes":[1.5388214E1,1.1291811E1,0E0,0E0,6.1723833E0,2.6729736E0,0E0,5.1092877E0,0E0,0E0,0E0],"parents":[2147483647,0,0,1,1,4,4,5,5,7,7],"right_children":[2,4,-1,-1,6,8,-1,10,-1,-1,-1],"split_conditions":[4.5267433E-1,-4.487349E-1,-1.00281134E-1,-9.793039E-2,2.5439933E-1,4.5255548E-1,-3.7629396E-2,-3.5782927E-1,1.6107728E-1,1.2961553E-1,-1.8955765E-2],"split_indices":[15,13,0,0,18,10,0,1,0,0,0],"split_type":[0,0,0,0,0,0,0,0,0,0,0],"sum_hessian":[2.9865273E1,1.9754541E1,1.0110731E1,3.5462484E0,1.6208292E1,1.3149045E1,3.059248E0,7.843829E0,5.3052154E0,3.8085456E0,4.0352836E0],"tree_param":{"num_deleted":"0","num_feature":"20","num_nodes":"11","size_leaf_vector":"1"}},{"base_weights":[-5.1149875E-2,4.1991502E-1,-9.7289436E-2,-9.479474E-2,7.4062395E-1,9.975859E-1,-3.519607E-2,5.5192333E-1,1.4562558E-1,1.195665E-1,-1.753934E-2],"categories":[],"categories_nodes":[],"categories_segments":[],"categories_sizes":[],"default_left":[0,0,0,0,0,0,0,0,0,0,0],"id":7,"left_children":[1,3,-1,-1,5,7,-1,9,-1,-1,-1],"loss_changes":[1.3430554E1,9.715319E0,0E0,0E0,5.1814947E0,2.096856E0,0E0,4.3333435E0,0E0,0E0,0E0],"parents":[2147483647,0,0,1,1,4,4,5,5,7,7],"right_children":[2,4,-1,-1,6,8,-1,10,-1,-1,-1],"split_conditions":[4.5267433E-1,-4.487349E-1,-9.7289436E-2,-9.479474E-2,2.5439933E-1,4.5255548E-1,-3.519607E-2,-3.5782927E-1,1.4562558E-1,1.195665E-1,-1.753934E-2],"split_indices":[15,13,0,0,18,10,0,1,0,0,0],"split_type":[0,0,0,0,0,0,0,0,0,0,0],"sum_hessian":[2.8990736E1,1.954602E1,9.4447155E0,3.340898E0,1.6205122E1,1.31899605E1,3.0151615E0,7.8073397E0,5.3826213E0,3.800028E0,4.0073113E0],"tree_param":{"num_deleted":"0","num_feature":"20","num_nodes":"11","size_leaf_vector":"1"}},{"base_weights":[-4.8182584E-2,3.883496E-1,-9.4447605E-2,-9.1865785E-2,6.8199956E-1,1.2998709E-1,2.363392E-1,-6.360548E-2,7.23102E-1,5.160606E-3,1.1589737E-1],"categories":[],"categories_nodes":[],"categories_segments":[],"categories_sizes":[],"default_left":[0,0,0,0,0,0,0,0,0,0,0],"id":8,"left_children":[1,3,-1,-1,5,-1,7,-1,9,-1,-1],"loss_changes":[1.1747957E1,8.40617E0,0E0,0E0,4.408397E0,0E0,5.2038164E0,0E0,2.175855E0,0E0,0E0],"parents":[2147483647,0,0,1,1,4,4,6,6,8,8],"right_children":[2,4,-1,-1,6,-1,8,-1,10,-1,-1],"split_conditions":[4.5267433E-1,-4.487349E-1,-9.4447605E-2,-9.1865785E-2,-3.015335E-1,1.2998709E-1,7.091401E-1,-6.360548E-2,-3.9246222E-1,5.160606E-3,1.1589737E-1],"split_indices":[15,13,0,0,15,0,0,0,2,0,0],"split_type":[0,0,0,0,0,0,0,0,0,0,0],"sum_hessian":[2.808844E1,1.9269909E1,8.818531E0,3.144708E0,1.61252E1,5.9538918E0,1.01713085E1,3.5328689E0,6.63844E0,3.0531738E0,3.5852664E0],"tree_param":{"num_deleted":"0","num_feature":"20","num_nodes":"11","size_leaf_vector":"1"}},{"base_weights":[-4.602086E-2,3.600871E-1,-9.172504E-2,-3.813218E-2,1.0728766E-1,3.6349073E-1,-5.099501E-2,-1.2497599E-2,7.9995625E-2],"categories":[],"categories_nodes":[],"categories_segments":[],"categories_sizes":[],"default_left":[0,0,0,0,0,0,0,0,0],"id":9,"left_children":[1,3,-1,5,-1,7,-1,-1,-1],"loss_changes":[1.0290785E1,5.6950016E0,0E0,2.7900262E0,0E0,1.8074635E0,0E0,0E0,0E0],"parents":[2147483647,0,0,1,1,3,3,5,5],"right_children":[2,4,-1,6,-1,8,-1,-1,-1],"split_conditions":[4.5267433E-1,4.5255548E-1,-9.172504E-2,-3.7257996E-1,1.0728766E-1,-1.22382246E-1,-5.099501E-2,-1.2497599E-2,7.9995625E-2],"split_indices":[15,10,0,18,0,13,0,0,0],"split_type":[0,0,0,0,0,0,0,0,0],"sum_hessian":[2.7151842E1,1.8919533E1,8.232309E0,1.2745445E1,6.174088E0,7.008897E0,5.7365484E0,3.644193E0,3.364704E0],"tree_param":{"num_deleted":"0","num_feature":"20","num_nodes":"9","size_leaf_vector":"1"}},{"base_weights":[-4.234412E-2,3.3289155E-1,-8.909704E-2,-3.371977E-2,9.820894E-2,3.366491E-1,-4.760227E-2,-1.1563809E-2,7.396032E-2],"categories":[],"categories_nodes":[],"categories_segments":[],"categories_sizes":[],"default_left":[0,0,0,0,0,0,0,0,0],"id":10,"left_children":[1,3,-1,5,-1,7,-1,-1,-1],"loss_changes":[9.034823E0,4.7350435E0,0E0,2.386923E0,0E0,1.5405477E0,0E0,0E0,0E0],"parents":[2147483647,0,0,1,1,3,3,5,5],"right_children":[2,4,-1,6,-1,8,-1,-1,-1],"split_conditions":[4.5267433E-1,4.5255548E-1,-8.909704E-2,-3.7257996E-1,9.820894E-2,-1.22382246E-1,-4.760227E-2,-1.1563809E-2,7.396032E-2],"split_indices":[15,10,0,18,0,13,0,0,0],"split_type":[0,0,0,0,0,0,0,0,0],"sum_hessian":[2.644118E1,1.8755722E1,7.685458E0,1.2592574E1,6.1631474E0,6.983614E0,5.60896E0,3.6263354E0,3.3572786E0],"tree_param":{"num_deleted":"0","num_feature":"20","num_nodes":"9","size_leaf_vector":"1"}},{"base_weights":[-3.9094657E-2,3.081431E-1,-8.654379E-2,-2.977253E-2,9.020395E-2,-3.0029455E-1,5.1541697E-2,2.5266537E-2,-6.953578E-2],"categories":[],"categories_nodes":[],"categories_segments":[],"categories_sizes":[],"default_left":[0,0,0,0,0,0,0,0,0],"id":11,"left_children":[1,3,-1,5,-1,7,-1,-1,-1],"loss_changes":[7.941804E0,3.9546108E0,0E0,2.1372962E0,0E0,2.2763557E0,0E0,0E0,0E0],"parents":[2147483647,0,0,1,1,3,3,5,5],"right_children":[2,4,-1,6,-1,8,-1,-1,-1],"split_conditions":[4.5267433E-1,4.5255548E-1,-8.654379E-2,3.120316E-1,9.020395E-2,-5.5987275E-1,5.1541697E-2,2.5266537E-2,-6.953578E-2],"split_indices":[15,10,0,6,0,6,0,0,0],"split_type":[0,0,0,0,0,0,0,0,0],"sum_hessian":[2.5748415E1,1.8571558E1,7.176856E0,1.2442108E1,6.129451E0,8.616038E0,3.8260698E0,3.7407074E0,4.8753304E0],"tree_param":{"num_deleted":"0","num_feature":"20","num_nodes":"9","size_leaf_vector":"1"}},{"base_weights":[-3.647434E-2,2.837656E-1,-8.404953E-2,-2.6798872E-2,8.3066426E-2,3.080879E-1,-4.3692645E-2,-1.1348355E-2,6.840504E-2],"categories":[],"categories_nodes":[],"categories_segments":[],"categories_sizes":[],"default_left":[0,0,0,0,0,0,0,0,0],"id":12,"left_children":[1,3,-1,5,-1,7,-1,-1,-1],"loss_changes":[6.9751363E0,3.3272748E0,0E0,1.9722674E0,0E0,1.3379738E0,0E0,0E0,0E0],"parents":[2147483647,0,0,1,1,3,3,5,5],"right_children":[2,4,-1,6,-1,8,-1,-1,-1],"split_conditions":[4.5267433E-1,4.5255548E-1,-8.404953E-2,-3.7257996E-1,8.3066426E-2,-1.22382246E-1,-4.3692645E-2,-1.1348355E-2,6.840504E-2],"split_indices":[15,10,0,18,0,13,0,0,0],"split_type":[0,0,0,0,0,0,0,0,0],"sum_hessian":[2.516375E1,1.8458736E1,6.705012E0,1.2379725E1,6.079012E0,6.951956E0,5.4277697E0,3.606309E0,3.3456469E0],"tree_param":{"num_deleted":"0","num_feature":"20","num_nodes":"9","size_leaf_vector":"1"}},{"base_weights":[-3.3871975E-2,-9.557633E-2,2.3697187E-1,1.1195173E-1,-1.4765912E-1,3.3000833E-1,-7.532352E-2,8.3071955E-2,-2.8016422E-2],"categories":[],"categories_nodes":[],"categories_segments":[],"categories_sizes":[],"default_left":[0,0,0,0,0,0,0,0,0],"id":13,"left_children":[1,-1,3,-1,5,7,-1,-1,-1],"loss_changes":[6.598487E0,0E0,7.1329875E0,0E0,4.639376E0,3.0377612E0,0E0,0E0,0E0],"parents":[2147483647,0,0,2,2,4,4,5,5],"right_children":[2,-1,4,-1,6,8,-1,-1,-1],"split_conditions":[-4.487349E-1,-9.557633E-2,-3.015335E-1,1.1195173E-1,-4.661217E-1,-5.5987275E-1,-7.532352E-2,8.3071955E-2,-2.8016422E-2],"split_indices":[13,0,15,0,4,6,0,0,0],"split_type":[0,0,0,0,0,0,0,0,0],"sum_hessian":[2.451978E1,4.993658E0,1.9526121E1,5.3468995E0,1.4179221E1,8.181138E0,5.998083E0,4.295102E0,3.8860362E0],"tree_param":{"num_deleted":"0","num_feature":"20","num_nodes":"9","size_leaf_vector":"1"}},{"base_weights":[-3.2457415E-2,-9.331695E-2,2.2281164E-1,1.0624557E-1,-1.3761246E-1,3.0161574E-1,-7.212157E-2,7.538503E-2,-2.5962621E-2],"categories":[],"categories_nodes":[],"categories_segments":[],"categories_sizes":[],"default_left":[0,0,0,0,0,0,0,0,0],"id":14,"left_children":[1,-1,3,-1,5,7,-1,-1,-1],"loss_changes":[5.88515E0,0E0,6.2128296E0,0E0,4.0397716E0,2.5341096E0,0E0,0E0,0E0],"parents":[2147483647,0,0,2,2,4,4,5,5],"right_children":[2,-1,4,-1,6,8,-1,-1,-1],"split_conditions":[-4.487349E-1,-9.331695E-2,-3.015335E-1,1.0624557E-1,-4.661217E-1,-5.5987275E-1,-7.212157E-2,7.538503E-2,-2.5962621E-2],"split_indices":[13,0,15,0,4,6,0,0,0],"split_type":[0,0,0,0,0,0,0,0,0],"sum_hessian":[2.3691772E1,4.645297E0,1.9046474E1,5.1353564E0,1.39111185E1,8.213046E0,5.6980734E0,4.3581653E0,3.8548806E0],"tree_param":{"num_deleted":"0","num_feature":"20","num_nodes":"9","size_leaf_vector":"1"}},{"base_weights":[-3.1281523E-2,-9.1143884E-2,2.0962487E-1,1.01089954E-1,-1.284485E-1,-7.2470024E-2,2.7536738E-1,7.603308E-2,-3.7051182E-2],"categories":[],"categories_nodes":[],"categories_segments":[],"categories_sizes":[],"default_left":[0,0,0,0,0,0,0,0,0],"id":15,"left_children":[1,-1,3,-1,5,-1,7,-1,-1],"loss_changes":[5.256878E0,0E0,5.4312496E0,0E0,3.7270668E0,0E0,3.244689E0,0E0,0E0],"parents":[2147483647,0,0,2,2,4,4,6,6],"right_children":[2,-1,4,-1,6,-1,8,-1,-1],"split_conditions":[-4.487349E-1,-9.1143884E-2,-3.015335E-1,1.01089954E-1,7.091401E-1,-7.2470024E-2,-5.5987275E-1,7.603308E-2,-3.7051182E-2],"split_indices":[13,0,15,0,0,0,6,0,0],"split_type":[0,0,0,0,0,0,0,0,0],"sum_hessian":[2.2891361E1,4.321024E0,1.8570337E1,4.9197526E0,1.3650585E1,5.1910877E0,8.459497E0,4.730421E0,3.7290761E0],"tree_param":{"num_deleted":"0","num_feature":"20","num_nodes":"9","size_leaf_vector":"1"}},{"base_weights":[-3.071593E-2,-8.904221E-2,1.9647823E-1,9.638041E-2,-1.2054769E-1,2.6993746E-1,-6.7369424E-2,-1.2389468E-2,7.804011E-2],"categories":[],"categories_nodes":[],"categories_segments":[],"categories_sizes":[],"default_left":[0,0,0,0,0,0,0,0,0],"id":16,"left_children":[1,-1,3,-1,5,7,-1,-1,-1],"loss_changes":[4.6966686E0,0E0,4.769894E0,0E0,3.29785E0,1.9402809E0,0E0,0E0,0E0],"parents":[2147483647,0,0,2,2,4,4,5,5],"right_children":[2,-1,4,-1,6,8,-1,-1,-1],"split_conditions":[-4.487349E-1,-8.904221E-2,-3.015335E-1,9.638041E-2,-4.661217E-1,5.469212E-1,-6.7369424E-2,-1.2389468E-2,7.804011E-2],"split_indices":[13,0,15,0,4,1,0,0,0],"split_type":[0,0,0,0,0,0,0,0,0],"sum_hessian":[2.215029E1,4.019861E0,1.8130428E1,4.7042274E0,1.3426201E1,8.170418E0,5.2557826E0,5.039579E0,3.130839E0],"tree_param":{"num_deleted":"0","num_feature":"20","num_nodes":"9","size_leaf_vector":"1"}},{"base_weights":[-2.8818173E-2,-8.6999886E-2,1.8670638E-1,9.203675E-2,-1.1135214E-1,-6.693284E-2,2.451709E-1,6.8028525E-2,-3.464954E-2],"categories":[],"categories_nodes":[],"categories_segments":[],"categories_sizes":[],"default_left":[0,0,0,0,0,0,0,0,0],"id":17,"left_children":[1,-1,3,-1,5,-1,7,-1,-1],"loss_changes":[4.2192883E0,0E0,4.177776E0,0E0,2.977884E0,0E0,2.6459146E0,0E0,0E0],"parents":[2147483647,0,0,2,2,4,4,6,6],"right_children":[2,-1,4,-1,6,-1,8,-1,-1],"split_conditions":[-4.487349E-1,-8.6999886E-2,-3.015335E-1,9.203675E-2,7.091401E-1,-6.693284E-2,-5.5987275E-1,6.8028525E-2,-3.464954E-2],"split_indices":[13,0,15,0,0,0,6,0,0],"split_type":[0,0,0,0,0,0,0,0,0],"sum_hessian":[2.1377075E1,3.7406933E0,1.7636381E1,4.491884E0,1.3144498E1,4.7824106E0,8.362087E0,4.7322145E0,3.6298723E0],"tree_param":{"num_deleted":"0","num_feature":"20","num_nodes":"9","size_leaf_vector":"1"}},{"base_weights":[-2.857395E-2,2.1799895E-1,-7.289751E-2,-2.5150549E-2,6.246599E-2,-4.3773588E-2,3.6488857E-2],"categories":[],"categories_nodes":[],"categories_segments":[],"categories_sizes":[],"default_left":[0,0,0,0,0,0,0],"id":18,"left_children":[1,3,-1,5,-1,-1,-1],"loss_changes":[3.9066064E0,1.6788611E0,0E0,2.0083427E0,0E0,0E0,0E0],"parents":[2147483647,0,0,1,1,3,3],"right_children":[2,4,-1,6,-1,-1,-1],"split_conditions":[4.5267433E-1,4.5255548E-1,-7.289751E-2,-3.9246222E-1,6.246599E-2,-4.3773588E-2,3.6488857E-2],"split_indices":[15,10,0,2,0,0,0],"split_type":[0,0,0,0,0,0,0],"sum_hessian":[2.070059E1,1.581999E1,4.8806014E0,1.0487493E1,5.332497E0,5.03702E0,5.450473E0],"tree_param":{"num_deleted":"0","num_feature":"20","num_nodes":"7","size_leaf_vector":"1"}},{"base_weights":[-2.7493004E-2,-8.450337E-2,1.7430243E-1,8.7382615E-2,-1.0559754E-1,2.334911E-1,-6.193635E-2,-1.0245569E-2,6.659469E-2],"categories":[],"categories_nodes":[],"categories_segments":[],"categories_sizes":[],"default_left":[0,0,0,0,0,0,0,0,0],"id":19,"left_children":[1,-1,3,-1,5,7,-1,-1,-1],"loss_changes":[3.6664534E0,0E0,3.6043665E0,0E0,2.5319264E0,1.3730512E0,0E0,0E0,0E0],"parents":[2147483647,0,0,2,2,4,4,5,5],"right_children":[2,-1,4,-1,6,8,-1,-1,-1],"split_conditions":[-4.487349E-1,-8.450337E-2,-3.015335E-1,8.7382615E-2,-4.661217E-1,5.469212E-1,-6.193635E-2,-1.0245569E-2,6.659469E-2],"split_indices":[13,0,15,0,4,1,0,0,0],"split_type":[0,0,0,0,0,0,0,0,0],"sum_hessian":[2.033136E1,3.3939126E0,1.6937449E1,4.233985E0,1.2703464E1,7.9812922E0,4.722171E0,4.9213214E0,3.0599706E0],"tree_param":{"num_deleted":"0","num_feature":"20","num_nodes":"9","size_leaf_vector":"1"}},{"base_weights":[-2.6034636E-2,-8.255197E-2,1.657277E-1,8.362838E-2,-9.766328E-2,-6.121839E-2,2.1472217E-1,6.053082E-2,-3.2589715E-2],"categories":[],"categories_nodes":[],"categories_segments":[],"categories_sizes":[],"default_left":[0,0,0,0,0,0,0,0,0],"id":20,"left_children":[1,-1,3,-1,5,-1,7,-1,-1],"loss_changes":[3.3029065E0,0E0,3.170573E0,0E0,2.2936168E0,0E0,2.1210594E0,0E0,0E0],"parents":[2147483647,0,0,2,2,4,4,6,6],"right_children":[2,-1,4,-1,6,-1,8,-1,-1],"split_conditions":[-4.487349E-1,-8.255197E-2,-3.015335E-1,8.362838E-2,7.091401E-1,-6.121839E-2,-5.5987275E-1,6.053082E-2,-3.2589715E-2],"split_indices":[13,0,15,0,0,0,6,0,0],"split_type":[0,0,0,0,0,0,0,0,0],"sum_hessian":[1.9651438E1,3.162327E0,1.648911E1,4.0368357E0,1.2452275E1,4.341619E0,8.110656E0,4.6392436E0,3.4714122E0],"tree_param":{"num_deleted":"0","num_feature":"20","num_nodes":"9","size_leaf_vector":"1"}},{"base_weights":[-2.6128031E-2,1.886735E-1,-6.7530125E-2,-2.0193025E-2,3.943132E-1,-5.8956533E-3,9.0409145E-2],"categories":[],"categories_nodes":[],"categories_segments":[],"categories_sizes":[],"default_left":[0,0,0,0,0,0,0],"id":21,"left_children":[1,3,-1,-1,5,-1,-1],"loss_changes":[2.9240463E0,1.3528391E0,0E0,0E0,2.5309942E0,0E0,0E0],"parents":[2147483647,0,0,1,1,4,4],"right_children":[2,4,-1,-1,6,-1,-1],"split_conditions":[4.5267433E-1,-5.1933527E-1,-6.7530125E-2,-2.0193025E-2,-2.8129295E-2,-5.8956533E-3,9.0409145E-2],"split_indices":[15,11,0,0,1,0,0],"split_type":[0,0,0,0,0,0,0],"sum_hessian":[1.9055696E1,1.4851068E1,4.2046285E0,5.128238E0,9.72283E0,5.614786E0,4.108043E0],"tree_param":{"num_deleted":"0","num_feature":"20","num_nodes":"7","size_leaf_vector":"1"}},{"base_weights":[-2.4359686E-2,1.7455415E-1,-6.523334E-2,5.8639166E-3,6.505051E-2,3.6778547E-2,-3.5175078E-2],"categories":[],"categories_nodes":[],"categories_segments":[],"categories_sizes":[],"default_left":[0,0,0,0,0,0,0],"id":22,"left_children":[1,3,-1,5,-1,-1,-1],"loss_changes":[2.5824537E0,1.2645302E0,0E0,1.769565E0,0E0,0E0,0E0],"parents":[2147483647,0,0,1,1,3,3],"right_children":[2,4,-1,6,-1,-1,-1],"split_conditions":[4.5267433E-1,3.7098598E-1,-6.523334E-2,-5.5987275E-1,6.505051E-2,3.6778547E-2,-3.5175078E-2],"split_indices":[15,6,0,6,0,0,0],"split_type":[0,0,0,0,0,0,0],"sum_hessian":[1.8762495E1,1.4797385E1,3.96511E0,1.1672609E1,3.1247764E0,5.7872357E0,5.8853736E0],"tree_param":{"num_deleted":"0","num_feature":"20","num_nodes":"7","size_leaf_vector":"1"}},{"base_weights":[-2.254779E-2,1.6172399E-1,-6.296306E-2,-2.0336943E-2,3.5645512E-1,-9.69104E-3,7.968069E-2],"categories":[],"categories_nodes":[],"categories_segments":[],"categories_sizes":[],"default_left":[0,0,0,0,0,0,0],"id":23,"left_children":[1,3,-1,-1,5,-1,-1],"loss_changes":[2.2831497E0,1.1925383E0,0E0,0E0,2.20089E0,0E0,0E0],"parents":[2147483647,0,0,1,1,4,4],"right_children":[2,4,-1,-1,6,-1,-1],"split_conditions":[4.5267433E-1,-5.1933527E-1,-6.296306E-2,-2.0336943E-2,-3.9246222E-1,-9.69104E-3,7.968069E-2],"split_indices":[15,11,0,0,2,0,0],"split_type":[0,0,0,0,0,0,0],"sum_hessian":[1.8499043E1,1.4754207E1,3.7448347E0,5.1167197E0,9.637487E0,5.13286E0,4.504627E0],"tree_param":{"num_deleted":"0","num_feature":"20","num_nodes":"7","size_leaf_vector":"1"}},{"base_weights":[-2.1541964E-2,1.4898506E-1,-6.0721405E-2,3.3362725E-1,-2.0724487E-2,-4.970885E-2,9.888263E-2,2.9178802E-2,-4.038673E-2],"categories":[],"categories_nodes":[],"categories_segments":[],"categories_sizes":[],"default_left":[0,0,0,0,0,0,0,0,0],"id":24,"left_children":[1,3,-1,5,-1,7,-1,-1,-1],"loss_changes":[2.014915E0,1.1035675E0,0E0,2.7469063E0,0E0,1.0525675E0,0E0,0E0,0E0],"parents":[2147483647,0,0,1,1,3,3,5,5],"right_children":[2,4,-1,6,-1,8,-1,-1,-1],"split_conditions":[4.5267433E-1,1.423561E-1,-6.0721405E-2,-3.9246222E-1,-2.0724487E-2,-2.5190476E-1,9.888263E-2,2.9178802E-2,-4.038673E-2],"split_indices":[15,2,0,2,0,7,0,0,0],"split_type":[0,0,0,0,0,0,0,0,0],"sum_hessian":[1.826898E1,1.4726702E1,3.542278E0,9.741109E0,4.9855924E0,6.728569E0,3.01254E0,3.5151746E0,3.2133944E0],"tree_param":{"num_deleted":"0","num_feature":"20","num_nodes":"9","size_leaf_vector":"1"}},{"base_weights":[-1.9591812E-2,2.4985257E-1,-3.6148807E-1,-1.7284927E-3,5.335207E-2,-8.317429E-2,4.5835427E-3],"categories":[],"categories_nodes":[],"categories_segments":[],"categories_sizes":[],"default_left":[0,0,0,0,0,0,0],"id":25,"left_children":[1,3,5,-1,-1,-1,-1],"loss_changes":[1.8386521E0,8.583283E-1,1.7186167E0,0E0,0E0,0E0,0E0],"parents":[2147483647,0,0,1,1,2,2],"right_children":[2,4,6,-1,-1,-1,-1],"split_conditions":[2.3718639E-1,-3.9246222E-1,8.8883173E-1,-1.7284927E-3,5.335207E-2,-8.317429E-2,4.5835427E-3],"split_indices":[15,2,0,0,0,0,0],"split_type":[0,0,0,0,0,0,0],"sum_hessian":[1.7978449E1,1.0205126E1,7.7733235E0,5.7393246E0,4.4658017E0,3.124323E0,4.6490006E0],"tree_param":{"num_deleted":"0","num_feature":"20","num_nodes":"7","size_leaf_vector":"1"}},{"base_weights":[-1.9725977E-2,1.5093327E-1,-5.4024752E-2,4.5704308E-1,-3.1466182E-2,4.656559E-3,9.923276E-2],"categories":[],"categories_nodes":[],"categories_segments":[],"categories_sizes":[],"default_left":[0,0,0,0,0,0,0],"id":26,"left_children":[1,3,-1,5,-1,-1,-1],"loss_changes":[1.7488244E0,2.2697434E0,0E0,2.0207822E0,0E0,0E0,0E0],"parents":[2147483647,0,0,1,1,3,3],"right_children":[2,4,-1,6,-1,-1,-1],"split_conditions":[6.510691E-1,1.423561E-1,-5.4024752E-2,-3.9246222E-1,-3.1466182E-2,4.656559E-3,9.923276E-2],"split_indices":[11,2,0,2,0,0,0],"split_type":[0,0,0,0,0,0,0],"sum_hessian":[1.7768988E1,1.3916372E1,3.852615E0,8.4072895E0,5.509083E0,5.373595E0,3.033694E0],"tree_param":{"num_deleted":"0","num_feature":"20","num_nodes":"7","size_leaf_vector":"1"}},{"base_weights":[-1.7128808E-2,4.2350736E-2,-2.1105634E-1,-5.9968054E-2,1.1665145E-1,4.6731982E-2,-2.9832138E-2],"categories":[],"categories_nodes":[],"categories_segments":[],"categories_sizes":[],"default_left":[0,0,0,0,0,0,0],"id":27,"left_children":[1,-1,3,-1,5,-1,-1],"loss_changes":[1.6787544E0,0E0,1.7998033E0,0E0,1.3335501E0,0E0,0E0],"parents":[2147483647,0,0,2,2,4,4],"right_children":[2,-1,4,-1,6,-1,-1],"split_conditions":[-2.2970417E-1,4.2350736E-2,8.8883173E-1,-5.9968054E-2,-5.5987275E-1,4.6731982E-2,-2.9832138E-2],"split_indices":[15,0,0,0,6,0,0],"split_type":[0,0,0,0,0,0,0],"sum_hessian":[1.7599684E1,5.016807E0,1.2582877E1,5.3767447E0,7.206132E0,3.8373094E0,3.3688228E0],"tree_param":{"num_deleted":"0","num_feature":"20","num_nodes":"7","size_leaf_vector":"1"}},{"base_weights":[-1.602312E-2,1.4440687E-1,-5.13972E-2,4.2763057E-1,-2.9138912E-2,-6.760067E-3,8.019204E-2],"categories":[],"categories_nodes":[],"categories_segments":[],"categories_sizes":[],"default_left":[0,0,0,0,0,0,0],"id":28,"left_children":[1,3,-1,5,-1,-1,-1],"loss_changes":[1.536738E0,1.9300027E0,0E0,1.7726334E0,0E0,0E0,0E0],"parents":[2147483647,0,0,1,1,3,3],"right_children":[2,4,-1,6,-1,-1,-1],"split_conditions":[6.510691E-1,1.423561E-1,-5.13972E-2,-5.545706E-1,-2.9138912E-2,-6.760067E-3,8.019204E-2],"split_indices":[11,2,0,2,0,0,0],"split_type":[0,0,0,0,0,0,0],"sum_hessian":[1.7307566E1,1.3627146E1,3.6804197E0,8.270735E0,5.356411E0,3.9128907E0,4.357844E0],"tree_param":{"num_deleted":"0","num_feature":"20","num_nodes":"7","size_leaf_vector":"1"}},{"base_weights":[-1.5123397E-2,3.995285E-2,-1.99315E-1,-5.6828428E-2,1.0309218E-1,4.2597502E-2,-2.8170679E-2],"categories":[],"categories_nodes":[],"categories_segments":[],"categories_sizes":[],"default_left":[0,0,0,0,0,0,0],"id":29,"left_children":[1,-1,3,-1,5,-1,-1],"loss_changes":[1.4669737E0,0E0,1.536431E0,0E0,1.1295439E0,0E0,0E0],"parents":[2147483647,0,0,2,2,4,4],"right_children":[2,-1,4,-1,6,-1,-1],"split_conditions":[-2.2970417E-1,3.995285E-2,8.8883173E-1,-5.6828428E-2,-5.5987275E-1,4.2597502E-2,-2.8170679E-2],"split_indices":[15,0,0,0,6,0,0],"split_type":[0,0,0,0,0,0,0],"sum_hessian":[1.716477E1,4.919933E0,1.2244838E1,5.1194077E0,7.12543E0,3.816238E0,3.3091924E0],"tree_param":{"num_deleted":"0","num_feature":"20","num_nodes":"7","size_leaf_vector":"1"}},{"base_weights":[-1.4234945E-2,1.3639975E-1,-4.891113E-2,3.9769194E-1,-2.7009755E-2,-6.26229E-3,7.444032E-2],"categories":[],"categories_nodes":[],"categories_segments":[],"categories_sizes":[],"default_left":[0,0,0,0,0,0,0],"id":30,"left_children":[1,3,-1,5,-1,-1,-1],"loss_changes":[1.3468121E0,1.6334717E0,0E0,1.5069817E0,0E0,0E0,0E0],"parents":[2147483647,0,0,1,1,3,3],"right_children":[2,4,-1,6,-1,-1,-1],"split_conditions":[6.510691E-1,1.423561E-1,-4.891113E-2,-5.545706E-1,-2.7009755E-2,-6.26229E-3,7.444032E-2],"split_indices":[11,2,0,2,0,0,0],"split_type":[0,0,0,0,0,0,0],"sum_hessian":[1.6895239E1,1.3367672E1,3.5275679E0,8.150365E0,5.217307E0,3.8535457E0,4.2968187E0],"tree_param":{"num_deleted":"0","num_feature":"20","num_nodes":"7","size_leaf_vector":"1"}},{"base_weights":[-1.35115E-2,3.9846163E-2,-1.8109564E-1,6.5747805E-2,-5.5794474E-2,3.4604874E-2,-2.3501312E-2],"categories":[],"categories_nodes":[],"categories_segments":[],"categories_sizes":[],"default_left":[0,0,0,0,0,0,0],"id":31,"left_children":[1,-1,3,5,-1,-1,-1],"loss_changes":[1.298805E0,0E0,1.2754794E0,8.350921E-1,0E0,0E0,0E0],"parents":[2147483647,0,0,2,2,3,3],"right_children":[2,-1,4,6,-1,-1,-1],"split_conditions":[-3.015335E-1,3.9846163E-2,-4.661217E-1,-5.5987275E-1,-5.5794474E-2,3.4604874E-2,-2.3501312E-2],"split_indices":[15,0,4,6,0,0,0],"split_type":[0,0,0,0,0,0,0],"sum_hessian":[1.6767128E1,4.449996E0,1.2317132E1,7.9410944E0,4.376038E0,4.032416E0,3.9086783E0],"tree_param":{"num_deleted":"0","num_feature":"20","num_nodes":"7","size_leaf_vector":"1"}},{"base_weights":[-1.288903E-2,-1.5846775E-1,4.3247167E-2,2.4500025E-2,-4.380035E-1,-2.6834975E-3,-8.247396E-2],"categories":[],"categories_nodes":[],"categories_segments":[],"categories_sizes":[],"default_left":[0,0,0,0,0,0,0],"id":32,"left_children":[1,3,-1,-1,5,-1,-1],"loss_changes":[1.2025362E0,1.6765388E0,0E0,0E0,1.3418612E0,0E0,0E0],"parents":[2147483647,0,0,1,1,4,4],"right_children":[2,4,-1,-1,6,-1,-1],"split_conditions":[3.120316E-1,-4.2584875E-1,4.3247167E-2,2.4500025E-2,-4.661217E-1,-2.6834975E-3,-8.247396E-2],"split_indices":[6,12,0,0,4,0,0],"split_type":[0,0,0,0,0,0,0],"sum_hessian":[1.6490595E1,1.2913601E1,3.576994E0,5.3357663E0,7.577834E0,4.1912193E0,3.3866148E0],"tree_param":{"num_deleted":"0","num_feature":"20","num_nodes":"7","size_leaf_vector":"1"}},{"base_weights":[-1.3214272E-2,1.2716977E-1,-4.641316E-2,3.669236E-1,-2.4975171E-2,-6.0343184E-3,6.894312E-2],"categories":[],"categories_nodes":[],"categories_segments":[],"categories_sizes":[],"default_left":[0,0,0,0,0,0,0],"id":33,"left_children":[1,3,-1,5,-1,-1,-1],"loss_changes":[1.1548017E0,1.355496E0,0E0,1.2753268E0,0E0,0E0,0E0],"parents":[2147483647,0,0,1,1,3,3],"right_children":[2,4,-1,6,-1,-1,-1],"split_conditions":[6.510691E-1,1.423561E-1,-4.641316E-2,-5.545706E-1,-2.4975171E-2,-6.0343184E-3,6.894312E-2],"split_indices":[11,2,0,2,0,0,0],"split_type":[0,0,0,0,0,0,0],"sum_hessian":[1.6310436E1,1.2985605E1,3.3248317E0,7.9532156E0,5.0323896E0,3.7706501E0,4.182565E0],"tree_param":{"num_deleted":"0","num_feature":"20","num_nodes":"7","size_leaf_vector":"1"}},{"base_weights":[-1.2606745E-2,3.6181107E-2,-1.6769473E-1,1.9552898E-2,-3.9349374E-1,-6.887881E-2,-1.4444726E-3],"categories":[],"categories_nodes":[],"categories_segments":[],"categories_sizes":[],"default_left":[0,0,0,0,0,0,0],"id":34,"left_children":[1,-1,3,-1,5,-1,-1],"loss_changes":[1.0592808E0,0E0,1.1303174E0,0E0,9.137106E-1,0E0,0E0],"parents":[2147483647,0,0,2,2,4,4],"right_children":[2,-1,4,-1,6,-1,-1],"split_conditions":[-3.015335E-1,3.6181107E-2,-6.1764544E-1,1.9552898E-2,3.593192E-2,-6.887881E-2,-1.4444726E-3],"split_indices":[15,0,3,0,1,0,0],"split_type":[0,0,0,0,0,0,0],"sum_hessian":[1.6197283E1,4.3536463E0,1.1843637E1,4.5915914E0,7.2520456E0,3.6170623E0,3.6349835E0],"tree_param":{"num_deleted":"0","num_feature":"20","num_nodes":"7","size_leaf_vector":"1"}},{"base_weights":[-1.2685654E-2,1.18023515E-1,-4.4003334E-2,2.8413534E-1,-3.4083795E-2,-8.1416004E-4,5.4973103E-2],"categories":[],"categories_nodes":[],"categories_segments":[],"categories_sizes":[],"default_left":[0,0,0,0,0,0,0],"id":35,"left_children":[1,3,-1,5,-1,-1,-1],"loss_changes":[1.0009663E0,1.1486421E0,0E0,8.332877E-1,0E0,0E0,0E0],"parents":[2147483647,0,0,1,1,3,3],"right_children":[2,4,-1,6,-1,-1,-1],"split_conditions":[6.510691E-1,7.371953E-1,-4.4003334E-2,-3.9246222E-1,-3.4083795E-2,-8.1416004E-4,5.4973103E-2],"split_indices":[11,2,0,2,0,0,0],"split_type":[0,0,0,0,0,0,0],"sum_hessian":[1.5990006E1,1.2799084E1,3.1909225E0,9.676785E0,3.122298E0,5.068481E0,4.6083045E0],"tree_param":{"num_deleted":"0","num_feature":"20","num_nodes":"7","size_leaf_vector":"1"}},{"base_weights":[-1.3046353E-2,2.9067418E-2,-1.9578627E-1,1.79998E-1,-7.4098416E-2,4.4398338E-2,-1.0289319E-2],"categories":[],"categories_nodes":[],"categories_segments":[],"categories_sizes":[],"default_left":[0,0,0,0,0,0,0],"id":36,"left_children":[1,-1,3,5,-1,-1,-1],"loss_changes":[9.9454623E-1,0E0,2.4167526E0,5.9847176E-1,0E0,0E0,0E0],"parents":[2147483647,0,0,2,2,3,3],"right_children":[2,-1,4,6,-1,-1,-1],"split_conditions":[-4.2584875E-1,2.9067418E-2,-2.5190476E-1,-3.6900958E-1,-7.4098416E-2,4.4398338E-2,-1.0289319E-2],"split_indices":[12,0,7,0,0,0,0],"split_type":[0,0,0,0,0,0,0],"sum_hessian":[1.5893779E1,5.7486553E0,1.01451235E1,6.4021864E0,3.7429366E0,3.0171888E0,3.3849976E0],"tree_param":{"num_deleted":"0","num_feature":"20","num_nodes":"7","size_leaf_vector":"1"}},{"base_weights":[-1.2801269E-2,1.7539605E-1,-2.790103E-1,-6.2488415E-3,4.3883797E-2,-5.042527E-2,1.8874335E-3],"categories":[],"categories_nodes":[],"categories_segments":[],"categories_sizes":[],"default_left":[0,0,0,0,0,0,0],"id":37,"left_children":[1,3,5,-1,-1,-1,-1],"loss_changes":[8.8708717E-1,6.801088E-1,5.0030863E-1,0E0,0E0,0E0,0E0],"parents":[2147483647,0,0,1,1,2,2],"right_children":[2,4,6,-1,-1,-1,-1],"split_conditions":[2.3718639E-1,-3.9246222E-1,5.413261E-2,-6.2488415E-3,4.3883797E-2,-5.042527E-2,1.8874335E-3],"split_indices":[15,2,1,0,0,0,0],"split_type":[0,0,0,0,0,0,0],"sum_hessian":[1.5729598E1,9.414864E0,6.314734E0,5.348259E0,4.0666046E0,3.2013147E0,3.1134193E0],"tree_param":{"num_deleted":"0","num_feature":"20","num_nodes":"7","size_leaf_vector":"1"}},{"base_weights":[-1.2435778E-2,-1.39489E-1,3.6417652E-2,-6.244315E-2,8.372844E-2,3.182805E-2,-2.8593002E-2],"categories":[],"categories_nodes":[],"categories_segments":[],"categories_sizes":[],"default_left":[0,0,0,0,0,0,0],"id":38,"left_children":[1,3,-1,-1,5,-1,-1],"loss_changes":[8.4528697E-1,1.4744856E0,0E0,0E0,9.4754374E-1,0E0,0E0],"parents":[2147483647,0,0,1,1,4,4],"right_children":[2,4,-1,-1,6,-1,-1],"split_conditions":[3.120316E-1,-3.151021E-1,3.6417652E-2,-6.244315E-2,-5.5987275E-1,3.182805E-2,-2.8593002E-2],"split_indices":[6,0,0,0,6,0,0],"split_type":[0,0,0,0,0,0,0],"sum_hessian":[1.5603795E1,1.2138421E1,3.4653735E0,3.259565E0,8.878857E0,5.517154E0,3.3617022E0],"tree_param":{"num_deleted":"0","num_feature":"20","num_nodes":"7","size_leaf_vector":"1"}},{"base_weights":[-1.28607955E-2,1.0755665E-1,-4.1512407E-2,-2.761066E-2,3.3503887E-1,-8.982016E-3,6.738077E-2],"categories":[],"categories_nodes":[],"categories_segments":[],"categories_sizes":[],"default_left":[0,0,0,0,0,0,0],"id":39,"left_children":[1,3,-1,-1,5,-1,-1],"loss_changes":[8.4302586E-1,1.2689049E0,0E0,0E0,1.3434436E0,0E0,0E0],"parents":[2147483647,0,0,1,1,4,4],"right_children":[2,4,-1,-1,6,-1,-1],"split_conditions":[6.510691E-1,-5.1933527E-1,-4.1512407E-2,-2.761066E-2,8.8883173E-1,-8.982016E-3,6.738077E-2],"split_indices":[11,11,0,0,0,0,0],"split_type":[0,0,0,0,0,0,0],"sum_hessian":[1.5481927E1,1.2478971E1,3.0029566E0,4.5653934E0,7.9135766E0,3.8367138E0,4.076863E0],"tree_param":{"num_deleted":"0","num_feature":"20","num_nodes":"7","size_leaf_vector":"1"}},{"base_weights":[-1.2390559E-2,3.2801863E-2,-1.5815994E-1,1.7689845E-2,-3.7727386E-1,-6.7925714E-2,1.2717237E-3],"categories":[],"categories_nodes":[],"categories_segments":[],"categories_sizes":[],"default_left":[0,0,0,0,0,0,0],"id":40,"left_children":[1,-1,3,-1,5,-1,-1],"loss_changes":[8.661546E-1,0E0,9.598E-1,0E0,9.1240394E-1,0E0,0E0],"parents":[2147483647,0,0,2,2,4,4],"right_children":[2,-1,4,-1,6,-1,-1],"split_conditions":[-3.015335E-1,3.2801863E-2,-6.1764544E-1,1.7689845E-2,-1.7424558E-1,-6.7925714E-2,1.2717237E-3],"split_indices":[15,0,3,0,3,0,0],"split_type":[0,0,0,0,0,0,0],"sum_hessian":[1.5409813E1,4.245415E0,1.1164398E1,4.4904633E0,6.673935E0,3.343345E0,3.33059E0],"tree_param":{"num_deleted":"0","num_feature":"20","num_nodes":"7","size_leaf_vector":"1"}},{"base_weights":[-1.2373389E-2,2.6178334E-2,-1.820533E-1,1.7446285E-1,-7.157832E-2,-6.050069E-3,3.7001908E-2],"categories":[],"categories_nodes":[],"categories_segments":[],"categories_sizes":[],"default_left":[0,0,0,0,0,0,0],"id":41,"left_children":[1,-1,3,5,-1,-1,-1],"loss_changes":[8.060451E-1,0E0,2.153297E0,3.5298747E-1,0E0,0E0,0E0],"parents":[2147483647,0,0,2,2,3,3],"right_children":[2,-1,4,6,-1,-1,-1],"split_conditions":[-4.2584875E-1,2.6178334E-2,-2.5190476E-1,-6.778151E-1,-7.157832E-2,-6.050069E-3,3.7001908E-2],"split_indices":[12,0,7,7,0,0,0],"split_type":[0,0,0,0,0,0,0],"sum_hessian":[1.5302768E1,5.642772E0,9.659995E0,6.195024E0,3.4649718E0,3.1276867E0,3.067337E0],"tree_param":{"num_deleted":"0","num_feature":"20","num_nodes":"7","size_leaf_vector":"1"}},{"base_weights":[-1.2383695E-2,2.3928845E-2,-1.703383E-1,1.6184402E-1,-6.79757E-2,-5.6011444E-3,3.4345835E-2],"categories":[],"categories_nodes":[],"categories_segments":[],"categories_sizes":[],"default_left":[0,0,0,0,0,0,0],"id":42,"left_children":[1,-1,3,5,-1,-1,-1],"loss_changes":[6.8340343E-1,0E0,1.8896079E0,3.0305308E-1,0E0,0E0,0E0],"parents":[2147483647,0,0,2,2,3,3],"right_children":[2,-1,4,6,-1,-1,-1],"split_conditions":[-4.2584875E-1,2.3928845E-2,-2.5190476E-1,-6.778151E-1,-6.79757E-2,-5.6011444E-3,3.4345835E-2],"split_indices":[12,0,7,7,0,0,0],"split_type":[0,0,0,0,0,0,0],"sum_hessian":[1.5166002E1,5.6495485E0,9.516454E0,6.1732745E0,3.3431795E0,3.1210322E0,3.0522425E0],"tree_param":{"num_deleted":"0","num_feature":"20","num_nodes":"7","size_leaf_vector":"1"}},{"base_weights":[-1.2420494E-2,1.01550475E-1,-3.7213862E-2,-1.6869298E-1,4.1994296E-2,8.602565E-3,-4.008731E-2],"categories":[],"categories_nodes":[],"categories_segments":[],"categories_sizes":[],"default_left":[0,0,0,0,0,0,0],"id":43,"left_children":[1,3,-1,5,-1,-1,-1],"loss_changes":[6.953586E-1,1.1864618E0,0E0,4.9144047E-1,0E0,0E0,0E0],"parents":[2147483647,0,0,1,1,3,3],"right_children":[2,4,-1,6,-1,-1,-1],"split_conditions":[7.371953E-1,-3.9246222E-1,-3.7213862E-2,-2.5190476E-1,4.1994296E-2,8.602565E-3,-4.008731E-2],"split_indices":[2,2,0,7,0,0,0],"split_type":[0,0,0,0,0,0,0],"sum_hessian":[1.5039246E1,1.1965775E1,3.0734708E0,6.726589E0,5.2391853E0,3.5077822E0,3.218807E0],"tree_param":{"num_deleted":"0","num_feature":"20","num_nodes":"7","size_leaf_vector":"1"}},{"base_weights":[-1.3022623E-2,1.5276583E-1,-2.5499905E-2,-1.1506746E-2,3.4853753E-2],"categories":[],"categories_nodes":[],"categories_segments":[],"categories_sizes":[],"default_left":[0,0,0,0,0],"id":44,"left_children":[1,3,-1,-1,-1],"loss_changes":[6.797077E-1,5.698774E-1,0E0,0E0,0E0],"parents":[2147483647,0,0,1,1],"right_children":[2,4,-1,-1,-1],"split_conditions":[2.3718639E-1,-1.22382246E-1,-2.5499905E-2,-1.1506746E-2,3.4853753E-2],"split_indices":[15,13,0,0,0],"split_type":[0,0,0,0,0],"sum_hessian":[1.49721365E1,9.103566E0,5.8685703E0,4.018345E0,5.0852213E0],"tree_param":{"num_deleted":"0","num_feature":"20","num_nodes":"5","size_leaf_vector":"1"}},{"base_weights":[-1.1959632E-2,2.3364475E-2,-1.678179E-1,1.3596568E-1,-6.435206E-2,-6.3990727E-3,3.0642016E-2],"categories":[],"categories_nodes":[],"categories_segments":[],"categories_sizes":[],"default_left":[0,0,0,0,0,0,0],"id":45,"left_children":[1,-1,3,5,-1,-1,-1],"loss_changes":[6.461315E-1,0E0,1.5733072E0,2.6160878E-1,0E0,0E0,0E0],"parents":[2147483647,0,0,2,2,3,3],"right_children":[2,-1,4,6,-1,-1,-1],"split_conditions":[-4.2584875E-1,2.3364475E-2,-2.5190476E-1,-3.6265668E-1,-6.435206E-2,-6.3990727E-3,3.0642016E-2],"split_indices":[12,0,7,1,0,0,0],"split_type":[0,0,0,0,0,0,0],"sum_hessian":[1.4855018E1,5.5733476E0,9.28167E0,6.1002383E0,3.1814315E0,3.0946088E0,3.0056298E0],"tree_param":{"num_deleted":"0","num_feature":"20","num_nodes":"7","size_leaf_vector":"1"}},{"base_weights":[-1.2113471E-2,9.501757E-2,-3.4970272E-2,-1.605807E-1,3.919526E-2,7.031958E-3,-3.720726E-2],"categories":[],"categories_nodes":[],"categories_segments":[],"categories_sizes":[],"default_left":[0,0,0,0,0,0,0],"id":46,"left_children":[1,3,-1,5,-1,-1,-1],"loss_changes":[6.029216E-1,1.030145E0,0E0,3.9524692E-1,0E0,0E0,0E0],"parents":[2147483647,0,0,1,1,3,3],"right_children":[2,4,-1,6,-1,-1,-1],"split_conditions":[7.371953E-1,-3.9246222E-1,-3.4970272E-2,-2.5190476E-1,3.919526E-2,7.031958E-3,-3.720726E-2],"split_indices":[2,2,0,7,0,0,0],"split_type":[0,0,0,0,0,0,0],"sum_hessian":[1.4752065E1,1.1743809E1,3.0082557E0,6.55798E0,5.1858287E0,3.4542477E0,3.1037326E0],"tree_param":{"num_deleted":"0","num_feature":"20","num_nodes":"7","size_leaf_vector":"1"}},{"base_weights":[-1.2704414E-2,1.4904103E-1,-2.4897533E-2,-7.864589E-3,3.6539014E-2],"categories":[],"categories_nodes":[],"categories_segments":[],"categories_sizes":[],"default_left":[0,0,0,0,0],"id":47,"left_children":[1,3,-1,-1,-1],"loss_changes":[6.3685465E-1,5.1846135E-1,0E0,0E0,0E0],"parents":[2147483647,0,0,1,1],"right_children":[2,4,-1,-1,-1],"split_conditions":[2.3718639E-1,-6.820659E-1,-2.4897533E-2,-7.864589E-3,3.6539014E-2],"split_indices":[15,19,0,0,0],"split_type":[0,0,0,0,0],"sum_hessian":[1.4693719E1,8.941663E0,5.752056E0,4.6667924E0,4.2748704E0],"tree_param":{"num_deleted":"0","num_feature":"20","num_nodes":"5","size_leaf_vector":"1"}},{"base_weights":[-1.1286198E-2,2.2260984E-2,-1.6174616E-1,1.1658564E-1,-6.0997386E-2,-4.908007E-3,2.528486E-2],"categories":[],"categories_nodes":[],"categories_segments":[],"categories_sizes":[],"default_left":[0,0,0,0,0,0,0],"id":48,"left_children":[1,-1,3,5,-1,-1,-1],"loss_changes":[5.8545876E-1,0E0,1.3286939E0,1.7174378E-1,0E0,0E0,0E0],"parents":[2147483647,0,0,2,2,3,3],"right_children":[2,-1,4,6,-1,-1,-1],"split_conditions":[-4.2584875E-1,2.2260984E-2,-2.5190476E-1,-2.5550926E-1,-6.0997386E-2,-4.908007E-3,2.528486E-2],"split_indices":[12,0,7,12,0,0,0],"split_type":[0,0,0,0,0,0,0],"sum_hessian":[1.4613E1,5.532687E0,9.080313E0,6.0582647E0,3.022048E0,3.0228994E0,3.0353653E0],"tree_param":{"num_deleted":"0","num_feature":"20","num_nodes":"7","size_leaf_vector":"1"}},{"base_weights":[-1.1592338E-2,1.03335746E-1,-3.282205E-2,-2.7715106E-2,3.250827E-1,5.5311263E-2,-3.8628418E-3],"categories":[],"categories_nodes":[],"categories_segments":[],"categories_sizes":[],"default_left":[0,0,0,0,0,0,0],"id":49,"left_children":[1,3,-1,-1,5,-1,-1],"loss_changes":[5.984076E-1,1.1145296E0,0E0,0E0,6.957564E-1,0E0,0E0],"parents":[2147483647,0,0,1,1,4,4],"right_children":[2,4,-1,-1,6,-1,-1],"split_conditions":[-2.7999422E-2,-5.724745E-1,-3.282205E-2,-2.7715106E-2,1.423561E-1,5.5311263E-2,-3.8628418E-3],"split_indices":[19,2,0,0,2,0,0],"split_type":[0,0,0,0,0,0,0],"sum_hessian":[1.4512476E1,1.1141887E1,3.370589E0,4.010528E0,7.131359E0,4.0631847E0,3.0681744E0],"tree_param":{"num_deleted":"0","num_feature":"20","num_nodes":"7","size_leaf_vector":"1"}},{"base_weights":[-1.1144449E-2,-3.140628E-2,1.0700343E-1,-1.5299536E-1,5.707547E-2,-3.881634E-2,1.509089E-2],"categories":[],"categories_nodes":[],"categories_segments":[],"categories_sizes":[],"default_left":[0,0,0,0,0,0,0],"id":50,"left_children":[1,-1,3,5,-1,-1,-1],"loss_changes":[5.8644915E-1,0E0,1.5171869E0,6.5800047E-1,0E0,0E0,0E0],"parents":[2147483647,0,0,2,2,3,3],"right_children":[2,-1,4,6,-1,-1,-1],"split_conditions":[-6.257357E-1,-3.140628E-2,-1.3617498E-3,-1.10260725E-1,5.707547E-2,-3.881634E-2,1.509089E-2],"split_indices":[11,0,2,1,0,0,0],"split_type":[0,0,0,0,0,0,0],"sum_hessian":[1.444723E1,3.5884967E0,1.0858734E1,7.3872294E0,3.4715047E0,4.008278E0,3.3789515E0],"tree_param":{"num_deleted":"0","num_feature":"20","num_nodes":"7","size_leaf_vector":"1"}},{"base_weights":[-1.00501105E-2,1.4606293E-1,-2.4125548E-2,-1.0432834E-2,3.3227485E-2],"categories":[],"categories_nodes":[],"categories_segments":[],"categories_sizes":[],"default_left":[0,0,0,0,0],"id":51,"left_children":[1,3,-1,-1,-1],"loss_changes":[5.923734E-1,4.933235E-1,0E0,0E0,0E0],"parents":[2147483647,0,0,1,1],"right_children":[2,4,-1,-1,-1],"split_conditions":[2.3718639E-1,-1.22382246E-1,-2.4125548E-2,-1.0432834E-2,3.3227485E-2],"split_indices":[15,13,0,0,0],"split_type":[0,0,0,0,0],"sum_hessian":[1.4435592E1,8.83699E0,5.598602E0,3.9565365E0,4.8804536E0],"tree_param":{"num_deleted":"0","num_feature":"20","num_nodes":"5","size_leaf_vector":"1"}},{"base_weights":[-9.207089E-3,1.3082716E-1,-2.512838E-2,-3.4248974E-2,3.8591713E-1,-3.7988033E-3,7.207181E-2],"categories":[],"categories_nodes":[],"categories_segments":[],"categories_sizes":[],"default_left":[0,0,0,0,0,0,0],"id":52,"left_children":[1,3,-1,-1,5,-1,-1],"loss_changes":[5.525742E-1,1.3842375E0,0E0,0E0,1.0504556E0,0E0,0E0],"parents":[2147483647,0,0,1,1,4,4],"right_children":[2,4,-1,-1,6,-1,-1],"split_conditions":[1.423561E-1,-3.847715E-1,-2.512838E-2,-3.4248974E-2,-4.9017024E-1,-3.7988033E-3,7.207181E-2],"split_indices":[2,1,0,0,2,0,0],"split_type":[0,0,0,0,0,0,0],"sum_hessian":[1.4330807E1,9.370064E0,4.960743E0,3.161433E0,6.2086306E0,3.1309469E0,3.077684E0],"tree_param":{"num_deleted":"0","num_feature":"20","num_nodes":"7","size_leaf_vector":"1"}},{"base_weights":[-7.776676E-3,2.1755477E-2,-1.5483205E-1,2.1166142E-2,-3.8753875E-2],"categories":[],"categories_nodes":[],"categories_segments":[],"categories_sizes":[],"default_left":[0,0,0,0,0],"id":53,"left_children":[1,-1,3,-1,-1],"loss_changes":[5.39407E-1,0E0,9.1946393E-1,0E0,0E0],"parents":[2147483647,0,0,2,2],"right_children":[2,-1,4,-1,-1],"split_conditions":[-4.2584875E-1,2.1755477E-2,-3.065345E-1,2.1166142E-2,-3.8753875E-2],"split_indices":[12,0,11,0,0],"split_type":[0,0,0,0,0],"sum_hessian":[1.4261935E1,5.4427137E0,8.8192215E0,3.4601743E0,5.359047E0],"tree_param":{"num_deleted":"0","num_feature":"20","num_nodes":"5","size_leaf_vector":"1"}},{"base_weights":[-6.858466E-3,-2.8719304E-2,1.24887325E-1,5.7375915E-2,-1.5951248E-1,3.1233705E-3,-2.987707E-2],"categories":[],"categories_nodes":[],"categories_segments":[],"categories_sizes":[],"default_left":[0,0,0,0,0,0,0],"id":54,"left_children":[1,-1,3,-1,5,-1,-1],"loss_changes":[5.9712505E-1,0E0,1.500254E0,0E0,2.0955291E-1,0E0,0E0],"parents":[2147483647,0,0,2,2,4,4],"right_children":[2,-1,4,-1,6,-1,-1],"split_conditions":[-5.1933527E-1,-2.8719304E-2,-5.5987275E-1,5.7375915E-2,-3.680621E-1,3.1233705E-3,-2.987707E-2],"split_indices":[11,0,6,0,7,0,0],"split_type":[0,0,0,0,0,0,0],"sum_hessian":[1.4196702E1,4.1615877E0,1.0035114E1,3.4975104E0,6.537604E0,3.0861394E0,3.4514644E0],"tree_param":{"num_deleted":"0","num_feature":"20","num_nodes":"7","size_leaf_vector":"1"}},{"base_weights":[-6.1208415E-3,2.066561E-1,-1.7266329E-1,-6.627154E-4,3.682566E-2,-4.8427608E-2,1.0385663E-2],"categories":[],"categories_nodes":[],"categories_segments":[],"categories_sizes":[],"default_left":[0,0,0,0,0,0,0],"id":55,"left_children":[1,3,5,-1,-1,-1,-1],"loss_changes":[5.730585E-1,2.476114E-1,8.3021706E-1,0E0,0E0,0E0,0E0],"parents":[2147483647,0,0,1,1,2,2],"right_children":[2,4,6,-1,-1,-1,-1],"split_conditions":[-6.1764544E-1,-5.724745E-1,-2.519948E-1,-6.627154E-4,3.682566E-2,-4.8427608E-2,1.0385663E-2],"split_indices":[3,2,19,0,0,0,0],"split_type":[0,0,0,0,0,0,0],"sum_hessian":[1.416454E1,6.113274E0,8.051266E0,3.0486288E0,3.0646453E0,3.432183E0,4.619083E0],"tree_param":{"num_deleted":"0","num_feature":"20","num_nodes":"7","size_leaf_vector":"1"}},{"base_weights":[-5.716946E-3,-2.9743448E-2,1.08315796E-1,-1.3704926E-1,5.35203E-2,-3.3621103E-2,1.1944141E-2],"categories":[],"categories_nodes":[],"categories_segments":[],"categories_sizes":[],"default_left":[0,0,0,0,0,0,0],"id":56,"left_children":[1,-1,3,5,-1,-1,-1],"loss_changes":[5.3570247E-1,0E0,1.2899199E0,4.57591E-1,0E0,0E0,0E0],"parents":[2147483647,0,0,2,2,3,3],"right_children":[2,-1,4,6,-1,-1,-1],"split_conditions":[-6.257357E-1,-2.9743448E-2,-1.3617498E-3,-1.10260725E-1,5.35203E-2,-3.3621103E-2,1.1944141E-2],"split_indices":[11,0,2,1,0,0,0],"split_type":[0,0,0,0,0,0,0],"sum_hessian":[1.4135435E1,3.5206401E0,1.0614795E1,7.17165E0,3.4431448E0,3.8620248E0,3.3096251E0],"tree_param":{"num_deleted":"0","num_feature":"20","num_nodes":"7","size_leaf_vector":"1"}},{"base_weights":[-5.1183035E-3,1.4128917E-1,-2.5747314E-2,-2.8777525E-2,3.6978394E-1,-5.983514E-4,6.60613E-2],"categories":[],"categories_nodes":[],"categories_segments":[],"categories_sizes":[],"default_left":[0,0,0,0,0,0,0],"id":57,"left_children":[1,3,-1,-1,5,-1,-1],"loss_changes":[5.9544927E-1,1.1085498E0,0E0,0E0,7.806871E-1,0E0,0E0],"parents":[2147483647,0,0,1,1,4,4],"right_children":[2,4,-1,-1,6,-1,-1],"split_conditions":[1.423561E-1,-3.847715E-1,-2.5747314E-2,-2.8777525E-2,-4.9017024E-1,-5.983514E-4,6.60613E-2],"split_indices":[2,1,0,0,2,0,0],"split_type":[0,0,0,0,0,0,0],"sum_hessian":[1.4131854E1,9.221803E0,4.9100513E0,3.1143253E0,6.1074777E0,3.0919416E0,3.015536E0],"tree_param":{"num_deleted":"0","num_feature":"20","num_nodes":"7","size_leaf_vector":"1"}},{"base_weights":[-3.927101E-3,1.531424E-1,-2.380987E-2,-7.943208E-3,3.1614996E-2],"categories":[],"categories_nodes":[],"categories_segments":[],"categories_sizes":[],"default_left":[0,0,0,0,0],"id":58,"left_children":[1,3,-1,-1,-1],"loss_changes":[5.907491E-1,3.9013812E-1,0E0,0E0,0E0],"parents":[2147483647,0,0,1,1],"right_children":[2,4,-1,-1,-1],"split_conditions":[2.3718639E-1,-1.22382246E-1,-2.380987E-2,-7.943208E-3,3.1614996E-2],"split_indices":[15,13,0,0,0],"split_type":[0,0,0,0,0],"sum_hessian":[1.4069816E1,8.628389E0,5.4414263E0,3.7667744E0,4.861615E0],"tree_param":{"num_deleted":"0","num_feature":"20","num_nodes":"5","size_leaf_vector":"1"}},{"base_weights":[-3.5787448E-3,2.541102E-2,-1.2662879E-1,-5.5277415E-2,1.1818335E-1,4.0250283E-2,-2.2582715E-2],"categories":[],"categories_nodes":[],"categories_segments":[],"categories_sizes":[],"default_left":[0,0,0,0,0,0,0],"id":59,"left_children":[1,-1,3,-1,5,-1,-1],"loss_changes":[5.0692815E-1,0E0,1.1921322E0,0E0,8.424397E-1,0E0,0E0],"parents":[2147483647,0,0,2,2,4,4],"right_children":[2,-1,4,-1,6,-1,-1],"split_conditions":[-2.2970417E-1,2.541102E-2,-5.1933527E-1,-5.5277415E-2,3.4493035E-1,4.0250283E-2,-2.2582715E-2],"split_indices":[15,0,11,0,15,0,0],"split_type":[0,0,0,0,0,0,0],"sum_hessian":[1.3972277E1,4.171438E0,9.800838E0,3.1170416E0,6.683797E0,3.5662856E0,3.1175115E0],"tree_param":{"num_deleted":"0","num_feature":"20","num_nodes":"7","size_leaf_vector":"1"}},{"base_weights":[-4.1834726E-3,2.2164695E-2,-1.5254118E-1,8.787575E-3,-4.8475258E-2],"categories":[],"categories_nodes":[],"categories_segments":[],"categories_sizes":[],"default_left":[0,0,0,0,0],"id":60,"left_children":[1,-1,3,-1,-1],"loss_changes":[5.315602E-1,0E0,8.0603576E-1,0E0,0E0],"parents":[2147483647,0,0,2,2],"right_children":[2,-1,4,-1,-1],"split_conditions":[-4.2584875E-1,2.2164695E-2,-3.29343E-1,8.787575E-3,-4.8475258E-2],"split_indices":[12,0,7,0,0],"split_type":[0,0,0,0,0],"sum_hessian":[1.3856573E1,5.297977E0,8.558596E0,5.391977E0,3.166619E0],"tree_param":{"num_deleted":"0","num_feature":"20","num_nodes":"5","size_leaf_vector":"1"}},{"base_weights":[-5.067616E-3,9.9657886E-2,-2.9353222E-2,-1.6941966E-2,3.4384903E-2],"categories":[],"categories_nodes":[],"categories_segments":[],"categories_sizes":[],"default_left":[0,0,0,0,0],"id":61,"left_children":[1,3,-1,-1,-1],"loss_changes":[4.766306E-1,8.211898E-1,0E0,0E0,0E0],"parents":[2147483647,0,0,1,1],"right_children":[2,4,-1,-1,-1],"split_conditions":[-2.7999422E-2,-3.9246222E-1,-2.9353222E-2,-1.6941966E-2,3.4384903E-2],"split_indices":[19,2,0,0,0],"split_type":[0,0,0,0,0],"sum_hessian":[1.3809127E1,1.0611281E1,3.197845E0,5.194068E0,5.4172134E0],"tree_param":{"num_deleted":"0","num_feature":"20","num_nodes":"5","size_leaf_vector":"1"}},{"base_weights":[-5.430803E-3,1.2784085E-1,-2.360834E-2,-2.7796661E-2,3.467874E-2],"categories":[],"categories_nodes":[],"categories_segments":[],"categories_sizes":[],"default_left":[0,0,0,0,0],"id":62,"left_children":[1,3,-1,-1,-1],"loss_changes":[4.836638E-1,9.847832E-1,0E0,0E0,0E0],"parents":[2147483647,0,0,1,1],"right_children":[2,4,-1,-1,-1],"split_conditions":[1.423561E-1,-3.847715E-1,-2.360834E-2,-2.7796661E-2,3.467874E-2],"split_indices":[2,1,0,0,0],"split_type":[0,0,0,0,0],"sum_hessian":[1.3752465E1,8.998724E0,4.753742E0,3.0591545E0,5.939569E0],"tree_param":{"num_deleted":"0","num_feature":"20","num_nodes":"5","size_leaf_vector":"1"}},{"base_weights":[-6.089809E-3,2.4298377E-2,-1.2614617E-1,-5.332018E-2,1.0780587E-1,3.640705E-2,-2.0591008E-2],"categories":[],"categories_nodes":[],"categories_segments":[],"categories_sizes":[],"default_left":[0,0,0,0,0,0,0],"id":63,"left_children":[1,-1,3,-1,5,-1,-1],"loss_changes":[4.707735E-1,0E0,1.0659477E0,0E0,6.8246424E-1,0E0,0E0],"parents":[2147483647,0,0,2,2,4,4],"right_children":[2,-1,4,-1,6,-1,-1],"split_conditions":[-2.2970417E-1,2.4298377E-2,-5.1933527E-1,-5.332018E-2,3.4493035E-1,3.640705E-2,-2.0591008E-2],"split_indices":[15,0,11,0,15,0,0],"split_type":[0,0,0,0,0,0,0],"sum_hessian":[1.3718388E1,4.128769E0,9.589619E0,3.0331323E0,6.556486E0,3.52033E0,3.0361564E0],"tree_param":{"num_deleted":"0","num_feature":"20","num_nodes":"7","size_leaf_vector":"1"}},{"base_weights":[-6.526719E-3,2.1323629E-2,-1.5116437E-1,1.9893616E-2,-3.726097E-2],"categories":[],"categories_nodes":[],"categories_segments":[],"categories_sizes":[],"default_left":[0,0,0,0,0],"id":64,"left_children":[1,-1,3,-1,-1],"loss_changes":[4.9666265E-1,0E0,8.026458E-1,0E0,0E0],"parents":[2147483647,0,0,2,2],"right_children":[2,-1,4,-1,-1],"split_conditions":[-4.2584875E-1,2.1323629E-2,-3.065345E-1,1.9893616E-2,-3.726097E-2],"split_indices":[12,0,11,0,0],"split_type":[0,0,0,0,0],"sum_hessian":[1.3611114E1,5.2142625E0,8.396851E0,3.292741E0,5.10411E0],"tree_param":{"num_deleted":"0","num_feature":"20","num_nodes":"5","size_leaf_vector":"1"}},{"base_weights":[-5.7157087E-3,9.238816E-2,-2.8277118E-2,-2.421825E-2,2.6094618E-1,4.798388E-2,-6.1218925E-3],"categories":[],"categories_nodes":[],"categories_segments":[],"categories_sizes":[],"default_left":[0,0,0,0,0,0,0],"id":65,"left_children":[1,3,-1,-1,5,-1,-1],"loss_changes":[4.2171177E-1,7.118495E-1,0E0,0E0,6.0269845E-1,0E0,0E0],"parents":[2147483647,0,0,1,1,4,4],"right_children":[2,4,-1,-1,6,-1,-1],"split_conditions":[2.5439933E-1,-1.22382246E-1,-2.8277118E-2,-2.421825E-2,1.2666714E-2,4.798388E-2,-6.1218925E-3],"split_indices":[18,13,0,0,11,0,0],"split_type":[0,0,0,0,0,0,0],"sum_hessian":[1.3554229E1,1.0502046E1,3.0521832E0,3.372059E0,7.129987E0,3.9540312E0,3.1759558E0],"tree_param":{"num_deleted":"0","num_feature":"20","num_nodes":"7","size_leaf_vector":"1"}},{"base_weights":[-5.923819E-3,-2.8960442E-2,1.03495166E-1,-1.3975902E-1,5.275177E-2,9.551087E-3,-3.4012195E-2],"categories":[],"categories_nodes":[],"categories_segments":[],"categories_sizes":[],"default_left":[0,0,0,0,0,0,0],"id":66,"left_children":[1,-1,3,5,-1,-1,-1],"loss_changes":[4.7766793E-1,0E0,1.2232995E0,4.0360388E-1,0E0,0E0,0E0],"parents":[2147483647,0,0,2,2,3,3],"right_children":[2,-1,4,6,-1,-1,-1],"split_conditions":[-6.257357E-1,-2.8960442E-2,-1.3617498E-3,-3.1422946E-1,5.275177E-2,9.551087E-3,-3.4012195E-2],"split_indices":[11,0,2,6,0,0,0],"split_type":[0,0,0,0,0,0,0],"sum_hessian":[1.3423153E1,3.2779539E0,1.0145199E1,6.8727956E0,3.2724037E0,3.4017305E0,3.471065E0],"tree_param":{"num_deleted":"0","num_feature":"20","num_nodes":"7","size_leaf_vector":"1"}},{"base_weights":[-5.4538343E-3,1.3020945E-1,-2.4097303E-2,-9.361028E-3,3.5494123E-2],"categories":[],"categories_nodes":[],"categories_segments":[],"categories_sizes":[],"default_left":[0,0,0,0,0],"id":67,"left_children":[1,3,-1,-1,-1],"loss_changes":[4.9269193E-1,5.266788E-1,0E0,0E0,0E0],"parents":[2147483647,0,0,1,1],"right_children":[2,4,-1,-1,-1],"split_conditions":[1.423561E-1,-5.545706E-1,-2.4097303E-2,-9.361028E-3,3.5494123E-2],"split_indices":[2,2,0,0,0],"split_type":[0,0,0,0,0],"sum_hessian":[1.3438065E1,8.8103075E0,4.6277566E0,4.7064333E0,4.1038747E0],"tree_param":{"num_deleted":"0","num_feature":"20","num_nodes":"5","size_leaf_vector":"1"}},{"base_weights":[-4.813693E-3,2.4110517E-2,-1.2496793E-1,-4.562436E-2,1.2213257E-2],"categories":[],"categories_nodes":[],"categories_segments":[],"categories_sizes":[],"default_left":[0,0,0,0,0],"id":68,"left_children":[1,-1,3,-1,-1],"loss_changes":[4.5600143E-1,0E0,9.022002E-1,0E0,0E0],"parents":[2147483647,0,0,2,2],"right_children":[2,-1,4,-1,-1],"split_conditions":[-2.2970417E-1,2.4110517E-2,8.8883173E-1,-4.562436E-2,1.2213257E-2],"split_indices":[15,0,0,0,0],"split_type":[0,0,0,0,0],"sum_hessian":[1.3412759E1,4.071998E0,9.340761E0,3.6290631E0,5.711698E0],"tree_param":{"num_deleted":"0","num_feature":"20","num_nodes":"5","size_leaf_vector":"1"}},{"base_weights":[-5.1673967E-3,1.8479936E-2,-1.5611824E-1,-4.014684E-2,1.7316088E-2],"categories":[],"categories_nodes":[],"categories_segments":[],"categories_sizes":[],"default_left":[0,0,0,0,0],"id":69,"left_children":[1,-1,3,-1,-1],"loss_changes":[4.3882042E-1,0E0,7.569134E-1,0E0,0E0],"parents":[2147483647,0,0,2,2],"right_children":[2,-1,4,-1,-1],"split_conditions":[-3.7257996E-1,1.8479936E-2,6.594743E-1,-4.014684E-2,1.7316088E-2],"split_indices":[18,0,9,0,0],"split_type":[0,0,0,0,0],"sum_hessian":[1.3296799E1,5.788245E0,7.508554E0,4.1769905E0,3.3315635E0],"tree_param":{"num_deleted":"0","num_feature":"20","num_nodes":"5","size_leaf_vector":"1"}},{"base_weights":[-5.0485115E-3,1.8348048E-2,-1.559328E-1,-4.594964E-2,1.0878332E-2],"categories":[],"categories_nodes":[],"categories_segments":[],"categories_sizes":[],"default_left":[0,0,0,0,0],"id":70,"left_children":[1,-1,3,-1,-1],"loss_changes":[4.3422106E-1,0E0,7.2987866E-1,0E0,0E0],"parents":[2147483647,0,0,2,2],"right_children":[2,-1,4,-1,-1],"split_conditions":[-6.1764544E-1,1.8348048E-2,-2.519948E-1,-4.594964E-2,1.0878332E-2],"split_indices":[3,0,19,0,0],"split_type":[0,0,0,0,0],"sum_hessian":[1.3258932E1,5.7981477E0,7.460784E0,3.1326287E0,4.3281555E0],"tree_param":{"num_deleted":"0","num_feature":"20","num_nodes":"5","size_leaf_vector":"1"}},{"base_weights":[-5.7940115E-3,-1.132939E-1,2.4065476E-2,-3.0163857E-1,2.6605958E-2,-5.8131993E-2,1.4353637E-3],"categories":[],"categories_nodes":[],"categories_segments":[],"categories_sizes":[],"default_left":[0,0,0,0,0,0,0],"id":71,"left_children":[1,3,-1,5,-1,-1,-1],"loss_changes":[4.0441984E-1,8.370546E-1,0E0,6.752969E-1,0E0,0E0,0E0],"parents":[2147483647,0,0,1,1,3,3],"right_children":[2,4,-1,6,-1,-1,-1],"split_conditions":[1.3528645E-1,3.120316E-1,2.4065476E-2,8.8883173E-1,2.6605958E-2,-5.8131993E-2,1.4353637E-3],"split_indices":[7,6,0,0,0,0,0],"split_type":[0,0,0,0,0,0,0],"sum_hessian":[1.3235913E1,9.592152E0,3.6437612E0,6.546668E0,3.045484E0,3.0274436E0,3.5192242E0],"tree_param":{"num_deleted":"0","num_feature":"20","num_nodes":"7","size_leaf_vector":"1"}},{"base_weights":[-5.811636E-3,1.05464876E-1,-2.3380876E-2,-2.6482606E-2,2.9972354E-1,4.769192E-2,5.745474E-3],"categories":[],"categories_nodes":[],"categories_segments":[],"categories_sizes":[],"default_left":[0,0,0,0,0,0,0],"id":72,"left_children":[1,3,-1,-1,5,-1,-1],"loss_changes":[3.8445243E-1,8.144719E-1,0E0,0E0,2.8048474E-1,0E0,0E0],"parents":[2147483647,0,0,1,1,4,4],"right_children":[2,4,-1,-1,6,-1,-1],"split_conditions":[3.3268785E-1,-3.847715E-1,-2.3380876E-2,-2.6482606E-2,1.2706585E-1,4.769192E-2,5.745474E-3],"split_indices":[2,1,0,0,1,0,0],"split_type":[0,0,0,0,0,0,0],"sum_hessian":[1.31814575E1,9.219304E0,3.962154E0,3.0473182E0,6.1719856E0,3.0053303E0,3.1666553E0],"tree_param":{"num_deleted":"0","num_feature":"20","num_nodes":"7","size_leaf_vector":"1"}},{"base_weights":[-5.047571E-3,2.0063022E-2,-1.2749468E-1,1.9719653E-2,-3.7474163E-2],"categories":[],"categories_nodes":[],"categories_segments":[],"categories_sizes":[],"default_left":[0,0,0,0,0],"id":73,"left_children":[1,-1,3,-1,-1],"loss_changes":[3.820213E-1,0E0,8.3518505E-1,0E0,0E0],"parents":[2147483647,0,0,2,2],"right_children":[2,-1,4,-1,-1],"split_conditions":[-3.4530407E-1,2.0063022E-2,-6.6864353E-1,1.9719653E-2,-3.7474163E-2],"split_indices":[1,0,4,0,0],"split_type":[0,0,0,0,0],"sum_hessian":[1.3153148E1,4.6701174E0,8.48303E0,3.7546957E0,4.728335E0],"tree_param":{"num_deleted":"0","num_feature":"20","num_nodes":"5","size_leaf_vector":"1"}},{"base_weights":[-4.4725314E-3,-2.6072308E-2,9.3219526E-2,-1.4900275E-1,5.1859897E-2,7.940665E-3,-3.370446E-2],"categories":[],"categories_nodes":[],"categories_segments":[],"categories_sizes":[],"default_left":[0,0,0,0,0,0,0],"id":74,"left_children":[1,-1,3,5,-1,-1,-1],"loss_changes":[3.7754387E-1,0E0,1.205782E0,3.598662E-1,0E0,0E0,0E0],"parents":[2147483647,0,0,2,2,3,3],"right_children":[2,-1,4,6,-1,-1,-1],"split_conditions":[-6.257357E-1,-2.6072308E-2,-1.3617498E-3,-3.1422946E-1,5.1859897E-2,7.940665E-3,-3.370446E-2],"split_indices":[11,0,2,6,0,0,0],"split_type":[0,0,0,0,0,0,0],"sum_hessian":[1.3110584E1,3.1580513E0,9.952534E0,6.7554946E0,3.1970387E0,3.311194E0,3.4443007E0],"tree_param":{"num_deleted":"0","num_feature":"20","num_nodes":"7","size_leaf_vector":"1"}},{"base_weights":[-4.096433E-3,1.2860516E-1,-2.0825448E-2,-6.139351E-3,3.2502826E-2],"categories":[],"categories_nodes":[],"categories_segments":[],"categories_sizes":[],"default_left":[0,0,0,0,0],"id":75,"left_children":[1,3,-1,-1,-1],"loss_changes":[4.094306E-1,3.6248755E-1,0E0,0E0,0E0],"parents":[2147483647,0,0,1,1],"right_children":[2,4,-1,-1,-1],"split_conditions":[2.3718639E-1,-5.33629E-1,-2.0825448E-2,-6.139351E-3,3.2502826E-2],"split_indices":[15,4,0,0,0],"split_type":[0,0,0,0,0],"sum_hessian":[1.3123971E1,8.178234E0,4.9457364E0,4.5065365E0,3.671698E0],"tree_param":{"num_deleted":"0","num_feature":"20","num_nodes":"5","size_leaf_vector":"1"}},{"base_weights":[-3.336612E-3,1.08271465E-1,-2.338695E-2,-2.5125995E-2,2.9747602E-1,4.4688508E-2,7.336383E-3],"categories":[],"categories_nodes":[],"categories_segments":[],"categories_sizes":[],"default_left":[0,0,0,0,0,0,0],"id":76,"left_children":[1,3,-1,-1,5,-1,-1],"loss_changes":[3.875819E-1,7.6658237E-1,0E0,0E0,2.0567387E-1,0E0,0E0],"parents":[2147483647,0,0,1,1,4,4],"right_children":[2,4,-1,-1,6,-1,-1],"split_conditions":[3.3268785E-1,-3.847715E-1,-2.338695E-2,-2.5125995E-2,-3.7257996E-1,4.4688508E-2,7.336383E-3],"split_indices":[2,1,0,0,18,0,0],"split_type":[0,0,0,0,0,0,0],"sum_hessian":[1.3079671E1,9.17036E0,3.909311E0,3.048859E0,6.121501E0,3.0764785E0,3.0450225E0],"tree_param":{"num_deleted":"0","num_feature":"20","num_nodes":"7","size_leaf_vector":"1"}},{"base_weights":[-2.7718341E-3,2.2220587E-2,-1.1457319E-1,-4.2905297E-2,1.1245307E-2],"categories":[],"categories_nodes":[],"categories_segments":[],"categories_sizes":[],"default_left":[0,0,0,0,0],"id":77,"left_children":[1,-1,3,-1,-1],"loss_changes":[3.7827402E-1,0E0,7.6435125E-1,0E0,0E0],"parents":[2147483647,0,0,2,2],"right_children":[2,-1,4,-1,-1],"split_conditions":[-2.2970417E-1,2.2220587E-2,8.8883173E-1,-4.2905297E-2,1.1245307E-2],"split_indices":[15,0,0,0,0],"split_type":[0,0,0,0,0],"sum_hessian":[1.302687E1,3.9967365E0,9.030133E0,3.4127977E0,5.6173353E0],"tree_param":{"num_deleted":"0","num_feature":"20","num_nodes":"5","size_leaf_vector":"1"}},{"base_weights":[-3.3177817E-3,1.6960748E-2,-1.4319737E-1,-4.3781765E-2,1.1281576E-2],"categories":[],"categories_nodes":[],"categories_segments":[],"categories_sizes":[],"default_left":[0,0,0,0,0],"id":78,"left_children":[1,-1,3,-1,-1],"loss_changes":[3.6110392E-1,0E0,6.709082E-1,0E0,0E0],"parents":[2147483647,0,0,2,2],"right_children":[2,-1,4,-1,-1],"split_conditions":[-6.1764544E-1,1.6960748E-2,-2.519948E-1,-4.3781765E-2,1.1281576E-2],"split_indices":[3,0,19,0,0],"split_type":[0,0,0,0,0],"sum_hessian":[1.2924535E1,5.684537E0,7.239998E0,3.0360126E0,4.2039847E0],"tree_param":{"num_deleted":"0","num_feature":"20","num_nodes":"5","size_leaf_vector":"1"}},{"base_weights":[-4.169478E-3,1.7578188E-2,-1.2523444E-1,-3.609376E-2,1.761282E-2],"categories":[],"categories_nodes":[],"categories_segments":[],"categories_sizes":[],"default_left":[0,0,0,0,0],"id":79,"left_children":[1,-1,3,-1,-1],"loss_changes":[3.248943E-1,0E0,6.95412E-1,0E0,0E0],"parents":[2147483647,0,0,2,2],"right_children":[2,-1,4,-1,-1],"split_conditions":[-4.2584875E-1,1.7578188E-2,-8.516975E-2,-3.609376E-2,1.761282E-2],"split_indices":[12,0,12,0,0],"split_type":[0,0,0,0,0],"sum_hessian":[1.2902648E1,5.0075083E0,7.89514E0,4.3192573E0,3.575883E0],"tree_param":{"num_deleted":"0","num_feature":"20","num_nodes":"5","size_leaf_vector":"1"}},{"base_weights":[-3.914908E-3,-2.4418293E-2,8.7417565E-2,-1.4998978E-1,5.0123896E-2,7.3022703E-3,-3.3114154E-2],"categories":[],"categories_nodes":[],"categories_segments":[],"categories_sizes":[],"default_left":[0,0,0,0,0,0,0],"id":80,"left_children":[1,-1,3,5,-1,-1,-1],"loss_changes":[3.2517895E-1,0E0,1.1331278E0,3.3171985E-1,0E0,0E0,0E0],"parents":[2147483647,0,0,2,2,3,3],"right_children":[2,-1,4,6,-1,-1,-1],"split_conditions":[-6.257357E-1,-2.4418293E-2,-1.3617498E-3,-3.1422946E-1,5.0123896E-2,7.3022703E-3,-3.3114154E-2],"split_indices":[11,0,2,6,0,0,0],"split_type":[0,0,0,0,0,0,0],"sum_hessian":[1.2845666E1,3.0771244E0,9.768541E0,6.6125197E0,3.1560216E0,3.231356E0,3.3811636E0],"tree_param":{"num_deleted":"0","num_feature":"20","num_nodes":"7","size_leaf_vector":"1"}},{"base_weights":[-3.599885E-3,1.06530756E-1,-2.3095556E-2,-8.745011E-3,4.058969E-2],"categories":[],"categories_nodes":[],"categories_segments":[],"categories_sizes":[],"default_left":[0,0,0,0,0],"id":81,"left_children":[1,3,-1,-1,-1],"loss_changes":[3.716079E-1,6.1740166E-1,0E0,0E0,0E0],"parents":[2147483647,0,0,1,1],"right_children":[2,4,-1,-1,-1],"split_conditions":[3.3268785E-1,-3.9246222E-1,-2.3095556E-2,-8.745011E-3,4.058969E-2],"split_indices":[2,2,0,0,0],"split_type":[0,0,0,0,0],"sum_hessian":[1.2858639E1,9.020541E0,3.838097E0,5.9032702E0,3.1172712E0],"tree_param":{"num_deleted":"0","num_feature":"20","num_nodes":"5","size_leaf_vector":"1"}},{"base_weights":[-2.6390245E-3,1.7358543E-2,-1.448124E-1,1.3037856E-2,-3.3820357E-2],"categories":[],"categories_nodes":[],"categories_segments":[],"categories_sizes":[],"default_left":[0,0,0,0,0],"id":82,"left_children":[1,-1,3,-1,-1],"loss_changes":[3.7159225E-1,0E0,4.804228E-1,0E0,0E0],"parents":[2147483647,0,0,2,2],"right_children":[2,-1,4,-1,-1],"split_conditions":[-6.1764544E-1,1.7358543E-2,1.4739974E-1,1.3037856E-2,-3.3820357E-2],"split_indices":[3,0,15,0,0],"split_type":[0,0,0,0,0],"sum_hessian":[1.2828092E1,5.6294384E0,7.198653E0,3.105472E0,4.093181E0],"tree_param":{"num_deleted":"0","num_feature":"20","num_nodes":"5","size_leaf_vector":"1"}},{"base_weights":[-2.7165194E-3,1.5879368E-2,-1.341092E-1,-3.5671774E-2,8.2004815E-3],"categories":[],"categories_nodes":[],"categories_segments":[],"categories_sizes":[],"default_left":[0,0,0,0,0],"id":83,"left_children":[1,-1,3,-1,-1],"loss_changes":[3.1334987E-1,0E0,4.2041874E-1,0E0,0E0],"parents":[2147483647,0,0,2,2],"right_children":[2,-1,4,-1,-1],"split_conditions":[-6.1764544E-1,1.5879368E-2,-1.7424558E-1,-3.5671774E-2,8.2004815E-3],"split_indices":[3,0,3,0,0],"split_type":[0,0,0,0,0],"sum_hessian":[1.27623415E1,5.6314826E0,7.1308594E0,3.1921654E0,3.938694E0],"tree_param":{"num_deleted":"0","num_feature":"20","num_nodes":"5","size_leaf_vector":"1"}},{"base_weights":[-3.3294044E-3,1.6904674E-2,-1.2254226E-1,1.7838856E-2,-3.229735E-2],"categories":[],"categories_nodes":[],"categories_segments":[],"categories_sizes":[],"default_left":[0,0,0,0,0],"id":84,"left_children":[1,-1,3,-1,-1],"loss_changes":[3.0318567E-1,0E0,5.827117E-1,0E0,0E0],"parents":[2147483647,0,0,2,2],"right_children":[2,-1,4,-1,-1],"split_conditions":[-5.5987275E-1,1.6904674E-2,-3.6900958E-1,1.7838856E-2,-3.229735E-2],"split_indices":[6,0,0,0,0],"split_type":[0,0,0,0,0],"sum_hessian":[1.274588E1,5.040104E0,7.705776E0,3.12453E0,4.581246E0],"tree_param":{"num_deleted":"0","num_feature":"20","num_nodes":"5","size_leaf_vector":"1"}},{"base_weights":[-2.8949264E-3,-2.371942E-2,8.708162E-2,3.810375E-2,-1.1887741E-2],"categories":[],"categories_nodes":[],"categories_segments":[],"categories_sizes":[],"default_left":[0,0,0,0,0],"id":85,"left_children":[1,-1,3,-1,-1],"loss_changes":[3.0935636E-1,0E0,6.886375E-1,0E0,0E0],"parents":[2147483647,0,0,2,2],"right_children":[2,-1,4,-1,-1],"split_conditions":[-7.6121736E-1,-2.371942E-2,-3.4530407E-1,3.810375E-2,-1.1887741E-2],"split_indices":[5,0,1,0,0],"split_type":[0,0,0,0,0],"sum_hessian":[1.2694563E1,3.068361E0,9.626203E0,3.615665E0,6.010537E0],"tree_param":{"num_deleted":"0","num_feature":"20","num_nodes":"5","size_leaf_vector":"1"}},{"base_weights":[-2.4720116E-3,1.6889079E-2,-1.1962624E-1,2.0596055E-2,-3.2709774E-2],"categories":[],"categories_nodes":[],"categories_segments":[],"categories_sizes":[],"default_left":[0,0,0,0,0],"id":86,"left_children":[1,-1,3,-1,-1],"loss_changes":[2.9540277E-1,0E0,6.56886E-1,0E0,0E0],"parents":[2147483647,0,0,2,2],"right_children":[2,-1,4,-1,-1],"split_conditions":[-4.2584875E-1,1.6889079E-2,-3.065345E-1,2.0596055E-2,-3.2709774E-2],"split_indices":[12,0,11,0,0],"split_type":[0,0,0,0,0],"sum_hessian":[1.2707946E1,4.980826E0,7.72712E0,3.010305E0,4.716815E0],"tree_param":{"num_deleted":"0","num_feature":"20","num_nodes":"5","size_leaf_vector":"1"}},{"base_weights":[-1.9463397E-3,1.0012551E-1,-2.1325389E-2,-8.316772E-3,3.8217895E-2],"categories":[],"categories_nodes":[],"categories_segments":[],"categories_sizes":[],"default_left":[0,0,0,0,0],"id":87,"left_children":[1,3,-1,-1,-1],"loss_changes":[3.1603712E-1,5.432423E-1,0E0,0E0,0E0],"parents":[2147483647,0,0,1,1],"right_children":[2,4,-1,-1,-1],"split_conditions":[3.3268785E-1,-3.9246222E-1,-2.1325389E-2,-8.316772E-3,3.8217895E-2],"split_indices":[2,2,0,0,0],"split_type":[0,0,0,0,0],"sum_hessian":[1.2662715E1,8.893085E0,3.769631E0,5.817621E0,3.075463E0],"tree_param":{"num_deleted":"0","num_feature":"20","num_nodes":"5","size_leaf_vector":"1"}},{"base_weights":[-1.1468085E-3,1.6171452E-2,-1.3430846E-1,1.1218083E-2,-3.0824585E-2],"categories":[],"categories_nodes":[],"categories_segments":[],"categories_sizes":[],"default_left":[0,0,0,0,0],"id":88,"left_children":[1,-1,3,-1,-1],"loss_changes":[3.174309E-1,0E0,3.7962905E-1,0E0,0E0],"parents":[2147483647,0,0,2,2],"right_children":[2,-1,4,-1,-1],"split_conditions":[-6.1764544E-1,1.6171452E-2,1.4739974E-1,1.1218083E-2,-3.0824585E-2],"split_indices":[3,0,15,0,0],"split_type":[0,0,0,0,0],"sum_hessian":[1.263549E1,5.5874376E0,7.048053E0,3.0627847E0,3.985268E0],"tree_param":{"num_deleted":"0","num_feature":"20","num_nodes":"5","size_leaf_vector":"1"}},{"base_weights":[-1.3557789E-3,-1.7516134E-2,1.1811844E-1,3.8686942E-2,-9.579516E-3],"categories":[],"categories_nodes":[],"categories_segments":[],"categories_sizes":[],"default_left":[0,0,0,0,0],"id":89,"left_children":[1,-1,3,-1,-1],"loss_changes":[3.0263624E-1,0E0,5.339885E-1,0E0,0E0],"parents":[2147483647,0,0,2,2],"right_children":[2,-1,4,-1,-1],"split_conditions":[-1.22382246E-1,-1.7516134E-2,-3.7257996E-1,3.8686942E-2,-9.579516E-3],"split_indices":[13,0,18,0,0],"split_type":[0,0,0,0,0],"sum_hessian":[1.2577781E1,4.9339695E0,7.643811E0,3.0293486E0,4.6144624E0],"tree_param":{"num_deleted":"0","num_feature":"20","num_nodes":"5","size_leaf_vector":"1"}},{"base_weights":[-3.364156E-4,-2.395408E-2,9.092312E-2,3.636564E-2,-1.0412774E-2],"categories":[],"categories_nodes":[],"categories_segments":[],"categories_sizes":[],"default_left":[0,0,0,0,0],"id":90,"left_children":[1,-1,3,-1,-1],"loss_changes":[3.1634533E-1,0E0,5.9602296E-1,0E0,0E0],"parents":[2147483647,0,0,2,2],"right_children":[2,-1,4,-1,-1],"split_conditions":[-7.6121736E-1,-2.395408E-2,-3.4530407E-1,3.636564E-2,-1.0412774E-2],"split_indices":[5,0,1,0,0],"split_type":[0,0,0,0,0],"sum_hessian":[1.2493808E1,3.0015316E0,9.492276E0,3.597538E0,5.894738E0],"tree_param":{"num_deleted":"0","num_feature":"20","num_nodes":"5","size_leaf_vector":"1"}},{"base_weights":[-2.009309E-4,-2.1169199E-2,9.825931E-2,3.5755143E-2,-1.2077039E-2],"categories":[],"categories_nodes":[],"categories_segments":[],"categories_sizes":[],"default_left":[0,0,0,0,0],"id":91,"left_children":[1,-1,3,-1,-1],"loss_changes":[3.02077E-1,0E0,6.0541517E-1,0E0,0E0],"parents":[2147483647,0,0,2,2],"right_children":[2,-1,4,-1,-1],"split_conditions":[1.3838473E-1,-2.1169199E-2,-5.5987275E-1,3.5755143E-2,-1.2077039E-2],"split_indices":[10,0,6,0,0],"split_type":[0,0,0,0,0],"sum_hessian":[1.2507664E1,3.6079082E0,8.8997555E0,3.7857127E0,5.1140423E0],"tree_param":{"num_deleted":"0","num_feature":"20","num_nodes":"5","size_leaf_vector":"1"}},{"base_weights":[-1.323584E-5,-1.7092077E-2,1.1699322E-1,3.7786327E-2,-9.0915365E-3],"categories":[],"categories_nodes":[],"categories_segments":[],"categories_sizes":[],"default_left":[0,0,0,0,0],"id":92,"left_children":[1,-1,3,-1,-1],"loss_changes":[2.8943604E-1,0E0,5.0034726E-1,0E0,0E0],"parents":[2147483647,0,0,2,2],"right_children":[2,-1,4,-1,-1],"split_conditions":[-1.22382246E-1,-1.7092077E-2,-3.7257996E-1,3.7786327E-2,-9.0915365E-3],"split_indices":[13,0,18,0,0],"split_type":[0,0,0,0,0],"sum_hessian":[1.24738035E1,4.8820176E0,7.5917854E0,3.0044944E0,4.5872912E0],"tree_param":{"num_deleted":"0","num_feature":"20","num_nodes":"5","size_leaf_vector":"1"}},{"base_weights":[8.8562374E-4,1.6342437E-2,-1.118476E-1,-3.2421194E-2,1.5426855E-2],"categories":[],"categories_nodes":[],"categories_segments":[],"categories_sizes":[],"default_left":[0,0,0,0,0],"id":93,"left_children":[1,-1,3,-1,-1],"loss_changes":[2.636867E-1,0E0,5.304847E-1,0E0,0E0],"parents":[2147483647,0,0,2,2],"right_children":[2,-1,4,-1,-1],"split_conditions":[-4.2584875E-1,1.6342437E-2,-8.516975E-2,-3.2421194E-2,1.5426855E-2],"split_indices":[12,0,12,0,0],"split_type":[0,0,0,0,0],"sum_hessian":[1.2393065E1,4.891232E0,7.5018334E0,4.0508723E0,3.450961E0],"tree_param":{"num_deleted":"0","num_feature":"20","num_nodes":"5","size_leaf_vector":"1"}},{"base_weights":[6.866165E-4,-2.0163173E-2,9.479745E-2,3.394064E-2,-1.14554195E-2],"categories":[],"categories_nodes":[],"categories_segments":[],"categories_sizes":[],"default_left":[0,0,0,0,0],"id":94,"left_children":[1,-1,3,-1,-1],"loss_changes":[2.732043E-1,0E0,5.401317E-1,0E0,0E0],"parents":[2147483647,0,0,2,2],"right_children":[2,-1,4,-1,-1],"split_conditions":[1.3838473E-1,-2.0163173E-2,-5.5987275E-1,3.394064E-2,-1.14554195E-2],"split_indices":[10,0,6,0,0],"split_type":[0,0,0,0,0],"sum_hessian":[1.2344827E1,3.556536E0,8.78829E0,3.7663808E0,5.0219097E0],"tree_param":{"num_deleted":"0","num_feature":"20","num_nodes":"5","size_leaf_vector":"1"}},{"base_weights":[7.7761046E-4,1.5757525E-2,-1.290322E-1,-3.431135E-2,8.036193E-3],"categories":[],"categories_nodes":[],"categories_segments":[],"categories_sizes":[],"default_left":[0,0,0,0,0],"id":95,"left_children":[1,-1,3,-1,-1],"loss_changes":[2.9131773E-1,0E0,3.787274E-1,0E0,0E0],"parents":[2147483647,0,0,2,2],"right_children":[2,-1,4,-1,-1],"split_conditions":[-6.1764544E-1,1.5757525E-2,-1.7424558E-1,-3.431135E-2,8.036193E-3],"split_indices":[3,0,3,0,0],"split_type":[0,0,0,0,0],"sum_hessian":[1.2313706E1,5.480229E0,6.8334775E0,3.0631547E0,3.7703226E0],"tree_param":{"num_deleted":"0","num_feature":"20","num_nodes":"5","size_leaf_vector":"1"}},{"base_weights":[-1.2447094E-4,1.4420534E-2,-1.19791314E-1,-3.192218E-2,7.3889876E-3],"categories":[],"categories_nodes":[],"categories_segments":[],"categories_sizes":[],"default_left":[0,0,0,0,0],"id":96,"left_children":[1,-1,3,-1,-1],"loss_changes":[2.4697007E-1,0E0,3.2552645E-1,0E0,0E0],"parents":[2147483647,0,0,2,2],"right_children":[2,-1,4,-1,-1],"split_conditions":[-6.1764544E-1,1.4420534E-2,-1.7424558E-1,-3.192218E-2,7.3889876E-3],"split_indices":[3,0,3,0,0],"split_type":[0,0,0,0,0],"sum_hessian":[1.2299114E1,5.482106E0,6.8170075E0,3.0393033E0,3.7777045E0],"tree_param":{"num_deleted":"0","num_feature":"20","num_nodes":"5","size_leaf_vector":"1"}},{"base_weights":[-9.0214115E-4,-1.011756E-1,1.7031346E-2,-3.797999E-2,2.2602592E-2],"categories":[],"categories_nodes":[],"categories_segments":[],"categories_sizes":[],"default_left":[0,0,0,0,0],"id":97,"left_children":[1,3,-1,-1,-1],"loss_changes":[2.4533424E-1,9.069183E-1,0E0,0E0,0E0],"parents":[2147483647,0,0,1,1],"right_children":[2,4,-1,-1,-1],"split_conditions":[4.5255548E-1,-5.33629E-1,1.7031346E-2,-3.797999E-2,2.2602592E-2],"split_indices":[10,4,0,0,0],"split_type":[0,0,0,0,0],"sum_hessian":[1.2286209E1,8.006329E0,4.2798805E0,4.237331E0,3.768998E0],"tree_param":{"num_deleted":"0","num_feature":"20","num_nodes":"5","size_leaf_vector":"1"}},{"base_weights":[-7.501008E-4,-1.6016975E-2,1.0799202E-1,2.9851526E-2,-1.0323598E-2],"categories":[],"categories_nodes":[],"categories_segments":[],"categories_sizes":[],"default_left":[0,0,0,0,0],"id":98,"left_children":[1,-1,3,-1,-1],"loss_changes":[2.4749257E-1,0E0,3.7254328E-1,0E0,0E0],"parents":[2147483647,0,0,2,2],"right_children":[2,-1,4,-1,-1],"split_conditions":[-1.22382246E-1,-1.6016975E-2,-6.0113627E-1,2.9851526E-2,-1.0323598E-2],"split_indices":[13,0,4,0,0],"split_type":[0,0,0,0,0],"sum_hessian":[1.2278749E1,4.78737E0,7.4913793E0,3.7214615E0,3.7699177E0],"tree_param":{"num_deleted":"0","num_feature":"20","num_nodes":"5","size_leaf_vector":"1"}},{"base_weights":[-3.9808702E-4,8.929901E-2,-1.8447252E-2,-1.27271535E-2,2.6976887E-2],"categories":[],"categories_nodes":[],"categories_segments":[],"categories_sizes":[],"default_left":[0,0,0,0,0],"id":99,"left_children":[1,3,-1,-1,-1],"loss_changes":[2.345174E-1,4.0771165E-1,0E0,0E0,0E0],"parents":[2147483647,0,0,1,1],"right_children":[2,4,-1,-1,-1],"split_conditions":[3.3268785E-1,-1.7171252E-1,-1.8447252E-2,-1.27271535E-2,2.6976887E-2],"split_indices":[2,1,0,0,0],"split_type":[0,0,0,0,0],"sum_hessian":[1.2206041E1,8.553101E0,3.6529403E0,4.0216947E0,4.5314064E0],"tree_param":{"num_deleted":"0","num_feature":"20","num_nodes":"5","size_leaf_vector":"1"}}]},"name":"gbtree"},"learner_model_param":{"base_score":"2.7364832E-1","boost_from_average":"1","num_class":"0","num_feature":"20","num_target":"1"},"objective":{"name":"binary:logistic","reg_loss_param":{"scale_pos_weight":"1"}}},"version":[2,0,3]}